svm_type c_svc
kernel_type rbf
gamma 32
nr_class 3
total_sv 750
rho 0.626319 0.134466 -0.808239
label 1 3 2
nr_sv 110 437 203
SV
1.449403335655348 1.013550620498443 1:-0.00975 2:0.031510781 3:0.82739493 4:0.39998787 5:-1.1697868 6:-332.99613 7:0.0039558768 8:5.069693 9:6.5121508e-05 10:0.049839751 11:0.091707848 12:0.113339 13:0.00025140778 14:0.038487513 15:7.2012154e-05 16:0.008935332 17:0.032333092 18:1.8441821e-07 
0.2644997435398073 0 1:0.009 2:0.031510781 3:0.79881549 4:-0.39393933 5:-1.1692228 6:-332.99594 7:0.0038042307 8:5.0697241 9:5.9649068e-05 10:0.049980474 11:0.09165147 12:0.11335171 13:0.00024181106 14:0.038500282 15:6.6067084e-05 16:0.0089349677 17:0.032333494 18:1.6919329e-07 
1.019452084871413 0.7369522410419603 1:-0.0113125 2:0.031510781 3:0.98007816 4:-0.025330934 5:-1.1692228 6:-332.99554 7:0.00092650329 8:5.0700925 9:1.252845e-05 10:0.051777124 11:0.091189465 12:0.11342942 13:0.00023835487 14:0.038511878 15:5.9398642e-05 16:0.0089399412 17:0.032329939 18:6.0735059e-07 
0.6664280239035976 0 1:-0.0113125 2:0.054937541 3:0.78082034 4:-0.25904495 5:-1.1697868 6:-332.99547 7:0.0093167722 8:5.0685348 9:0.00029812394 10:0.047746497 11:0.092799058 12:0.11302905 13:0.00026302855 14:0.038392662 15:0.00014478694 16:0.0089351387 17:0.03233143 18:1.6511597e-07 
9.381605533041585 5.569797508716245 1:0.0386875 2:0.036111499 3:0.41955853 4:-0.5830024 5:-1.2284444 6:-332.99514 7:0.0035275276 8:5.0696333 9:9.1435151e-05 10:0.03944064 11:0.095224021 12:0.11257178 13:0.0041137999 14:0.034385723 15:0.0018450341 16:0.009456264 17:0.031804279 18:8.6659415e-05 
5.639666787173488 0 1:0.018375 2:0.044760548 3:0.65084918 4:-0.26809434 5:-1.2160361 6:-332.99384 7:0.0060412043 8:5.0690594 9:0.00021594099 10:0.062653653 11:0.087403629 12:0.1143118 13:0.0010106144 14:0.03745735 15:0.00062174307 16:0.0088718434 17:0.032406136 18:4.1973066e-06 
16 0 1:0.0168125 2:0.04478551 3:0.60504531 4:-0.45673452 5:-1.2188562 6:-332.99393 7:0.0048355311 8:5.0692852 9:0.00017364405 10:0.060873531 11:0.088054608 12:0.11415556 13:0.00081756419 14:0.037691739 15:0.00050561309 16:0.0088824694 17:0.032393677 18:3.4474102e-06 
3.074190705768372 0 1:0.018375 2:0.044812891 3:0.7183627 4:-0.21761167 5:-1.2205482 6:-332.99324 7:0.0062510459 8:5.0690825 9:0.00020030534 10:0.063045284 11:0.087445163 12:0.1142589 13:0.0010624006 14:0.037462828 15:0.0005862253 16:0.0088716399 17:0.032402755 18:4.0210408e-06 
16 4.31410111524768 1:0.0168125 2:0.044909667 3:0.57508095 4:-0.45620886 5:-1.2250603 6:-332.99345 7:0.0041198252 8:5.0694589 9:0.00013383971 10:0.059859226 11:0.088543714 12:0.11401036 13:0.00071250363 14:0.037863341 15:0.00039918368 16:0.0088900279 17:0.032382436 18:2.7823794e-06 
1.937463833465816 0.3799193838360462 1:-0.0113125 2:0.062275531 3:0.455469 4:-0.11055613 5:-1.3423756 6:-332.99631 7:0.0044853758 8:5.0695639 9:9.0457433e-05 10:0.045776789 11:0.092936788 12:0.1130982 13:0.00098027824 14:0.037791191 15:0.00034246254 16:0.0089773213 17:0.032295052 18:3.0174699e-06 
0.6414777809087251 0.6194800855256154 1:-0.0113125 2:0.062331789 3:0.60147092 4:0.0036453881 5:-1.3412476 6:-332.99575 7:0.0018498569 8:5.0698739 9:5.7970814e-05 10:0.051125475 11:0.091612387 12:0.11330259 13:0.00022692032 14:0.038436187 15:0.00012340732 16:0.0089396811 17:0.032326404 18:6.0708297e-07 
4.742501368074189 1.705691333150477 1:0.0074375 2:0.071489738 3:0.55510134 4:-0.53248577 5:-1.0744681 6:-332.99452 7:0.021153335 8:5.0609423 9:0.004052649 10:0.10714807 11:0.04495569 12:0.13919588 13:0.0099812598 14:0.01037162 15:0.032810225 16:0.0067232806 17:0.038386648 18:0.00062600322 
0.1606486122820403 0.4990695940386654 1:-0.0113125 2:0.038145697 3:0.982284 4:-0.34198863 5:-0.98591765 6:-332.99544 7:0.012242501 8:5.0673653 9:0.00065717302 10:0.047681289 11:0.093423001 12:0.11270726 13:0.00020480008 14:0.038390334 15:0.00018879778 16:0.0089338348 17:0.032331404 18:1.27634e-07 
0 0.4143977610657164 1:-0.00975 2:0.10236746 3:0.81389437 4:-0.23211895 5:-0.97125324 6:-332.99541 7:0.12391162 8:4.9925643 9:0.04864231 10:0.04599837 11:0.099992242 12:0.10608971 13:9.7190031e-05 14:0.038303049 15:0.00065547096 16:0.0089314567 17:0.032329575 18:6.0162454e-08 
0.1444676876380548 0.1564869986330359 1:-0.0113125 2:0.029351115 3:0.98704269 4:-0.22233834 5:-0.9695612 6:-332.99563 7:0.0016305912 8:5.0699406 9:4.1658899e-05 10:0.051218897 11:0.091504399 12:0.11334284 13:0.00023750121 14:0.038449787 15:0.00010598335 16:0.0089400173 17:0.032327152 18:6.1830654e-07 
2.344968843365085 0 1:-0.0113125 2:0.027520953 3:0.67090641 4:-0.22623376 5:-0.86409024 6:-332.99567 7:0.015560677 8:5.0659347 9:0.0011701434 10:0.047081639 11:0.094228959 12:0.11227994 13:0.00019594247 14:0.038349667 15:0.00025292184 16:0.0089337553 17:0.03233034 18:1.2874287e-07 
0 0.6391837871636731 1:-0.00975 2:0.027509115 3:0.68556788 4:-0.15718563 5:-0.86183418 6:-332.99548 7:0.0044883965 8:5.0693979 9:0.00014384316 10:0.047952023 11:0.09273086 12:0.11304386 13:0.00050685793 14:0.038108384 15:0.00028005803 16:0.0089517583 17:0.032312735 18:1.2750391e-06 
0.8332859513174355 0.5156421976524472 1:-0.0081875 2:0.036097692 3:0.78963502 4:0.043136587 5:-0.86070615 6:-332.99502 7:0.0071165591 8:5.0683762 9:0.00046828382 10:0.050587696 11:0.092250055 12:0.11300888 13:8.8963402e-05 14:0.038550116 15:0.00010050517 16:0.0089311974 17:0.032334942 18:5.0723581e-08 
0 0.08702397935660103 1:-0.0113125 2:0.027483113 3:0.83861756 4:-0.24504746 5:-0.85450197 6:-332.99586 7:0.010483568 8:5.0672292 9:0.00084286216 10:0.044932663 11:0.095535827 12:0.11176385 13:0.0005168621 14:0.037747768 15:0.0007131975 16:0.0089532372 17:0.032295473 18:1.4206427e-06 
1.157832221361084 0.03270198156534058 1:-0.0113125 2:0.027477605 3:0.724503 4:-0.27978711 5:-0.85224591 6:-332.99643 7:0.007634961 8:5.0686474 9:0.00031639094 10:0.048838347 11:0.092642898 12:0.11300597 13:0.00021107136 14:0.038419261 15:0.00015037355 16:0.0089345758 17:0.03233125 18:1.6785865e-07 
1.091139712596793 0.7027051583514372 1:-0.0113125 2:0.027477605 3:0.98044202 4:-0.10193306 5:-0.85224591 6:-332.99642 7:0.0018133687 8:5.0698336 9:7.4706386e-05 10:0.051285065 11:0.09166904 12:0.1132604 13:0.00020169742 14:0.038431792 15:0.00014353816 16:0.0089393508 17:0.032325162 18:6.4013951e-07 
0.9962412847998157 0.7270505987574115 1:-0.0113125 2:0.053245707 3:0.92923318 4:0.12853999 5:-0.84998985 6:-332.99508 7:0.052105054 8:5.0475446 9:0.0098517803 10:0.045355823 11:0.097716624 12:0.10962502 13:0.00014682716 14:0.038284022 15:0.00047667753 16:0.0089324362 17:0.032329472 18:8.4766135e-08 
0.08281844307912598 0 1:-0.0113125 2:0.027473673 3:0.79445411 4:-0.050434188 5:-0.84942583 6:-332.9958 7:0.011231161 8:5.0680866 9:0.00039824898 10:0.046655869 11:0.093306175 12:0.11288227 13:0.0003084035 14:0.038321223 15:0.00018799769 16:0.0089364012 17:0.032329598 18:2.0859458e-07 
1.505581339777413 1.048881684573751 1:-0.00975 2:0.053245707 3:0.81415011 4:0.39414901 5:-0.84942583 6:-332.9959 7:0.079789872 8:5.0321404 9:0.018155404 10:0.043142501 11:0.10045268 12:0.10757605 13:0.00018648912 14:0.038121081 15:0.00072874741 16:0.0089336586 17:0.032324993 18:1.2943478e-07 
0.7290755543549596 0.2686588479435539 1:-0.0113125 2:0.027471314 3:0.62649941 4:-0.04431075 5:-1.1291777 6:-332.99723 7:0.0025018112 8:5.0697962 9:6.5563245e-05 10:0.049140997 11:0.092171826 12:0.11320215 13:0.00056112307 14:0.038105789 15:0.00025520527 16:0.0089610333 17:0.032305615 18:2.3008428e-06 
0.09574569068189373 0.2886322106917844 1:-0.0113125 2:0.027471314 3:0.74748661 4:0.023929925 5:-1.1314337 6:-332.99662 7:0.016235043 8:5.0666282 9:0.00078657305 10:0.04405285 11:0.094850887 12:0.11234354 13:0.0004058257 14:0.038118676 15:0.00033767781 16:0.0089397081 17:0.032323629 18:3.4122815e-07 
0.1112487589708403 0.03548619226849129 1:0.0105625 2:0.092352422 3:0.71804481 4:-0.078779818 5:-1.4529227 6:-332.99495 7:0.001014906 8:5.0701116 9:7.5109272e-06 10:0.053526294 11:0.090777907 12:0.11349298 13:0 14:0.038698128 15:0 16:0.0089293227 17:0.032337956 18:0 
0.9510665664707468 0.7376244136486707 1:-0.00975 2:0.043303188 3:0.83582093 4:-0.039236178 5:-1.4546148 6:-332.9958 7:0.0049861639 8:5.0697069 9:4.866662e-05 10:0.05060135 11:0.09134845 12:0.11341993 13:0.00024781918 14:0.038537589 15:4.2445402e-05 16:0.0089350135 17:0.032334394 18:1.6778171e-07 
3.50358783012739 0 1:0.0761875 2:0.064925004 3:0.30609577 4:-0.54311295 5:-1.4839436 6:-332.98695 7:0.00071768082 8:5.0701386 9:5.0480149e-06 10:0.047267901 11:0.091902003 12:0.11336045 13:0.0039187882 14:0.036360554 15:0.00056909849 16:0.0095417167 17:0.031985029 18:0.00012286961 
0 6.359722365666648 1:0.0761875 2:0.05588116 3:0.32068248 4:-0.54687257 5:-1.4828156 6:-332.9883 7:0.00027209625 8:5.0701836 9:5.9859975e-07 10:0.050210338 11:0.091283923 12:0.1134423 13:0.0027967298 14:0.03728077 15:0.00029316813 16:0.0094294697 17:0.032093068 18:0.00011483631 
0 2.571529321695438 1:0.0168125 2:0.05588116 3:0.72587645 4:-0.36577427 5:-1.460819 6:-332.99262 7:0.0014580852 8:5.0700608 9:1.3163044e-05 10:0.056125936 11:0.090277528 12:0.1135562 13:0.00033673326 14:0.038482877 15:5.6157847e-05 16:0.0089176575 17:0.03234516 18:5.1884103e-07 
0 16 1:0.074625 2:0.046972527 3:0.39464331 4:-0.56848885 5:-1.4811235 6:-332.98941 7:0.00067577835 8:5.0701491 9:3.5370056e-06 10:0.04804234 11:0.091660353 12:0.11339977 13:0.00319098 14:0.036992865 15:0.00037193483 16:0.009344466 17:0.032123615 18:6.9343613e-05 
0.02656593552645558 0 1:-0.0113125 2:0.029622603 3:0.94322845 4:-0.36412843 5:-0.93008009 6:-332.99564 7:0.021353177 8:5.064788 9:0.0013725684 10:0.044002865 11:0.095493186 12:0.11196051 13:0.00031189559 14:0.038185271 15:0.00034418462 16:0.00893635 17:0.032326792 18:2.0328356e-07 
16 0.5989756551585447 1:-0.0019375 2:0.038573401 3:0.82719806 4:-0.44377503 5:-0.92782403 6:-332.99521 7:0.011174792 8:5.0674903 9:0.00065793469 10:0.048551931 11:0.093135298 12:0.11275966 13:0.00016248337 14:0.038442401 15:0.00016426747 16:0.0089328175 17:0.032332642 18:9.6510288e-08 
7.176970272481229 0.5684631534735567 1:0.0043125 2:0.037351094 3:0.67883637 4:-0.42916046 5:-0.92161985 6:-332.99449 7:0.0054423632 8:5.0689623 9:0.00028224638 10:0.053526294 11:0.090777907 12:0.11349298 13:0 14:0.038698128 15:0 16:0.0089293227 17:0.032337956 18:0 
2.995771470156202 1.049185275532531 1:0.00275 2:0.028476087 3:0.74838558 4:-0.4429373 5:-0.92105584 6:-332.99531 7:0.0056339369 8:5.069275 9:0.00015227132 10:0.053526294 11:0.090777907 12:0.11349298 13:0 14:0.038698128 15:0 16:0.0089293227 17:0.032337956 18:0 
1.152101306921311 0.7652872912238424 1:-0.00975 2:0.053875445 3:0.83795601 4:0.17317563 5:-1.2989464 6:-332.99504 7:0.01641037 8:5.0665081 9:0.00083134454 10:0.049595318 11:0.09250703 12:0.11299373 13:0.0001358742 14:0.038499639 15:0.00011834289 16:0.0089321931 17:0.032333905 18:7.7856413e-08 
0.9224142085458494 0 1:-0.0113125 2:0.03643479 3:0.83271448 4:-0.27495818 5:-1.5392171 6:-332.9953 7:0.00079035656 8:5.0701493 9:2.837647e-06 10:0.051030476 11:0.09112115 12:0.113462 13:0.00056712207 14:0.038439104 15:4.8284669e-05 16:0.0089539478 17:0.03232709 18:1.3728263e-06 
0 16 1:0.01525 2:0.03643479 3:0.66339581 4:-0.45839964 5:-1.5397812 6:-332.99377 7:0.00075191254 8:5.0701594 9:1.683625e-06 10:0.055914172 11:0.090494012 12:0.11351514 13:0.00054508977 14:0.038482906 15:3.4682715e-05 16:0.0089087676 17:0.032345797 18:9.9518487e-07 
0 2.709181247969285 1:0.01525 2:0.045120621 3:0.69384452 4:-0.3499915 5:-1.5409092 6:-332.9932 7:0.0014656725 8:5.0700916 9:7.688154e-06 10:0.05759495 11:0.090164022 12:0.11355378 13:0.0008546823 14:0.038269962 15:8.7544166e-05 16:0.0088901255 17:0.032356923 18:2.3967887e-06 
0 2.576316620484258 1:0.01525 2:0.045120621 3:0.61084404 4:-0.37093666 5:-1.5454213 6:-332.99187 7:0.00029725227 8:5.0701843 9:3.5501508e-07 10:0.054273523 11:0.090676371 12:0.11350204 13:0.00013064242 14:0.038639172 15:1.0858523e-05 16:0.0089250102 17:0.032339836 18:1.827726e-07 
0 0.3687105740425424 1:0.01525 2:0.045120621 3:0.54141972 4:-0.30263205 5:-1.5465494 6:-332.99245 7:0.00059635462 8:5.0701621 9:2.0009408e-06 10:0.055724827 11:0.090469374 12:0.1135214 13:0.00057929363 14:0.038428142 15:5.135578e-05 16:0.0088995593 17:0.032351358 18:1.9633589e-06 
0 6.024295678999181 1:0.0136875 2:0.045120621 3:0.65426211 4:-0.42585591 5:-1.5471134 6:-332.99264 7:0.00094022255 8:5.0701369 9:3.8521249e-06 10:0.056973996 11:0.090290396 12:0.11353823 13:0.00091274371 14:0.038269504 15:8.2150844e-05 16:0.0088818469 17:0.032359495 18:3.1705105e-06 
0 3.871318384575868 1:0.0136875 2:0.053759217 3:0.62870414 4:-0.4255772 5:-1.5544456 6:-332.99149 7:0.00053077225 8:5.0701704 9:1.1676638e-06 10:0.056240162 11:0.090431958 12:0.11352193 13:0.00098840676 14:0.038279689 15:7.2299674e-05 16:0.0088655616 17:0.032364035 18:5.2809161e-06 
0 6.153215492221677 1:0.0136875 2:0.053759217 3:0.54865604 4:-0.44900336 5:-1.5561376 6:-332.99163 7:0.00042672638 8:5.0701772 9:7.2785689e-07 10:0.055740768 11:0.090495354 12:0.11351665 13:0.00081248393 14:0.038353844 15:5.9542556e-05 16:0.0088764736 17:0.032359592 18:4.4136201e-06 
0.1238069329065106 0 1:0.01525 2:0.045120621 3:0.61361898 4:-0.15068031 5:-1.5583937 6:-332.99149 7:0.00032956608 8:5.0701839 9:2.6836722e-07 10:0.05526857 11:0.09055899 12:0.11351104 13:0.00064399462 14:0.038429397 15:4.5767983e-05 16:0.0088877642 17:0.03235471 18:3.4432712e-06 
0.9508007357087239 0.6086233346020411 1:0.01525 2:0.05381583 3:0.56482256 4:-0.1583628 5:-1.5612138 6:-332.99106 7:0.00028868907 8:5.0701873 9:7.4288793e-09 10:0.055471274 11:0.090542546 12:0.11351168 13:0.00090993923 14:0.038332446 15:5.9979528e-05 16:0.0088577451 17:0.032365747 18:7.2289708e-06 
0.01300994430208645 0 1:0.01525 2:0.053875445 3:0.59283881 4:-0.18783937 5:-1.5674179 6:-332.99039 7:0.0002505669 8:5.0701907 9:-2.6680369e-07 10:0.05563255 11:0.090539426 12:0.11351071 13:0.0012192295 14:0.038239669 15:7.03595e-05 16:0.00881829 17:0.032378293 18:1.2982257e-05 
0 2.093295446061162 1:0.080875 2:0.054003787 3:0.39763285 4:-0.5292249 5:-1.5995668 6:-332.98688 7:4.5273404e-05 8:5.0702036 9:-1.0559833e-06 10:0.057568647 11:0.090446094 12:0.11351086 13:0.019335082 14:0.033427322 15:0.00058643032 16:-0.001618562 17:0.035115982 18:0.0073878668 
0 3.421730498147398 1:0.062125 2:0.054072569 3:0.42128935 4:-0.54825059 5:-1.5973108 6:-332.98798 7:0.00014825732 8:5.0701981 9:-7.7115098e-07 10:0.052836801 11:0.090843732 12:0.11348886 13:0.00021162141 14:0.038631032 15:8.6823208e-06 16:0.0089379386 17:0.032335317 18:4.5037589e-07 
1.001101203454278 0 1:0.012125 2:0.045395678 3:0.67287388 4:-0.45465749 5:-1.5815183 6:-332.99079 7:0.00042177823 8:5.0701819 9:1.7929913e-07 10:0.055989027 11:0.090511586 12:0.11351189 13:0.0010162029 14:0.038333171 15:5.3494641e-05 16:0.0088663168 17:0.032359817 18:5.0155137e-06 
0.05181049816041442 0 1:0.0136875 2:0.054144466 3:0.6022185 4:-0.3520129 5:-1.5826464 6:-332.99112 7:0.0005145079 8:5.0701764 9:5.0225934e-07 10:0.057663224 11:0.090325328 12:0.11352548 13:0.0023871612 14:0.037830934 15:0.00012857595 16:0.0087182585 17:0.032412025 18:2.4143383e-05 
0.2193868343785479 0 1:0.0605625 2:0.054144466 3:0.37761462 4:-0.55927041 5:-1.6006949 6:-332.98868 7:0.00016336412 8:5.0701973 9:-7.2318986e-07 10:0.053016162 11:0.090827274 12:0.11348985 13:0.00010613035 14:0.038664018 15:4.4741484e-06 16:0.0089322916 17:0.032337034 18:1.0663601e-07 
0.8580789413608967 0.7837541382174908 1:0.155875 2:0.12541024 3:0.24316576 4:-0.50300204 5:-1.6520203 6:-332.98745 7:0.00037327062 8:5.0701699 9:2.203659e-06 10:0.075615457 11:0.086768981 12:0.11397056 13:0.091918663 14:-0.016703844 15:0.013628726 16:-0.087526016 17:0.088505804 18:0.12995206 
0.7922933386212458 0.6422706263897724 1:0.1543125 2:0.13435466 3:0.25556138 4:-0.5385099 5:-1.6525843 6:-332.98727 7:0.00043031804 8:5.0701619 9:3.223763e-06 10:0.077104377 11:0.086215941 12:0.11407237 13:0.091366748 14:-0.020010849 15:0.01539676 16:-0.086253987 17:0.091428384 18:0.12731154 
1.659488319778336 0 1:0.0136875 2:0.086495983 3:0.45118742 4:-0.39911317 5:-1.3976492 6:-332.98872 7:0.00097456705 8:5.0700852 9:1.3590459e-05 10:0.047245907 11:0.092274189 12:0.11325898 13:0.0029238173 14:0.036384731 15:0.00074706531 16:0.0093799221 17:0.031993502 18:8.9159038e-05 
0 3.420875377769403 1:0.0136875 2:0.086793616 3:0.45991403 4:-0.45443952 5:-1.4004693 6:-332.98857 7:0.0017317663 8:5.0699542 9:3.5155535e-05 10:0.044431557 11:0.093337678 12:0.11302007 13:0.0034819213 14:0.035443411 15:0.0012416985 16:0.0094514742 17:0.031866392 18:0.0001006841 
0.3403288785927275 0.3876840041404825 1:-0.0113125 2:0.11325694 3:0.73497838 4:-0.094169646 5:-1.1370739 6:-332.99596 7:0.18282574 8:4.9366604 9:0.097539727 10:0.068917966 11:0.068833434 12:0.13402991 13:0.00018193188 14:0.037836696 15:0.0016647215 16:0.0089250626 17:0.032357444 18:1.2807567e-07 
0.7734932655871574 0.4239147686233392 1:-0.00975 2:0.11325694 3:0.7876957 4:-0.011812062 5:-1.1444061 6:-332.99552 7:0.15892009 8:4.9612133 9:0.074742698 10:0.067892127 11:0.071546926 12:0.13039128 13:0.00017160162 14:0.037935233 15:0.0013842568 16:0.00892551 17:0.032354332 18:1.0876191e-07 
1.873515107528555 0 1:0.005875 2:0.064338363 3:0.19703989 4:-0.53523387 5:-1.1483542 6:-332.99758 7:0.052078283 8:5.0526172 9:0.0059374797 10:0.13344004 11:0.038090804 12:0.13629421 13:0.0091976673 14:0.018560624 15:0.017994598 16:0.0079396409 17:0.034431282 18:0.0001393847 
0 0.3095362266810759 1:0.0215 2:0.098608978 3:0.18152557 4:-0.55260732 5:-1.1545584 6:-332.99567 7:0.027918403 8:5.0579967 9:0.005335227 10:0.14778823 11:0.010323625 12:0.1585677 13:0.023374784 14:-0.027559094 15:0.076652678 16:0.0020551396 17:0.051163464 18:0.0025955471 
1.631763049554268 1.277695776798013 1:0.0230625 2:0.098608978 3:0.16214822 4:-0.54588546 5:-1.1556864 6:-332.9976 7:0.066565558 8:5.0367578 9:0.016802171 10:0.25548511 11:-0.10735016 12:0.24107816 13:0.045018761 14:-0.10797464 15:0.19503564 16:-0.0047497553 17:0.07539585 18:0.0053364746 
1.584449368543402 1.110567662957814 1:0.130875 2:0.28995184 3:0.11575702 4:-0.58687515 5:-1.2899222 6:-332.99022 7:0.03979832 8:5.0417911 9:0.020278138 10:0.2303269 11:-0.15562803 12:0.33891153 13:0.057696088 14:-0.22834819 15:0.50446996 16:-0.027531446 17:0.19538241 18:0.029582823 
1.644637528842075 1.135346979278197 1:0.1465 2:0.052917469 3:0.094432176 4:-0.59855373 5:-1.2002437 6:-332.99418 7:0.0015669256 8:5.0700323 9:1.7936695e-05 10:-0.029679602 11:0.10862299 12:0.11098078 13:0.32125209 14:-0.19011619 15:0.066516431 16:0.3785461 17:-0.22201039 18:0.54599883 
16 0 1:0.0261875 2:0.097717635 3:0.1916832 4:-0.53374569 5:-1.1585065 6:-332.99575 7:0.019786502 8:5.0627499 9:0.0028062533 10:0.095687302 11:0.05977799 12:0.12845469 13:0.006596459 14:0.02259044 15:0.016053289 16:0.0078749122 17:0.034825507 18:0.00021639282 
16 13.68882514399422 1:0.005875 2:0.050259086 3:0.24006898 4:-0.53250012 5:-1.1590705 6:-332.99786 7:0.03025382 8:5.0621883 9:0.0021226065 10:0.10884848 11:0.062162002 12:0.12320896 13:0.0074302616 14:0.025934179 15:0.0089490003 16:0.0082120794 17:0.033528341 18:8.8892096e-05 
1.655084685831136 1.042580551244445 1:0.02775 2:0.12102179 3:0.20680738 4:-0.55180406 5:-1.1596345 6:-332.99737 7:0.10512526 8:5.0034119 9:0.042432037 10:0.34245842 11:-0.26766957 12:0.40538772 13:0.058350194 14:-0.20170759 15:0.40425536 16:-0.011383388 17:0.1131936 18:0.0090787861 
6.821162942787081 0 1:0.0199375 2:0.085692306 3:0.19840207 4:-0.55588222 5:-1.1607625 6:-332.99694 7:0.038748096 8:5.0530675 9:0.0075762144 10:0.13635446 11:0.019265204 12:0.15402137 13:0.013006019 14:0.0014055584 15:0.043642412 16:0.0064793274 17:0.039125039 18:0.00059254377 
2.10857668283601 1.14014621659883 1:-0.012875 2:0.051868285 3:0.18652646 4:-0.47032668 5:-1.1477902 6:-332.99878 7:0.10619829 8:5.0195127 9:0.02419359 10:0.0058951644 11:0.13517182 12:0.086333153 13:0.0015697218 14:0.033839339 15:0.0061382121 16:0.0089963168 17:0.032137609 18:3.6710016e-06 
4.978561659048673 0 1:-0.012875 2:0.051868285 3:0.19711959 4:-0.48008507 5:-1.1489182 6:-332.99874 7:0.11050925 8:5.018419 9:0.024263996 10:0.0038740739 11:0.13621002 12:0.086205824 13:0.0016392297 14:0.033716894 15:0.0061779234 16:0.0089981268 17:0.032135956 18:3.7078647e-06 
0.7980692085676341 0.300504563390902 1:0.0324375 2:0.12102179 3:0.19412135 4:-0.55188175 5:-1.1630186 6:-332.99718 7:0.082892611 8:5.0258725 9:0.023705333 10:0.29325494 11:-0.15955431 12:0.28508007 13:0.050940491 14:-0.13795964 15:0.25004078 16:-0.0067762053 17:0.084959325 18:0.0062169344 
5.617812643156991 2.218684565834275 1:0.230875 2:0.34961224 3:0.15055697 4:-0.57482905 5:-1.3068426 6:-332.94205 7:0.0016691453 8:5.0698168 9:8.8757469e-05 10:0.04459577 11:0.094805581 12:0.11230063 13:0.0034769014 14:0.033490435 15:0.0031835156 16:0.0097777292 17:0.031110234 18:0.00026583952 
9.747835779311856 0.7781857297670337 1:0.2824375 2:0.36982575 3:0.12284494 4:-0.56404648 5:-1.3090987 6:-332.91322 7:0.0005950455 8:5.070055 9:3.6186354e-05 10:0.051456276 11:0.091776672 12:0.11317666 13:0.00051464648 14:0.037873475 15:0.00053931369 16:0.009015102 17:0.03220516 18:1.8356515e-05 
6.494761857759293 0.981038510642547 1:0.12775 2:0.054723112 3:0.29649704 4:-0.58166416 5:-1.3215071 6:-332.98338 7:0.00031039502 8:5.0701811 9:7.628353e-07 10:0.047851362 11:0.091628682 12:0.11340926 13:0.0072326181 14:0.035097132 15:0.00073174206 16:0.010849468 17:0.031414319 18:0.00065449582 
8.107681401192476 0 1:0.0324375 2:0.054723112 3:0.51543103 4:-0.55266189 5:-1.2904862 6:-332.9915 7:0.0015668637 8:5.0700366 9:1.7003826e-05 10:0.049935884 11:0.091528915 12:0.11338987 13:0.00059819513 14:0.038282584 15:0.00011781447 16:0.0089582889 17:0.032318515 18:1.8008408e-06 
0 0.05155096569312717 1:0.005875 2:0.054723112 3:0.81943136 4:-0.46646647 5:-1.28259 6:-332.99278 7:0.0019394372 8:5.0699797 9:2.5056493e-05 10:0.053526294 11:0.090777907 12:0.11349298 13:0 14:0.038698128 15:0 16:0.0089293227 17:0.032337956 18:0 
0.1832430465483416 0 1:0.012125 2:0.054723112 3:0.65641355 4:-0.48507889 5:-1.2859741 6:-332.99235 7:0.0051261418 8:5.0694413 9:0.00011260216 10:0.06348786 11:0.087884824 12:0.11404451 13:0.0014474153 14:0.037302197 15:0.00054946895 16:0.0088426897 17:0.032418672 18:6.7916444e-06 
0.9325441693131602 0.8385824411856629 1:-0.0113125 2:0.037351094 3:1.014044 4:-0.24634672 5:-1.3846768 6:-332.9952 7:0.00089877577 8:5.0701025 9:1.0587098e-05 10:0.051786255 11:0.091162888 12:0.11343707 13:0.0002430158 14:0.038519566 15:5.3548813e-05 16:0.0089397564 17:0.032330549 18:5.751483e-07 
2.425447763421213 0.3459777470518877 1:-0.0113125 2:0.037318397 3:0.92977934 4:-0.32065 5:-1.1906554 6:-332.99532 7:0.0012154872 8:5.0700663 9:1.4709696e-05 10:0.051158976 11:0.09130262 12:0.11341664 13:0.00033420754 14:0.038452117 15:7.390968e-05 16:0.0089438535 17:0.032327622 18:8.1114719e-07 
0.001663244318825613 0 1:-0.0113125 2:0.16490227 3:0.90277994 4:-0.17479956 5:-1.1917834 6:-332.99492 7:0.15224072 8:4.9628744 9:0.07566151 10:0.047387626 11:0.099234422 12:0.10584618 13:6.6977176e-05 14:0.038391708 15:0.00057215744 16:0.0089307214 17:0.032331773 18:3.7505937e-08 
0.3687835632196747 0.6249619761861612 1:-0.0113125 2:0.16490227 3:0.90277994 4:-0.17479956 5:-1.1917834 6:-332.99492 7:0.15224072 8:4.9628744 9:0.07566151 10:0.047387626 11:0.099234422 12:0.10584618 13:6.6977176e-05 14:0.038391708 15:0.00057215744 16:0.0089307214 17:0.032331773 18:3.7505937e-08 
16 0.5242670640627211 1:0.0011875 2:0.037011644 3:0.76577036 4:-0.43514137 5:-1.1917834 6:-332.99539 7:0.0055177774 8:5.0692587 9:0.00016104041 10:0.053526294 11:0.090777907 12:0.11349298 13:0 14:0.038698128 15:0 16:0.0089293227 17:0.032337956 18:0 
15.63624875531402 0 1:0.00275 2:0.047798902 3:0.73514847 4:-0.37542199 5:-1.1923474 6:-332.99451 7:0.0018104343 8:5.0699198 9:4.3732736e-05 10:0.053526294 11:0.090777907 12:0.11349298 13:0 14:0.038698128 15:0 16:0.0089293227 17:0.032337956 18:0 
1.64408361424588 0.2173502451713254 1:0.00275 2:0.17568953 3:0.79352585 4:-0.25094216 5:-1.1923474 6:-332.99432 7:0.085121122 8:5.013582 9:0.037659278 10:0.071993501 11:0.066796381 12:0.13393499 13:0.0003288676 14:0.037280017 15:0.0024957869 16:0.0089178241 17:0.032385855 18:5.4516784e-07 
0 16 1:-0.0113125 2:0.027894118 3:0.51390369 4:-0.37311674 5:-1.1601985 6:-332.99658 7:0.0012585274 8:5.0700283 9:2.3659402e-05 10:0.052359891 11:0.091095698 12:0.11343615 13:7.8395477e-05 14:0.038627193 15:2.6195884e-05 16:0.0089313174 17:0.032336212 18:6.516236e-08 
0.4559509941962442 0.3837243682139295 1:-0.00975 2:0.11558457 3:0.57109698 4:-0.32222265 5:-1.1630186 6:-332.99594 7:0.17358639 8:4.937776 9:0.10102181 10:0.066838014 11:0.070956556 12:0.13286627 13:0.00015016265 14:0.037955564 15:0.0014986981 16:0.0089258181 17:0.032354699 18:1.0501437e-07 
10.47681151957787 16 1:-0.00975 2:0.036609406 3:0.48077949 4:-0.35472279 5:-1.1664027 6:-332.99567 7:0.0049445228 8:5.0692915 9:0.00016747816 10:0.047426423 11:0.092974101 12:0.11297395 13:0.00055114772 14:0.038039119 15:0.00032160467 16:0.008954235 17:0.032309177 18:1.4457599e-06 
1.592423491246097 0 1:-0.00975 2:0.11558457 3:0.47885308 4:-0.30202459 5:-1.1675307 6:-332.9955 7:0.048469758 8:5.038199 9:0.021127699 10:0.045357336 11:0.10130865 12:0.10458206 13:0.00010114373 14:0.038265111 15:0.00075661993 16:0.0089315658 17:0.032328678 18:6.3870662e-08 
0 16 1:-0.00975 2:0.036609406 3:0.48302155 4:-0.34762246 5:-1.1686588 6:-332.9958 7:0.0056652971 8:5.0691464 9:0.00019652001 10:0.046508319 11:0.093334189 12:0.11288179 13:0.00063700015 14:0.037927562 15:0.00038044146 16:0.0089585853 17:0.032303756 18:1.7259269e-06 
0 16 1:0.018375 2:0.046151075 3:0.52049108 4:-0.4713849 5:-1.4878917 6:-332.99064 7:0.00028510192 8:5.0701873 9:1.1545114e-08 10:0.048305403 11:0.091414538 12:0.11344203 13:0.0066343805 14:0.036011443 15:0.00044405973 16:0.01035772 17:0.031779093 18:0.00039484988 
0 1.444221264664285 1:0.0168125 2:0.037351094 3:0.54769274 4:-0.44057439 5:-1.4929679 6:-332.99133 7:0.00062369492 8:5.0701654 9:1.4289867e-06 10:0.042606609 11:0.092135168 12:0.11338225 13:0.013698317 14:0.033043449 15:0.00095270281 16:0.011901055 17:0.03115272 18:0.00082882325 
0 14.16002441265806 1:0.0136875 2:0.037428666 3:0.58996053 4:-0.46206152 5:-1.496916 6:-332.99216 7:0.00048116146 8:5.0701745 9:8.5633177e-07 10:0.056159913 11:0.090450188 12:0.11351975 13:0.0010235457 14:0.03827514 15:7.1343887e-05 16:0.0088605433 17:0.032365417 18:5.9339537e-06 
9.099771061373039 0 1:-0.0113125 2:0.055749934 3:0.83576097 4:-0.34575674 5:-1.1241015 6:-332.9955 7:0.025082498 8:5.0621401 9:0.0025910016 10:0.04912897 11:0.093538719 12:0.11235521 13:0.00011179044 14:0.038465036 15:0.00019836068 16:0.0089318019 17:0.032332961 18:7.059389e-08 
0 0.01506616186376225 1:0.00275 2:0.046747615 3:0.91536014 4:-0.21697781 5:-1.1246655 6:-332.9949 7:0.011916772 8:5.0673018 9:0.0007057052 10:-0.0011728478 11:0.11677574 12:0.10538216 13:0.018459934 14:0.0095596538 15:0.018772064 16:0.013051075 17:0.026052085 18:0.0011836684 
0.6595183062729042 0.3658145067700399 1:0.0043125 2:0.037591594 3:0.78634832 4:-0.14286331 5:-1.1263576 6:-332.99544 7:0.012539423 8:5.0677865 9:0.00046514723 10:-0.021232053 11:0.11891257 12:0.10654282 13:0.032780975 14:-0.0022736828 15:0.020900517 16:0.016462572 17:0.023241038 18:0.00222769 
16 0 1:0.0136875 2:0.064433937 3:0.55617873 4:-0.49035447 5:-1.2989464 6:-332.9901 7:0.002760723 8:5.0698459 9:4.5570535e-05 10:0.036600867 11:0.09506548 12:0.11278004 13:0.0075960891 14:0.032307461 15:0.0021943756 16:0.010131913 17:0.031360437 18:0.00024497277 
1.680091772714822 0 1:0.0136875 2:0.054400848 3:0.6156575 4:-0.47607957 5:-1.3068426 6:-332.99156 7:0.0013104378 8:5.0700685 9:1.3117637e-05 10:0.041057673 11:0.09330382 12:0.1131571 13:0.0086080332 14:0.032906817 15:0.0015902238 16:0.010602103 17:0.03125065 18:0.00041735763 
0.4464593840681627 0.07835659323142241 1:-0.0113125 2:0.20800357 3:0.65457747 4:-0.22316544 5:-1.0614958 6:-332.99396 7:0.036058706 8:5.0460957 9:0.016112887 10:0.043159679 11:0.10430791 12:0.10190174 13:0.00021892146 14:0.037749224 15:0.0016786671 16:0.0089377067 17:0.032302846 18:4.1223646e-07 
1.199874562181544 0 1:-0.0113125 2:0.20800357 3:0.61517798 4:-0.25651055 5:-1.0626238 6:-332.99419 7:0.034657852 8:5.0466128 9:0.01605239 10:0.043546682 11:0.10403835 12:0.10192724 13:0.00021107755 14:0.037766678 15:0.0016775869 16:0.0089375653 17:0.032302814 18:4.1325759e-07 
0.5544156642653003 0 1:-0.0113125 2:0.13060214 3:0.59793024 4:-0.31600285 5:-1.0637518 6:-332.99492 7:0.051956185 8:5.0324629 9:0.02740867 10:0.038544731 11:0.11202436 12:0.093714778 13:0.0003173683 14:0.037203387 15:0.0028732694 16:0.0089425706 17:0.032277673 18:7.1001623e-07 
1.247621791699622 0.8054738000311507 1:-0.0113125 2:0.10484428 3:0.4656168 4:-0.35718699 5:-1.0671359 6:-332.99695 7:0.27636976 8:4.8359495 9:0.19854931 10:0.031236891 11:0.12768493 12:0.073379469 13:0.00026106421 14:0.037262536 15:0.0032219786 16:0.0089363575 17:0.032300581 18:2.433882e-07 
0 2.84118659710396 1:-0.0113125 2:0.027471314 3:0.47738797 4:-0.36929805 5:-1.068264 6:-332.99776 7:0.029969038 8:5.0613151 9:0.0026351613 10:0.037587372 11:0.10000713 12:0.10998512 13:0.00062262774 14:0.037500815 15:0.00093971325 16:0.008948891 17:0.0323016 18:7.8961148e-07 
0 4.036135584405476 1:-0.0113125 2:0.01888549 3:0.45089355 4:-0.37496073 5:-1.07052 6:-332.99848 7:0.0034628919 8:5.0693729 9:0.00019836676 10:0.047964553 11:0.093378725 12:0.11269466 13:0.00065328633 14:0.037683572 15:0.00064306715 16:0.0089791819 17:0.032263146 18:4.8856358e-06 
16 3.177464864938301 1:-0.0113125 2:0.027471314 3:0.3907193 4:-0.40335911 5:-1.0716481 6:-332.99808 7:0.045925075 8:5.0555688 9:0.0046624314 10:0.036417151 11:0.10142554 12:0.10914338 13:0.00067151049 14:0.037310252 15:0.0011707304 16:0.0089521131 17:0.032292448 18:9.9308186e-07 
16 2.627001348795391 1:-0.012875 2:0.027471314 3:0.30419734 4:-0.41659667 5:-1.0722121 6:-332.99775 7:0.015182706 8:5.0657345 9:0.0013144372 10:0.037278246 11:0.10011289 12:0.10997254 13:0.0012764364 14:0.036262649 15:0.0018966092 16:0.0090093722 17:0.032190391 18:6.4454449e-06 
6.09711825590403 0 1:-0.0113125 2:0.027471314 3:0.34880744 4:-0.35235414 5:-1.0733401 6:-332.99738 7:0.0080923892 8:5.0687347 9:0.00026586174 10:0.047014888 11:0.093085335 12:0.11295626 13:0.00038423554 14:0.038245935 15:0.00021719932 16:0.0089404868 17:0.032325262 18:4.1646932e-07 
0.302458391062024 0.1450290371594276 1:-0.0113125 2:0.20800357 3:0.45080344 4:-0.20744175 5:-1.0755962 6:-332.99573 7:0.0911411 8:4.9928162 9:0.065700873 10:0.041268963 11:0.11109929 12:0.091378258 13:0.00012112244 14:0.038031237 15:0.0014986261 16:0.0089320798 17:0.032323289 18:8.0580461e-08 
0.9177235860991491 0.6167451825901897 1:-0.0113125 2:0.20800357 3:0.52032518 4:-0.21901281 5:-1.0767242 6:-332.99563 7:0.24367739 8:4.8660006 9:0.17111607 10:0.04095675 11:0.11135681 12:0.09137752 13:0.00012440539 14:0.03802171 15:0.0015010625 16:0.0089321237 17:0.032323242 18:8.0968714e-08 
0.1655780514984882 0 1:-0.0113125 2:0.2166242 3:0.47260635 4:-0.32614496 5:-1.0789803 6:-332.99456 7:0.060522837 8:5.0210931 9:0.039842444 10:0.03843383 11:0.11468818 12:0.088628465 13:0.00027650789 14:0.037243323 15:0.0031239958 16:0.0089404741 17:0.032281271 18:5.7740992e-07 
0.06121364456855118 0.170964851978048 1:-0.0113125 2:0.22523966 3:0.52345948 4:-0.31751207 5:-1.0801083 6:-332.9949 7:0.18606746 8:4.9027839 9:0.15063204 10:0.041384815 11:0.1121179 12:0.088872982 13:0.00010355623 14:0.038093662 15:0.001440044 16:0.0089314797 17:0.032325791 18:5.7685164e-08 
-0 12.32348981476255 1:0.084 2:0.096002699 3:0.26136154 4:-0.58689008 5:-0.70729385 6:-332.9797 7:0.0064160242 8:5.0679279 9:0.00080570248 10:0.042111826 11:0.098672324 12:0.10990909 13:0.0014884512 14:0.035279343 15:0.0032049219 16:0.0091158435 17:0.031924047 18:3.0009194e-05 
-0.06145625639642561 0 1:0.4199375 2:0.54440256 3:0.28258325 4:-0.49635876 5:-0.96053694 6:-332.39371 7:3.4396426e-05 8:5.0701984 9:2.9779568e-08 10:0.05365163 11:0.090740517 12:0.1135003 13:2.2534231e-05 14:0.038675803 15:9.0269152e-06 16:0.0089276434 17:0.032339563 18:1.6067666e-07 
-0 1.148751620084776 1:0.012125 2:0.095364754 3:0.49139286 4:-0.52663397 5:-0.68304117 6:-332.99003 7:0.037737002 8:5.0484494 9:0.012537002 10:0.082899486 11:0.05772172 12:0.13791184 13:0.0016794555 14:0.032421261 15:0.0095747135 16:0.0087791687 17:0.032880145 18:1.723612e-05 
-1.281533553379012 0 1:0.05275 2:0.052965056 3:0.17490535 4:-0.58066032 5:-1.1150773 6:-332.99522 7:0.0055460532 8:5.0691504 9:0.00019921946 10:0.09148863 11:0.076707694 12:0.11691608 13:0.019038504 14:0.015263754 15:0.011772871 16:0.0040122136 17:0.038185458 18:0.0016305015 
-0 16 1:0.00275 2:0.027509115 3:0.18037055 4:-0.57332471 5:-0.98986576 6:-332.99673 7:0.017897702 8:5.0653324 9:0.0013247871 10:0.096505731 11:0.067943639 12:0.12145612 13:0.0075778002 14:0.025327792 15:0.0096283077 16:0.0079430401 17:0.034019238 18:0.00016481391 
-0 4.175823323088783 1:0.0980625 2:0.045335405 3:0.17267046 4:-0.59358498 5:-1.0457033 6:-332.9809 7:0.0019723668 8:5.0699276 9:3.7848763e-05 10:0.074595433 11:0.085015787 12:0.11452738 13:0.01640558 14:0.023797766 15:0.0055234524 16:0.004073478 17:0.036598911 18:0.0018459329 
-0 0.03314285334435067 1:0.059 2:0.04478551 3:0.13730659 4:-0.57760632 5:-0.93515623 6:-332.99518 7:0.0043573418 8:5.0694861 9:0.00011739364 10:-0.017873908 11:0.11373328 12:0.10864858 13:0.085650489 14:-0.052752672 15:0.039852326 16:0.054827403 17:-0.015009013 18:0.031578648 
-0 1.424283325313589 1:0.074625 2:0.04478551 3:0.13041497 4:-0.57392458 5:-0.93459222 6:-332.995 7:0.00085661205 8:5.0701351 9:4.6247929e-06 10:0.017308662 11:0.096536617 12:0.11289194 13:0.11036487 14:-0.019580438 15:0.012560166 16:0.083230599 17:-0.0055685952 18:0.064223803 
-0 1.226714870396466 1:0.012125 2:0.10416912 3:0.47974058 4:-0.53213883 5:-0.67965708 6:-332.99077 7:0.045350084 8:5.0429517 9:0.016372355 10:0.09132155 11:0.04643795 12:0.14763776 13:0.0023278419 14:0.029628788 15:0.014421367 16:0.0086942239 17:0.033222876 18:3.0663661e-05 
-0.04069867633434913 0 1:0.49025 2:0.65649805 3:0.27465441 4:-0.49252324 5:-0.95828088 6:-332.32783 7:5.112664e-05 8:5.0701938 9:1.0994039e-06 10:0.053787162 11:0.090684903 12:0.11351475 13:7.3587993e-05 14:0.038610999 15:4.2103598e-05 16:0.0089190396 17:0.032349719 18:1.8448848e-06 
-0 1.671026757073986 1:0.124625 2:0.078995309 3:0.17846938 4:-0.56787692 5:-0.98704569 6:-332.96505 7:0.00061163503 8:5.0701318 9:7.6359867e-06 10:0.041337729 11:0.093594732 12:0.11306568 13:0.017373139 14:0.025364152 15:0.004176857 16:0.016881637 17:0.026441158 18:0.0046738629 
-0 3.387156362654039 1:0.009 2:0.094469878 3:0.58166473 4:-0.54179923 5:-0.67401692 6:-332.99158 7:0.028725918 8:5.0520448 9:0.011474417 10:0.07941711 11:0.058830615 12:0.13936876 13:0.0017139194 14:0.031674661 15:0.011746841 16:0.0087347989 17:0.033108103 18:2.834585e-05 
-0 16 1:0.009 2:0.011797871 3:0.25105356 4:-0.56504864 5:-0.67232487 6:-332.99838 7:0.037214124 8:5.0567557 9:0.0048581492 10:0.091770175 11:0.063796631 12:0.12598792 13:0.0028870013 14:0.031933868 15:0.0064684781 16:0.008715683 17:0.032821566 18:2.0297905e-05 
-0.01479832481462473 0.979372073343042 1:0.009 2:0.011797871 3:0.28758544 4:-0.55845974 5:-0.67119684 6:-332.99829 7:0.036989278 8:5.0572069 9:0.0045651996 10:0.091500718 11:0.064728076 12:0.12522276 13:0.0028637573 14:0.032173996 15:0.0060662135 16:0.0087234758 17:0.032791032 18:1.8997076e-05 
-0 16 1:0.0824375 2:0.010512201 3:0.13385184 4:-0.58169349 5:-0.88890694 6:-332.99109 7:0.00031405218 8:5.0701849 9:2.0490376e-07 10:0.040114709 11:0.092463543 12:0.11335392 13:0.039949162 14:0.022023192 15:0.0028407247 16:0.029710413 17:0.023957554 18:0.013879165 
-0 1.432056645674739 1:0.1918125 2:0.15646445 3:0.17890515 4:-0.56302292 5:-1.0084783 6:-332.89904 7:0.00032642881 8:5.0701591 9:5.2821066e-06 10:0.050551187 11:0.091574179 12:0.11335309 13:0.0018951472 14:0.037013608 15:0.00061110787 16:0.0093783086 17:0.031952382 18:0.00013658335 
-0.04716367526954773 0 1:0.009 2:0.11257924 3:0.57547314 4:-0.53822086 5:-0.66668472 6:-332.99014 7:0.067040821 8:5.0259085 9:0.029261785 10:0.11712515 11:0.0087345589 12:0.18296477 13:0.0044472011 14:0.019645823 15:0.033313234 16:0.0083700738 17:0.034652682 18:9.0599709e-05 
-0 1.2260762517262 1:0.4980625 2:0.67624409 3:0.28167916 4:-0.50661579 5:-0.95038466 6:-332.31371 7:0.00010414262 8:5.0701832 9:3.2143512e-06 10:0.053912731 11:0.090634315 12:0.11352801 13:9.072063e-05 14:0.038586176 15:5.6384806e-05 16:0.0089183261 17:0.032351066 18:1.7114698e-06 
-0.05167567687667881 1.546500640889366 1:0.0605625 2:0.021088059 3:0.13669883 4:-0.5968897 5:-0.68980936 6:-332.99544 7:0.0082808682 8:5.0684063 9:0.00038925455 10:-0.03947749 11:0.13017398 12:0.10253889 13:0.076607383 14:-0.069071345 15:0.061877021 16:0.046069364 17:-0.018140668 18:0.023117904 
-0.007802272684154701 0 1:-0.0113125 2:0.020328334 3:0.065435269 4:-0.52570429 5:-0.66104456 6:-332.99855 7:0.085952229 8:5.0371078 9:0.012741906 10:-0.03385166 11:0.156473 12:0.081071337 13:0.0065266274 14:0.02240169 15:0.01660753 16:0.0094386022 17:0.031109385 18:5.1022061e-05 
-0 5.914515997577817 1:-0.00975 2:0.029439078 3:0.10449311 4:-0.52328096 5:-0.65991653 6:-332.99786 7:0.03905972 8:5.0577982 9:0.0039387806 10:0.013849136 11:0.11538117 12:0.10347879 13:0.0029606844 14:0.032601116 15:0.0051244879 16:0.0091196693 17:0.031959243 18:1.5712043e-05 
-0.03487135192574737 0 1:-0.0019375 2:0.062520857 3:0.21007407 4:-0.56117404 5:-0.87762662 6:-332.99798 7:0.09461648 8:5.0201657 9:0.026459652 10:-0.12452163 11:0.27463553 12:-0.011129786 13:0.024618244 14:-0.045727554 15:0.11816819 16:0.013813274 17:0.016156081 18:0.0012439987 
-0.206800085455103 0 1:0.062125 2:0.021175954 3:0.14524146 4:-0.5914487 5:-0.68586125 6:-332.9957 7:0.015044016 8:5.0668325 9:0.00075458133 10:-0.13516288 11:0.17332038 12:0.089791307 13:0.17378999 14:-0.21378358 15:0.14970752 16:0.10625711 17:-0.10427249 18:0.07000601 
-0.01589884011010401 0 1:0.159 2:0.047731964 3:0.30692301 4:-0.58249543 5:-0.72026622 6:-332.97794 7:0.0011150291 8:5.0699902 9:4.0064719e-05 10:0.051440629 11:0.091555265 12:0.1133028 13:0.00028243732 14:0.038348527 15:0.00017661601 16:0.00894913 17:0.032314268 18:1.7834636e-06 
-0 4.573547330288342 1:0.0730625 2:0.019246684 3:0.14127352 4:-0.58546903 5:-0.89059898 6:-332.99043 7:0.0011180735 8:5.070066 9:1.6151519e-05 10:0.03530495 11:0.095173367 12:0.112797 13:0.021499446 14:0.021474523 15:0.005631568 16:0.01743184 17:0.02575707 18:0.0043171998 
-0 4.498972077425443 1:0.105875 2:0.080053897 3:0.18499412 4:-0.56831893 5:-1.1494822 6:-332.98932 7:0.0010791703 8:5.0701123 9:6.8782476e-06 10:0.010744017 11:0.097935373 12:0.11270698 13:0.12273905 14:-0.029496887 15:0.015464328 16:0.090792835 17:-0.011606282 18:0.070109455 
-0 0.5384793226309584 1:-0.0050625 2:0.11732743 3:0.84369932 4:-0.43565701 5:-0.82122504 6:-332.9909 7:0.020899668 8:5.0633117 9:0.0022713859 10:0.048564216 11:0.093971952 12:0.11214343 13:8.6509811e-05 14:0.038513194 15:0.000161352 16:0.0089306716 17:0.03233517 18:2.7005796e-08 
-0 7.595024148679464 1:-0.0050625 2:0.1260883 3:0.77307431 4:-0.45169727 5:-0.82009701 6:-332.99129 7:0.017352664 8:5.0631734 9:0.0028464003 10:0.050096043 11:0.093490185 12:0.11208527 13:4.9784231e-05 14:0.038567398 15:0.00014010789 16:0.0089301165 17:0.032335942 18:1.6250751e-08 
-7.228545407011011 0 1:-0.0113125 2:0.042180395 3:0.76159505 4:-0.46994838 5:-1.1573785 6:-332.995 7:0.0015792362 8:5.0699286 9:4.7112497e-05 10:0.05255747 11:0.091106955 12:0.11341962 13:4.321801e-05 14:0.03864938 15:2.2441301e-05 16:0.0089302325 17:0.032336964 18:2.4590475e-08 
-0.363245649647421 0 1:-0.0019375 2:0.11325694 3:0.28873877 4:-0.54195879 5:-1.1534303 6:-332.99705 7:0.06376903 8:5.0409792 9:0.013390913 10:-0.061220458 11:0.19345351 12:0.053186333 13:0.015169932 14:-0.0063818102 15:0.054675339 16:0.011422787 17:0.025179113 18:0.00052620747 
-8.680106147823187 0 1:-0.0113125 2:0.051868285 3:0.70475328 4:-0.43779507 5:-1.1568144 6:-332.99425 7:0.015214063 8:5.0669122 9:0.00071124788 10:0.05005906 11:0.092242936 12:0.11308665 13:0.00011590661 14:0.038535481 15:9.3151254e-05 16:0.0089315975 17:0.032334872 18:5.7321545e-08 
-0 2.641383109968375 1:-0.0081875 2:0.0023935827 3:0.11572726 4:-0.55794078 5:-0.88495883 6:-332.99835 7:0.010217323 8:5.068723 9:0.00021380135 10:0.01461325 11:0.10179128 12:0.11144693 13:0.010873405 14:0.028477834 15:0.0039207547 16:0.010124164 17:0.03125291 18:0.00016857356 
-16 0.07558531817439475 1:-0.0113125 2:0.043797035 3:0.83537387 4:-0.36133128 5:-1.1494822 6:-332.99479 7:0.0058559444 8:5.0691932 9:0.00017355115 10:0.050005768 11:0.091963725 12:0.1132308 13:0.00015509533 14:0.038524634 15:7.9208934e-05 16:0.0089325205 17:0.0323345 18:8.4651672e-08 
-0.3872593074129492 0 1:-0.0113125 2:0.084359362 3:0.36206593 4:-0.48434137 5:-1.1483542 6:-332.99712 7:0.14155874 8:5.0043808 9:0.030604538 10:-0.011048731 11:0.14941865 12:0.078538291 13:0.0023961459 14:0.031470933 15:0.0088968196 16:0.0090499605 17:0.031986386 18:8.154591e-06 
-0.07772217402399276 0.6851510768500088 1:0.4418125 2:0.51661223 3:0.15489345 4:-0.55808868 5:-1.1517383 6:-332.74716 7:0.00019877623 8:5.070164 9:7.0925269e-06 10:0.050445489 11:0.091955344 12:0.1131976 13:0.0032350931 14:0.034591989 15:0.0021271051 16:0.010733318 17:0.030125765 18:0.0012915802 
-0 13.51508429531654 1:-0.0113125 2:0.044591345 3:0.37281994 4:-0.45756079 5:-1.1477902 6:-332.99723 7:0.019236245 8:5.0656414 9:0.001081153 10:0.042015387 11:0.096107599 12:0.11187317 13:0.00050576199 14:0.037920428 15:0.00048807378 16:0.008943619 17:0.032316717 18:5.1884519e-07 
-0 5.047207508245754 1:-0.012875 2:0.028564381 3:0.18149559 4:-0.29188109 5:-1.3502719 6:-332.99881 7:0.028437754 8:5.0655295 9:0.00076747353 10:0.033398998 11:0.097241835 12:0.11213035 13:0.0019466004 14:0.036621968 15:0.00090375988 16:0.0090133322 17:0.032251389 18:4.6549485e-06 
-0.2707839870026034 0 1:0.1886875 2:0.3619872 3:0.4896669 4:-0.48466846 5:-1.0146825 6:-332.82062 7:0.00031452474 8:5.0701351 9:1.4084343e-05 10:0.054723579 11:0.090276317 12:0.11363092 13:0.00031792371 14:0.038255797 15:0.00025117658 16:0.0088801811 17:0.032404012 18:9.7523389e-06 
-0 3.205660408783752 1:0.330875 2:0.22608236 3:0.20112779 4:-0.56543893 5:-0.78738409 6:-332.83943 7:0.00059751644 8:5.0700721 9:2.8123626e-05 10:0.046950285 11:0.093581883 12:0.11270819 13:0.0051729866 14:0.03137281 15:0.0042337002 16:0.011340274 17:0.029039475 18:0.0014427024 
-0 1.929401527826336 1:-0.00975 2:0.088284453 3:0.37692619 4:-0.48936224 5:-0.80035646 6:-332.99564 7:0.043121226 8:5.0534041 9:0.0065432179 10:0.053526294 11:0.090777907 12:0.11349298 13:0 14:0.038698128 15:0 16:0.0089293227 17:0.032337956 18:0 
-0.2024975846148805 0 1:0.42775 2:0.38410155 3:0.26194942 4:-0.55012309 5:-0.81896898 6:-332.5902 7:8.6041599e-05 8:5.0701847 9:3.3423936e-06 10:0.053526294 11:0.090777907 12:0.11349298 13:0 14:0.038698128 15:0 16:0.0089293227 17:0.032337956 18:0 
-0.154316484493089 0.2209016624699746 1:0.318375 2:0.33150169 3:0.3182493 4:-0.49937055 5:-0.86916638 6:-332.63908 7:0.0001379785 8:5.0701854 9:1.6154803e-06 10:0.053877391 11:0.09068601 12:0.11350877 13:5.8540798e-05 14:0.038647241 15:1.8053249e-05 16:0.0089257713 17:0.032340938 18:2.767233e-07 
-0 14.64287616284292 1:0.1386875 2:0.11398614 3:0.15460606 4:-0.5676092 5:-0.72026622 6:-332.96577 7:0.0022246083 8:5.0697646 9:8.5826808e-05 10:0.028524936 11:0.10039639 12:0.11106402 13:0.020495631 14:0.01251158 15:0.013655378 16:0.017911634 17:0.021250139 18:0.0050545884 
-0 11.69087443532474 1:0.14025 2:0.096710421 3:0.1702754 4:-0.5647396 5:-0.72083023 6:-332.96628 7:0.00032295376 8:5.0701656 9:3.6771406e-06 10:0.04681874 11:0.092341687 12:0.11325367 13:0.0097307591 14:0.031164034 15:0.0023808046 16:0.013502206 17:0.02891726 18:0.002759103 
-0 0.4960363208953208 1:0.29025 2:0.1318324 3:0.16062867 4:-0.5631973 5:-0.77666779 6:-332.90728 7:0.00022686943 8:5.0701653 9:5.6845788e-06 10:0.049715213 11:0.092025682 12:0.11322482 13:0.0043798621 14:0.033935777 15:0.002113444 16:0.011219189 17:0.029932424 18:0.0015370722 
-0 2.105652212781802 1:0.0230625 2:0.025984114 3:0.28360627 4:-0.56279993 5:-0.8697304 6:-332.99692 7:0.022994636 8:5.0652535 9:0.0010648081 10:0.18926859 11:0.033725453 12:0.12923298 13:0.059010103 14:-0.043668486 15:0.046922873 16:-0.0060934618 17:0.052596499 18:0.0049239304 
-0.1461033333076837 0 1:0.455875 2:0.53976484 3:0.30197575 4:-0.53546298 5:-1.0158105 6:-332.56443 7:7.6450324e-05 8:5.0701828 9:4.7038289e-06 10:0.052967101 11:0.091051826 12:0.11340491 13:0.00024634181 14:0.038297379 15:0.00026608107 16:0.0090031853 17:0.032221865 18:2.8434498e-05 
-0.1910089284425478 0.02891657926627758 1:0.5449375 2:0.62653953 3:0.2658556 4:-0.53379132 5:-0.8590141 6:-332.31053 7:5.8982088e-05 8:5.0701912 9:1.8117405e-06 10:0.053687874 11:0.090715376 12:0.11350887 13:2.5306843e-05 14:0.038665603 15:1.7060869e-05 16:0.0089271914 17:0.032340602 18:2.3045116e-07 
-0 15.13299089095059 1:0.0636875 2:0.057540673 3:0.2627569 4:-0.55763563 5:-0.8731145 6:-332.9935 7:0.0081382517 8:5.0684005 9:0.00039865931 10:0.1114857 11:0.065716252 12:0.12060621 13:0.030272381 14:-0.0047734276 15:0.025478408 16:-0.00057025796 17:0.04551758 18:0.0038273363 
-0 3.750833336225694 1:0.059 2:0.16775134 3:0.22449066 4:-0.5801907 5:-0.83081331 6:-332.97784 7:0.0054017475 8:5.0681119 9:0.00080826265 10:0.038770226 11:0.10191526 12:0.1079752 13:0.0029531321 14:0.03129582 15:0.0075728598 16:0.009549129 17:0.030836957 18:0.00016701806 
-0.3611737223026062 0.3091564044817675 1:0.0636875 2:0.057540673 3:0.22258798 4:-0.55430248 5:-0.87593457 6:-332.99664 7:0.045783068 8:5.0561524 9:0.0043113088 10:0.352261 11:-0.088232146 12:0.18390394 13:0.1433466 14:-0.2465663 15:0.23169486 16:-0.048399202 17:0.14255957 18:0.029466194 
-0 16 1:0.080875 2:0.072345629 3:0.14406069 4:-0.57862114 5:-0.70785787 6:-332.98953 7:0.003343182 8:5.0694916 9:0.00015079982 10:0.010891442 11:0.10848436 12:0.10866607 13:0.039757158 14:-0.016136519 15:0.030867629 16:0.030322842 17:0.0038302708 18:0.014780308 
-0.1183158906616767 0 1:0.534 2:0.61645778 3:0.2448093 4:-0.54921671 5:-0.85506599 6:-332.43662 7:5.1296067e-05 8:5.0701923 9:1.6689737e-06 10:0.053891535 11:0.090632419 12:0.11353102 13:0.00014389407 14:0.038507774 15:0.00010277515 16:0.0088979465 17:0.032378057 18:8.7840087e-06 
-0.01637957938530487 0 1:0.51525 2:0.59614282 3:0.25245267 4:-0.53996684 5:-0.85280993 6:-332.45702 7:6.6640638e-05 8:5.0701891 9:2.3353628e-06 10:0.054071102 11:0.09056002 12:0.11355018 13:0.0002613097 14:0.038351059 15:0.00018814057 16:0.0088596756 17:0.032427328 18:2.3833348e-05 
-0 3.818140363603619 1:0.0168125 2:0.037318397 3:0.38875425 4:-0.54806594 5:-0.68247716 6:-332.99506 7:0.0049955661 8:5.06917 9:0.00021303217 10:0.038087807 11:0.097010295 12:0.11184149 13:0.0034945475 14:0.034013085 15:0.0025635667 16:0.0093730093 17:0.031763259 18:7.2326275e-05 
-0 16 1:0.1293125 2:0.05817304 3:0.13775666 4:-0.57208649 5:-0.91203158 6:-332.96831 7:0.00044127459 8:5.0701461 9:6.7186112e-06 10:0.05411177 11:0.090627913 12:0.11351821 13:5.498904e-05 14:0.038651342 15:1.6246349e-05 16:0.0089274842 17:0.032339467 18:7.8916709e-08 
-0 16 1:0.034 2:0.063486644 3:0.15590567 4:-0.58602807 5:-0.92387592 6:-332.99328 7:0.0096366141 8:5.0675072 9:0.0007534739 10:0.00011589921 11:0.11994005 12:0.10304135 13:0.021716826 14:-0.00068070163 15:0.029143235 16:0.015628323 17:0.020602055 18:0.0026531263 
-0 5.458580241313315 1:0.055875 2:0.042920715 3:0.14979897 4:-0.56304325 5:-1.0406272 6:-332.99172 7:0.0011370177 8:5.0700804 9:1.2544801e-05 10:0.046582009 11:0.092256145 12:0.11328643 13:0.0030713694 14:0.036526818 15:0.00062649824 16:0.0093311161 17:0.032063525 18:6.7485103e-05 
-0 3.535981454571373 1:0.0168125 2:0.037318397 3:0.40804323 4:-0.53937198 5:-0.68022109 6:-332.99487 7:0.0044533186 8:5.0692968 9:0.00018385099 10:0.039785804 11:0.096236888 12:0.11206937 13:0.0031039113 14:0.034602773 15:0.0022053733 16:0.0093163799 17:0.031844558 18:6.1969118e-05 
-0.0595868522749211 0.411055299019525 1:0.75275 2:0.71523517 3:0.17655003 4:-0.55045634 5:-1.4111856 6:-332.77537 7:0.00023783165 8:5.0701678 9:4.6217725e-06 10:0.057103695 11:0.089724757 12:0.11369649 13:0.0036931698 14:0.035087412 15:0.0014407747 16:0.0073697388 17:0.033811087 18:0.00084558741 
-0 8.062555830052347 1:0.07775 2:0.055151282 3:0.14143884 4:-0.58479705 5:-0.92782403 6:-332.98631 7:0.0026256032 8:5.069813 9:5.7337374e-05 10:0.015608701 11:0.10179571 12:0.11139153 13:0.039994165 14:0.00010361801 15:0.015200678 16:0.025964738 17:0.01645528 18:0.0093183684 
-0 2.81039800378162 1:0.0715 2:0.061817759 3:0.3003714 4:-0.58275804 5:-1.1658387 6:-332.98941 7:0.001807565 8:5.0699808 9:2.6683466e-05 10:0.037463401 11:0.094653472 12:0.1128792 13:0.010393331 14:0.030370163 15:0.0027235258 16:0.011183803 17:0.030592654 18:0.00062787409 
-0.289771892178517 0.5725445154461276 1:0.01525 2:0.061830352 3:0.22405252 4:-0.54702523 5:-0.99945403 6:-332.99639 7:0.049681181 8:5.0447888 9:0.012998312 10:0.17425222 11:-0.029797592 12:0.19254057 13:0.021552086 14:-0.032787812 15:0.096774393 16:0.0035900018 17:0.049448244 18:0.0016983103 
-0.5771235645471722 0 1:-0.012875 2:0.018903195 3:0.21583612 4:-0.41714391 5:-0.998326 6:-332.99849 7:0.0232229 8:5.0640588 9:0.0016249626 10:0.019763235 11:0.1082188 12:0.10757918 13:0.0036047876 14:0.032513986 15:0.0043299974 16:0.0092055674 17:0.031880095 18:2.7179564e-05 
-0 4.353115569170028 1:0.1418125 2:0.06692332 3:0.1438299 4:-0.57272992 5:-0.91033954 6:-332.98055 7:0.001540003 8:5.069888 9:6.387706e-05 10:0.068603132 11:0.084759892 12:0.11506975 13:0.010730116 14:0.024474179 15:0.007695634 16:0.0046939569 17:0.037762293 18:0.0021464055 
-0 4.308873242133569 1:-0.000375 2:0.018889028 3:0.30548831 4:-0.51022441 5:-1.1370739 6:-332.99537 7:0.0037681426 8:5.0697328 9:5.8054361e-05 10:0.040254785 11:0.094019722 12:0.11297319 13:0.0034198303 14:0.035923879 15:0.0009185325 16:0.0092284156 17:0.03210354 18:3.358475e-05 
-0 15.51232580629614 1:0.0855625 2:0.096640867 3:0.25716541 4:-0.57889985 5:-0.93064411 6:-332.9706 7:0.0031654682 8:5.0695634 9:0.00012867601 10:0.03741552 11:0.097132983 12:0.11184749 13:0.0059966577 14:0.030842348 15:0.0042002766 16:0.01015324 17:0.030788871 18:0.00032086707 
-0 16 1:0.0480625 2:0.029908851 3:0.16817754 4:-0.57722554 5:-1.034423 6:-332.9939 7:0.0045837121 8:5.0696176 9:7.4132689e-05 10:0.024339792 11:0.098069873 12:0.11229713 13:0.01365418 14:0.027368638 15:0.003836751 16:0.01115443 17:0.030554161 18:0.00046712959 
-0.2458581500437872 0.1177790411377724 1:0.084 2:0.035357681 3:0.1266643 4:-0.59743492 5:-0.74451889 6:-332.99511 7:0.012906505 8:5.067612 9:0.00051960718 10:-0.18336967 11:0.18364486 12:0.089596401 13:0.31919479 14:-0.37686186 15:0.22081074 16:0.24324322 17:-0.26238749 18:0.2208848 
-2.43564948572157 0 1:-0.0113125 2:0.027477605 3:0.24871627 4:-0.49753912 5:-1.1297417 6:-332.99717 7:0.017103016 8:5.0660735 9:0.00099648494 10:0.043572661 11:0.095470209 12:0.112041 13:0.0004252953 14:0.038032291 15:0.00042545479 16:0.0089412256 17:0.032319952 18:4.2771094e-07 
-0 1.046524683378852 1:0.043375 2:0.027477605 3:0.36084019 4:-0.56870889 5:-1.1291777 6:-332.99612 7:0.0052484081 8:5.069482 9:9.8443457e-05 10:0.071861266 11:0.085853138 12:0.11436127 13:0.004692123 14:0.034512624 15:0.0015238233 16:0.0084811829 17:0.032724173 18:5.4953063e-05 
-0.3610097860802226 8.069075362031626 1:0.005875 2:0.029553421 3:0.21051197 4:-0.56818094 5:-1.0163745 6:-332.99772 7:0.028510202 8:5.0642175 9:0.0012560452 10:0.19229326 11:0.033890685 12:0.12880084 13:0.049898632 14:-0.029234455 15:0.037746456 16:-0.0013489459 17:0.045856751 18:0.0027330091 
-0 15.75559460362881 1:0.118375 2:0.089957801 3:0.15053181 4:-0.58531563 5:-0.93346418 6:-332.96687 7:0.0030915926 8:5.0695083 9:0.00015552924 10:0.030552848 11:0.1008507 12:0.110594 13:0.012479627 14:0.020526246 15:0.010799577 16:0.013059954 17:0.026526881 18:0.0017556254 
-0.3039284430474503 0.1819997330017267 1:0.012125 2:0.044671693 3:0.4055374 4:-0.54287523 5:-1.1280496 6:-332.99655 7:0.049200821 8:5.0556388 9:0.0043105017 10:-0.25047696 11:0.26649397 12:0.046825229 13:0.13814925 14:-0.22649401 15:0.20776927 16:0.059407679 17:-0.061280943 18:0.023708548 
-0 5.341056991560123 1:0.105875 2:0.24574131 3:0.20779886 4:-0.58221876 5:-0.93120812 6:-332.91098 7:0.0011363813 8:5.0698921 9:8.4384598e-05 10:0.050349696 11:0.092467503 12:0.11290309 13:0.00064304466 14:0.037562242 15:0.00081891028 16:0.009025526 17:0.032173775 18:1.847877e-05 
-1.798803168719924 0 1:0.0168125 2:0.070426022 3:0.38054799 4:-0.54960979 5:-1.2538252 6:-332.98797 7:0.0014638872 8:5.0699674 9:3.7328542e-05 10:0.048528749 11:0.092351466 12:0.11316776 13:0.0012395589 14:0.037401945 15:0.00055318943 16:0.0090638323 17:0.032202064 18:1.8740183e-05 
-0 16 1:0.1199375 2:0.054937541 3:0.18728933 4:-0.58628329 5:-0.93064411 6:-332.96835 7:0.00066775278 8:5.0701171 9:1.043765e-05 10:0.048674459 11:0.092011433 12:0.11328713 13:0.002527029 14:0.036564466 15:0.00073527438 16:0.0093942728 17:0.031958674 18:0.00010983403 
-0 0.4498165004313663 1:0.0449375 2:0.053256732 3:0.18695718 4:-0.58107875 5:-0.90751946 6:-332.9933 7:0.029210806 8:5.0597433 9:0.0037443554 10:-0.11408691 11:0.20795306 12:0.059723738 13:0.070673621 14:-0.12538367 15:0.1554791 16:0.03788913 17:-0.032621402 18:0.01524333 
-0.02275454591195517 0 1:0.6011875 2:0.61645778 3:0.21072695 4:-0.47476108 5:-1.426414 6:-332.79031 7:0.00010278602 8:5.0701908 9:8.1406183e-07 10:0.055026214 11:0.090401083 12:0.11355512 13:0.0013821543 14:0.037544942 15:0.00039269026 16:0.0084847282 17:0.032696338 18:0.00018361402 
-0.2113825295259193 0 1:0.9011875 2:0.77259478 3:0.16551833 4:-0.54824556 5:-1.4168257 6:-332.73666 7:0.00016047449 8:5.0701786 9:3.1369298e-06 10:0.056273593 11:0.089942163 12:0.11365986 13:0.0031282925 14:0.03553769 15:0.0013031533 16:0.0074236685 17:0.033807576 18:0.00093041661 
-0 1.064462392053382 1:0.018375 2:0.061841377 3:0.23056371 4:-0.5939465 5:-0.89511111 6:-332.99534 7:0.042499884 8:5.0555756 9:0.00503344 10:-0.08989938 11:0.18716099 12:0.070977623 13:0.035629797 14:-0.040819954 15:0.072431418 16:0.017210667 17:0.014481345 18:0.0024761183 
-0 0.009515102405942024 1:0.9293125 2:0.77259478 3:0.1545872 4:-0.5390738 5:-1.42585 6:-332.76677 7:0.00029422726 8:5.0701576 9:6.4112307e-06 10:0.058190728 11:0.089356278 12:0.11377739 13:0.0051402611 14:0.033495247 15:0.0021493704 16:0.006530421 17:0.034683859 18:0.0014374037 
-0.1880756457878227 0.3577412190197904 1:-0.0035 2:0.045761692 3:0.26321356 4:-0.49656745 5:-0.70278173 6:-332.99776 7:0.12088521 8:5.0159255 9:0.024369146 10:-0.17991432 11:0.29545323 12:-0.0043016773 13:0.033396464 14:-0.058548015 15:0.11557205 16:0.014796786 17:0.015830809 18:0.0013337763 
-0.2426144670039148 0.08126368198069761 1:0.0261875 2:0.096259631 3:0.23210686 4:-0.58710877 5:-0.8945471 6:-332.99478 7:0.096599224 8:5.0149629 9:0.031586179 10:-0.21619471 11:0.39195093 12:-0.10725078 13:0.055392286 14:-0.16671476 15:0.31089565 16:0.026597275 17:-0.030962813 18:0.0072428522 
-2.716256781414746 16 1:0.04025 2:0.022434347 3:0.16314355 4:-0.57531409 5:-1.1590705 6:-332.99552 7:0.0063792476 8:5.0690361 9:0.00021289582 10:0.1119732 11:0.0698975 12:0.1183895 13:0.039249701 14:-0.0078697604 15:0.022549932 16:-0.0041545993 17:0.047335776 18:0.0055998174 
-0 9.94953768478697 1:0.130875 2:0.067356519 3:0.22442603 4:-0.58245959 5:-0.89229103 6:-332.96491 7:0.0013135233 8:5.0699975 9:3.1559462e-05 10:0.062845592 11:0.087923587 12:0.11406683 13:0.0047991982 14:0.03381657 15:0.002026547 16:0.007877214 17:0.033371878 18:0.00029622626 
-3.536653477238799 3.841085104155866 1:0.2949375 2:0.28653229 3:0.19148834 4:-0.55487063 5:-1.3525279 6:-332.93361 7:0.00062474829 8:5.0701077 9:1.3970294e-05 10:0.062056144 11:0.088219418 12:0.11399671 13:0.0083345671 14:0.030395879 15:0.0033753365 16:0.0055351199 17:0.035604499 18:0.0017747967 
-1.693686561113599 0 1:0.0949375 2:0.20414823 3:0.39745324 4:-0.54168944 5:-1.4179538 6:-332.94641 7:0.00014510456 8:5.0701942 9:-2.8441235e-07 10:0.054729092 11:0.090604628 12:0.11350937 13:0.00065653884 14:0.038384015 15:6.1336301e-05 16:0.008857588 17:0.032371114 18:1.0063096e-05 
-0 0.8182822447078475 1:0.018375 2:0.070408305 3:0.36618685 4:-0.51507547 5:-1.248185 6:-332.98694 7:0.0011986281 8:5.0700542 9:1.7853122e-05 10:0.048451768 11:0.092017507 12:0.11329422 13:0.0015569565 14:0.037435034 15:0.0004182183 16:0.0090914638 17:0.032210871 18:2.1679243e-05 
-0.1932537681741574 0 1:0.455875 2:0.55486583 3:0.22301927 4:-0.55108893 5:-1.4156977 6:-332.85031 7:0.00024673327 8:5.0701681 9:4.352136e-06 10:0.056933878 11:0.089815075 12:0.11367156 13:0.0032376317 14:0.035660015 15:0.0011635601 16:0.0077216162 17:0.033432864 18:0.00057840181 
-0.06364080073315619 0 1:0.0965 2:0.51428977 3:0.23512438 4:-0.56928968 5:-0.91541568 6:-332.87822 7:0.0023549137 8:5.0687483 9:0.00089502692 10:0.051133889 11:0.093649786 12:0.11123006 13:0.00017734873 14:0.037991106 15:0.0011503901 16:0.0089512508 17:0.032253497 18:3.4810551e-06 
-0 4.151788658808607 1:0.168375 2:0.086206191 3:0.21258995 4:-0.57066934 5:-0.89398308 6:-332.94351 7:0.00093694838 8:5.0700608 9:2.099065e-05 10:0.050275925 11:0.091745351 12:0.11330397 13:0.00081475722 14:0.037892752 15:0.00032492041 16:0.0090138615 17:0.032257219 18:1.1272107e-05 
-0 4.387939230220489 1:0.105875 2:0.29935776 3:0.27195544 4:-0.56553848 5:-0.91485166 6:-332.89621 7:0.0010661071 8:5.0698526 9:0.00011428465 10:0.051913152 11:0.091806474 12:0.11306249 13:0.00017659039 14:0.038324189 15:0.00032317776 16:0.0089464493 17:0.032302917 18:2.1326013e-06 
-0 0.1194986898861637 1:0.012125 2:0.036056352 3:0.25692669 4:-0.59715318 5:-0.891163 6:-332.99679 7:0.050730684 8:5.0493265 9:0.0085897451 10:0.23222012 11:-0.052799751 12:0.18921727 13:0.046241465 14:-0.08469236 15:0.13438175 16:-0.0044298733 17:0.066778533 18:0.0049552251 
-0 1.260425907674278 1:0.4386875 2:0.56526984 3:0.23331684 4:-0.5458298 5:-1.4185178 6:-332.84222 7:0.00014473786 8:5.0701855 9:1.4828354e-06 10:0.055517567 11:0.090280037 12:0.11357469 13:0.0018035188 14:0.037200587 15:0.00050751071 16:0.0083618497 17:0.032793199 18:0.00022924721 
-1.949901489698511 16 1:0.0324375 2:0.022313515 3:0.20309553 4:-0.57913222 5:-1.1714788 6:-332.99418 7:0.0016523748 8:5.0700311 9:1.7203226e-05 10:0.078423818 11:0.085677464 12:0.11417883 13:0.027291582 14:0.020130636 15:0.0051556836 16:0.00041397477 17:0.037935105 18:0.0034112253 
-0 16 1:0.05275 2:0.032122237 3:0.17277641 4:-0.58065673 5:-1.1788111 6:-332.99332 7:0.0031032553 8:5.0697533 9:6.4587509e-05 10:0.09670537 11:0.078537005 12:0.11577083 13:0.043914387 14:-0.0026465565 15:0.015886969 16:-0.0086632668 17:0.048340264 18:0.0090487177 
-0.00723096633253617 0 1:0.134 2:0.23078703 3:0.45924788 4:-0.50234043 5:-1.4207738 6:-332.92871 7:0.00026254866 8:5.0701859 9:3.1569044e-07 10:0.055183879 11:0.090542203 12:0.11351498 13:0.00072352021 14:0.03835646 15:6.5851404e-05 16:0.0088668604 17:0.032366453 18:6.9305979e-06 
-3.524879609714363 0 1:0.0168125 2:0.078993341 3:0.45958757 4:-0.54454015 5:-1.2431089 6:-332.98819 7:0.0022602175 8:5.0699042 9:3.8894265e-05 10:0.045275963 11:0.092914911 12:0.11312964 13:0.0021968325 14:0.03680838 15:0.00066346646 16:0.0091398488 17:0.03216299 18:2.590295e-05 
-0 12.12797867342227 1:0.24025 2:0.54236774 3:0.23066975 4:-0.55413308 5:-0.92443993 6:-332.69648 7:0.001135323 8:5.0697483 9:0.00018081448 10:0.053114495 11:0.091097511 12:0.11333016 13:1.0840708e-05 14:0.038670185 15:2.9395435e-05 16:0.0089296311 17:0.032337188 18:1.129341e-08 
-0 16 1:0.3011875 2:0.62658492 3:0.2130604 4:-0.54978174 5:-0.94587253 6:-332.54247 7:0.00027875345 8:5.0701101 9:3.0105304e-05 10:0.053601322 11:0.090730252 12:0.11351285 13:1.4058657e-06 14:0.038695162 15:2.5529693e-06 16:0.0089292993 17:0.032338003 18:5.0013401e-10 
-0 16 1:0.084 2:0.028103986 3:0.29777834 4:-0.57674194 5:-0.91033954 6:-332.97207 7:0.00023088099 8:5.0701886 9:8.4828745e-08 10:0.048433224 11:0.091484581 12:0.11342862 13:0.0076968141 14:0.035151425 15:0.00066703265 16:0.011172231 17:0.031339412 18:0.00083931622 
-0 4.735536302689368 1:0.0699375 2:0.027757899 3:0.20425224 4:-0.58600885 5:-0.89567513 6:-332.99079 7:0.002966236 8:5.0696593 9:9.9112821e-05 10:0.058586819 11:0.088966012 12:0.11391882 13:0.0006308918 14:0.037947948 15:0.00036406891 16:0.0088901935 17:0.032382908 18:3.1158837e-06 
-0 8.587246292591997 1:0.2949375 2:0.61055769 3:0.23572218 4:-0.55450698 5:-0.94192442 6:-332.55249 7:0.00017624277 8:5.0701444 9:1.8613311e-05 10:0.053337897 11:0.090895661 12:0.11344467 13:1.3509607e-05 14:0.038670085 15:2.3757454e-05 16:0.008930164 17:0.032336269 18:6.7269297e-08 
-0 0.1385119367203663 1:0.1730625 2:0.294724 3:0.34489061 4:-0.48852808 5:-1.4286701 6:-332.91616 7:0.00012323289 8:5.0701948 9:-2.3434966e-07 10:0.054898486 11:0.090559397 12:0.11351582 13:0.00098791361 14:0.038175674 15:0.0001127679 16:0.0087719503 17:0.032418363 18:3.2186408e-05 
-0 6.750803192096314 1:0.3449375 2:0.61055769 3:0.222543 4:-0.54101531 5:-0.95940891 6:-332.46418 7:0.00015379009 8:5.070155 9:1.420633e-05 10:0.053306106 11:0.09090697 12:0.11344332 13:2.0881997e-05 14:0.038657478 15:3.2295747e-05 16:0.0089309356 17:0.032334922 18:1.5994882e-07 
-0 9.605525086760251 1:0.0730625 2:0.044986517 3:0.21192763 4:-0.58443096 5:-0.8945471 6:-332.98249 7:0.0016330353 8:5.0699163 9:4.977032e-05 10:0.066763326 11:0.086235945 12:0.11451596 13:0.007804746 14:0.029804389 15:0.004136361 16:0.0067353607 17:0.034753387 18:0.00079183329 
-0 8.188633504225349 1:0.2949375 2:0.54299827 3:0.24302198 4:-0.55180713 5:-0.94079639 6:-332.55682 7:9.2096082e-05 8:5.0701764 9:6.9776709e-06 10:0.053329818 11:0.090882813 12:0.11345621 13:2.6043128e-05 14:0.038651947 15:3.3421895e-05 16:0.0089318837 17:0.032333568 18:3.2335465e-07 
-0 1.404768646389346 1:0.0918125 2:0.031963225 3:0.2305443 4:-0.57513924 5:-0.87255048 6:-332.98203 7:0.00088746212 8:5.0700853 9:1.499845e-05 10:0.062560534 11:0.088419179 12:0.11389722 13:0.0066328384 14:0.032946928 15:0.0020352883 16:0.0071627039 17:0.033817888 18:0.00060411634 
-0 1.320975668549105 1:0.2949375 2:0.44960379 3:0.25213831 4:-0.55131148 5:-0.93966836 6:-332.54163 7:5.4302389e-05 8:5.0701889 9:3.0248776e-06 10:0.053403548 11:0.090836085 12:0.11347488 13:1.5564832e-05 14:0.038673627 15:1.5740081e-05 16:0.0089306225 17:0.032335979 18:1.3936714e-07 
-0 0.5392133007255651 1:0.080875 2:0.13921761 3:0.18926409 4:-0.58019073 5:-0.89905922 6:-332.97866 7:0.0038518209 8:5.0689348 9:0.00041664061 10:0.03248077 11:0.10428408 12:0.10780346 13:0.0084136933 14:0.020765991 15:0.01559861 16:0.011928731 17:0.026161762 18:0.0013728365 
-0 0.02420197206058695 1:0.143375 2:0.294724 3:0.41697271 4:-0.50193713 5:-1.4314901 6:-332.90947 7:0.00010303708 8:5.0701977 9:-5.6384203e-07 10:0.054407275 11:0.090656001 12:0.11350405 13:0.00047582001 14:0.038479465 15:4.1012368e-05 16:0.0088799113 17:0.032359894 18:6.5878876e-06 
-0.1500674130211768 0 1:0.284 2:0.52697449 3:0.24942037 4:-0.55835207 5:-0.94136041 6:-332.46567 7:8.664268e-05 8:5.0701805 9:5.2185641e-06 10:0.053360452 11:0.09085835 12:0.11346737 13:1.953304e-05 14:0.038666662 15:2.0688061e-05 16:0.0089308732 17:0.032335543 18:1.5803368e-07 
-0 16 1:0.112125 2:0.1996936 3:0.19454822 4:-0.56868005 5:-0.89905922 6:-332.94685 7:0.0021133188 8:5.0697031 9:0.00011765332 10:0.040793677 11:0.096650388 12:0.11171513 13:0.0055937464 14:0.030130098 15:0.0053563347 16:0.010504375 17:0.030007105 18:0.00056947506 
-0.03097166661215465 0 1:0.3261875 2:0.56140938 3:0.24947143 4:-0.54619663 5:-0.95320474 6:-332.38316 7:0.00021873901 8:5.0701487 9:1.2874306e-05 10:0.053192303 11:0.090937136 12:0.11344315 13:3.4805405e-05 14:0.03864302 15:3.5610557e-05 16:0.0089317258 17:0.03233428 18:2.1306858e-07 
-15.13334802183456 0 1:0.04025 2:0.087609889 3:0.23311631 4:-0.53751746 5:-1.1162053 6:-332.99669 7:0.053805027 8:5.0456532 9:0.011199791 10:0.099412984 11:0.049898928 12:0.13739774 13:0.0028750277 14:0.030192074 15:0.010271237 16:0.0087063457 17:0.032975318 18:2.2203037e-05 
-0.1203995403679692 0 1:0.1465 2:0.15179502 3:0.1330222 4:-0.5746092 5:-0.71688212 6:-332.97667 7:0.0038706437 8:5.0692977 9:0.00021114347 10:0.054751594 11:0.090218766 12:0.11366046 13:3.1507138e-05 14:0.038650382 15:2.9529824e-05 16:0.0089287687 17:0.032338767 18:1.3109537e-08 
-3.521891339680872 1.944693263715118 1:0.04025 2:0.050705387 3:0.19207124 4:-0.5751334 5:-1.1742989 6:-332.99618 7:0.02360472 8:5.0625969 9:0.0024500521 10:0.17744185 11:0.012825838 12:0.14568147 13:0.047771672 14:-0.061105209 15:0.085099731 16:-0.0071684688 17:0.06483029 18:0.0069646049 
-0.2640985114452535 0 1:0.074625 2:0.057665248 3:0.16783642 4:-0.59145026 5:-0.71575409 6:-332.99237 7:0.0405894 8:5.0535092 9:0.0068646076 10:-0.20284912 11:0.29664719 12:0.0049809754 13:0.11898592 14:-0.27861297 15:0.3453691 16:0.070559264 17:-0.12645206 18:0.040995425 
-0.1173919597986207 7.398711493049243 1:0.4043125 2:0.83196377 3:0.23155765 4:-0.53308323 5:-0.95264072 6:-332.10784 7:5.8999633e-05 8:5.0701811 9:7.1174131e-06 10:0.053363159 11:0.090883194 12:0.11344838 13:2.5790202e-05 14:0.038642849 15:4.8357788e-05 16:0.008932979 17:0.032330384 18:6.6551899e-07 
-0.2777610274790337 0 1:-0.0081875 2:0.087627235 3:0.23170865 4:-0.52845971 5:-1.1156413 6:-332.99785 7:0.054996367 8:5.0494299 9:0.0078453089 10:-0.016752482 11:0.14260933 12:0.088401108 13:0.0065979457 14:0.022537789 15:0.016154767 16:0.0095640857 17:0.030835875 18:7.8405918e-05 
-0 8.024978763490093 1:0.0761875 2:0.057665248 3:0.13462416 4:-0.59108069 5:-0.71575409 6:-332.9918 7:0.0082401042 8:5.0675848 9:0.00083106412 10:-0.010745595 11:0.13062515 12:0.097276878 13:0.036766334 14:-0.037002649 15:0.063614899 16:0.027047154 17:-0.0037029927 18:0.011462951 
-1.064740672913741 0 1:0.05275 2:0.096290449 3:0.50798101 4:-0.22110716 5:-1.2380327 6:-332.97472 7:0.00073990288 8:5.0700821 9:1.9175524e-05 10:0.047244731 11:0.092789077 12:0.11307031 13:0.0038319278 14:0.034623657 15:0.0017682091 16:0.0099692367 17:0.03126966 18:0.00036233631 
-0.05661702079375214 0 1:0.21525 2:0.14130437 3:0.40193258 4:-0.54724763 5:-0.76482346 6:-332.92551 7:0.00011605592 8:5.0701922 9:3.0210979e-07 10:0.050933606 11:0.091310021 12:0.1134213 13:0.0037173449 14:0.036164397 15:0.00070484994 16:0.010449239 17:0.031337064 18:0.00079788601 
-0.2042172068562587 2.294887645544008 1:0.30275 2:0.68557383 3:0.26272235 4:-0.5520198 5:-0.94869261 6:-332.24417 7:0.00012409316 8:5.0701657 9:1.0457096e-05 10:0.053463119 11:0.090813336 12:0.11347994 13:2.0811925e-06 14:0.038694251 15:2.9465259e-06 16:0.0089293761 17:0.03233786 18:1.7608864e-09 
-6.443736442600533 3.939246096768357 1:0.0918125 2:0.071905719 3:0.27398142 4:-0.54522119 5:-1.35422 6:-332.97629 7:0.00036772242 8:5.0701711 9:2.040257e-06 10:0.058219959 11:0.089941001 12:0.11359093 13:0.0042100811 14:0.036205096 15:0.00060252287 16:0.0079937389 17:0.03287321 18:0.00026693729 
-0 3.607340588609894 1:0.1543125 2:0.095431033 3:0.1524839 4:-0.58922714 5:-0.72139425 6:-332.98206 7:0.0016276004 8:5.0698547 9:7.3948288e-05 10:0.047953835 11:0.093103662 12:0.11285582 13:0.0013877275 14:0.036774619 15:0.0010881597 16:0.0091297367 17:0.032069571 18:3.7160913e-05 
-0 0.330922444386598 1:0.1230625 2:0.30710476 3:0.458841 4:-0.52092297 5:-1.4365663 6:-332.89447 7:0.00011906534 8:5.0701956 9:-3.3490667e-07 10:0.054564284 11:0.090619418 12:0.11350887 13:0.00058263048 14:0.038402686 15:6.1144672e-05 16:0.0088599404 17:0.032371947 18:1.0608107e-05 
-2.241168920698515 0.3088758110032477 1:0.05275 2:0.096366427 3:0.51113444 4:-0.16926244 5:-1.2380327 6:-332.96936 7:0.0010025702 8:5.0700545 9:2.1414712e-05 10:0.045231278 11:0.093188803 12:0.11303303 13:0.0049617851 14:0.033908788 15:0.0018867828 16:0.01012827 17:0.031219853 18:0.00037207322 
-0 0.2936677314922949 1:0.2293125 2:0.2101202 3:0.22089723 4:-0.5696456 5:-0.90300733 6:-332.88845 7:0.00030838013 8:5.0701451 9:1.0311012e-05 10:0.050664269 11:0.091827841 12:0.11324016 13:0.0018509869 14:0.036443032 15:0.0011213344 16:0.0095395218 17:0.03161971 18:0.00025827013 
-0.2826159616901791 0 1:0.359 2:0.76015813 3:0.26586607 4:-0.53332312 5:-0.9695612 6:-331.99931 7:6.9237891e-05 8:5.0701829 9:5.1548414e-06 10:0.053305962 11:0.090894504 12:0.11345248 13:4.1449283e-05 14:0.038625283 15:5.2250541e-05 16:0.0089350561 17:0.032328221 18:1.0182355e-06 
-0 0.1187183467271555 1:0.459 2:0.65649805 3:0.27551414 4:-0.52004246 5:-1.4444625 6:-332.79431 7:9.4781414e-05 8:5.0701927 9:4.6820179e-07 10:0.054588709 11:0.090526885 12:0.11353191 13:0.00074316931 14:0.038114982 15:0.000186756 16:0.0087586566 17:0.032467339 18:5.0320039e-05 
-0 14.38888041201067 1:0.3465 2:0.29370103 3:0.25902831 4:-0.55403775 5:-0.78907614 6:-332.86157 7:0.00022441915 8:5.0701643 9:6.1123697e-06 10:0.051242147 11:0.091552655 12:0.11332049 13:0.0015892816 14:0.036907893 15:0.00082305279 16:0.0094504734 17:0.031770787 18:0.00021941194 
-0 9.583628653425563 1:0.259 2:0.17361348 3:0.1740177 4:-0.56788975 5:-1.318123 6:-332.97556 7:0.001240354 8:5.0699604 9:4.6881403e-05 10:0.069487028 11:0.084684623 12:0.11501992 13:0.014891296 14:0.019818048 15:0.0097697541 16:0.0015594487 17:0.041365536 18:0.0046829761 
-0 0.7440192078295536 1:0.2730625 2:0.4802754 3:0.36223096 4:-0.52134567 5:-1.4450265 6:-332.83912 7:7.0731033e-05 8:5.0701982 9:-4.3444815e-07 10:0.05415018 11:0.090666569 12:0.11350602 13:0.00032666473 14:0.038504525 15:4.6830395e-05 16:0.0088869111 17:0.032362241 18:7.0697034e-06 
-0 3.349535265039796 1:0.324625 2:0.30278833 3:0.16808017 4:-0.54860153 5:-1.3621162 6:-332.91137 7:0.00019468987 8:5.0701709 9:4.7345074e-06 10:0.056478271 11:0.089815116 12:0.1136991 13:0.0030275548 14:0.03541881 15:0.001449718 16:0.0075221767 17:0.033810508 18:0.0008396932 
-0.1436843331044876 12.4898238221725 1:0.3465 2:0.16176938 3:0.31673609 4:-0.54916013 5:-0.78851213 6:-332.90294 7:0.00027162847 8:5.070173 9:2.6643311e-06 10:0.048574925 11:0.091892067 12:0.11332842 13:0.0062459915 14:0.034030489 15:0.0014236448 16:0.011392892 17:0.030559262 18:0.0012476073 
-4.865571249529686 0 1:0.0324375 2:0.079501695 3:0.62461848 4:-0.37621551 5:-1.2363407 6:-332.97167 7:0.00034911789 8:5.0701665 9:3.1310111e-06 10:0.052627998 11:0.090967989 12:0.11346658 13:0.00016204688 14:0.038584251 15:3.2661617e-05 16:0.0089379174 17:0.03233212 18:5.8527453e-07 
-0.04682728765894196 1.960775530209609 1:-0.006625 2:0.049384739 3:0.21391599 4:-0.5263311 5:-0.67965708 6:-332.99759 7:0.12042777 8:5.0170302 9:0.023476083 10:-0.050687306 11:0.18063273 12:0.062638475 13:0.0068879572 14:0.018973887 15:0.023052535 16:0.0094936932 17:0.030776494 18:6.10651e-05 
-0.0561550121103016 0.3419107514219044 1:0.5324375 2:0.75361479 3:0.27628734 4:-0.53878813 5:-1.4478466 6:-332.7114 7:7.5684977e-05 8:5.0701951 9:1.7322284e-07 10:0.054476972 11:0.090554569 12:0.11352742 13:0.00071789188 14:0.038138035 15:0.00017834831 16:0.008752368 17:0.032471339 18:5.6001455e-05 
-0.08176138845753804 0 1:0.299625 2:0.11104158 3:0.33900519 4:-0.55483935 5:-0.78456402 6:-332.92006 7:0.00027663589 8:5.0701763 9:1.8715841e-06 10:0.047247988 11:0.092025203 12:0.11333033 13:0.0098710165 14:0.032185407 15:0.0017537657 16:0.013213562 17:0.029606998 18:0.0023874587 
-0 1.342012462968881 1:0.005875 2:0.032285551 3:0.2340344 4:-0.56241297 5:-1.2780778 6:-332.99603 7:0.0063114311 8:5.0692103 9:0.00015556378 10:0.077331184 11:0.083462065 12:0.1149688 13:0.0065807431 14:0.031981584 15:0.0027978554 16:0.0081524833 17:0.033103979 18:0.0001177394 
-0.1127114525202225 0 1:0.380875 2:0.61645778 3:0.3726913 4:-0.51148029 5:-1.4523587 6:-332.74096 7:5.1596105e-05 8:5.0701993 9:-4.7367125e-07 10:0.054114873 11:0.090662319 12:0.11350788 13:0.00037203528 14:0.038455487 15:6.4587673e-05 16:0.0088651547 17:0.032378389 18:1.4209773e-05 
-0 5.856222993506288 1:0.087125 2:0.10278618 3:0.15091448 4:-0.5838653 5:-0.70165369 6:-332.99163 7:0.0092920845 8:5.0673314 9:0.00088665555 10:0.10514731 11:0.059646065 12:0.12581705 13:0.021036871 14:-0.0034358224 15:0.034442266 16:0.0017453716 17:0.046239223 18:0.0031497778 
-3.9796107136904 6.036144486473548 1:-0.0113125 2:0.019047363 3:0.50562696 4:-0.47032248 5:-1.1088731 6:-332.99747 7:0.0059327793 8:5.069161 9:0.00018246242 10:0.043477999 11:0.094225235 12:0.11271666 13:0.0012471631 14:0.037277153 15:0.00066078166 16:0.009003112 17:0.032256729 18:5.6052986e-06 
-1.03061407965728 0.09544537404668943 1:-0.0113125 2:0.019047363 3:0.69207558 4:-0.45825982 5:-1.1088731 6:-332.99747 7:0.016839077 8:5.0672474 9:0.00051820631 10:0.039280459 11:0.095661238 12:0.11239419 13:0.00088481164 14:0.037690844 15:0.00046801679 16:0.008955498 17:0.032309166 18:9.9418303e-07 
-0.04733544218611838 0 1:-0.000375 2:0.052199091 3:0.27290677 4:-0.40781999 5:-0.68022109 6:-332.99533 7:0.0080894883 8:5.0684885 9:0.00036281292 10:0.024293359 11:0.10287451 12:0.1102073 13:0.0077472615 14:0.028051499 15:0.0059715146 16:0.010109819 17:0.030770597 18:0.00023094849 
-6.444437820399973 0.6026848949671998 1:-0.012875 2:0.024705843 3:0.35328991 4:-0.36566292 5:-1.1088731 6:-332.99855 7:0.064471441 8:5.0552648 9:0.003460684 10:0.084936677 11:0.07657105 12:0.11771086 13:0.0019541649 14:0.035762785 15:0.0017995536 16:0.0088529174 17:0.032448838 18:3.8354804e-06 
-0 16 1:0.0449375 2:0.031808389 3:0.20485058 4:-0.57088846 5:-1.2893582 6:-332.99067 7:0.00088716691 8:5.0701128 9:8.4738784e-06 10:0.046086481 11:0.092278185 12:0.11329439 13:0.0044996843 14:0.035684673 15:0.00082367486 16:0.0096918603 17:0.031844573 18:0.00016591089 
-5.428384632982156 0 1:-0.012875 2:0.024522735 3:0.28983347 4:-0.35669761 5:-1.1088731 6:-332.99849 7:0.023540615 8:5.0648466 9:0.0012182045 10:0.013706967 11:0.10846933 12:0.10833354 13:0.0049463727 14:0.031399715 15:0.004395198 16:0.0093086358 17:0.031797227 18:3.7345936e-05 
-0 1.117738447546295 1:0.0949375 2:0.096176797 3:0.2703439 4:-0.57540697 5:-0.891163 6:-332.96067 7:0.0022234824 8:5.0697251 9:0.00010214274 10:0.035704238 11:0.098251637 12:0.11143573 13:0.010420328 14:0.024185863 15:0.0082489276 16:0.012479786 17:0.027560681 18:0.0015533674 
-0 0.7538606160195805 1:-0.012875 2:0.024522735 3:0.28656155 4:-0.35910668 5:-1.1088731 6:-332.99852 7:0.014109927 8:5.066961 9:0.00074433514 10:0.029647726 11:0.10149004 12:0.11033859 13:0.0029662052 14:0.034278946 15:0.0026871445 16:0.0091589964 17:0.032007364 18:2.2832629e-05 
-0 6.360697686317254 1:0.0465 2:0.027728113 3:0.3848577 4:-0.58204701 5:-0.84378567 6:-332.98678 7:0.0019384389 8:5.0698857 9:5.1353915e-05 10:0.041137291 11:0.094743046 12:0.11265997 13:0.0057688916 14:0.032566337 15:0.0026600559 16:0.010123916 17:0.031111209 18:0.00031760101 
-0.06220671670080334 0 1:0.505875 2:0.72488488 3:0.3120539 4:-0.44001339 5:-1.460819 6:-332.70549 7:8.4500642e-05 8:5.0701949 9:1.0210522e-07 10:0.054497882 11:0.090565682 12:0.11352341 13:0.00068458934 14:0.038201517 15:0.00014703158 16:0.0087829229 17:0.03244056 18:4.0196225e-05 
-0.1883095538088313 0 1:0.037125 2:0.072883998 3:0.19779167 4:-0.57151965 5:-0.68134913 6:-332.99631 7:0.029419638 8:5.0597311 9:0.0037264703 10:0.16536635 11:0.013057266 12:0.14894544 13:0.031227434 14:-0.033370802 15:0.067884144 16:0.00051026277 17:0.051110164 18:0.0029142394 
-0 16 1:0.084 2:0.036360309 3:0.28869 4:-0.58352041 5:-0.85788607 6:-332.97857 7:0.00080631494 8:5.0701004 9:1.2437391e-05 10:0.04471457 11:0.092990011 12:0.11312846 13:0.0069321846 14:0.032918663 15:0.0019665892 16:0.010831599 17:0.030805701 18:0.00067021045 
-0.2222149099901338 0 1:0.16525 2:0.40208396 3:0.49830872 4:-0.44715319 5:-1.463075 6:-332.81911 7:7.1298921e-05 8:5.0701994 9:-6.4051217e-07 10:0.054006992 11:0.090705441 12:0.11350015 13:0.00019267682 14:0.038601665 15:1.9710562e-05 16:0.0089131458 17:0.03234578 18:1.743782e-06 
-0 16 1:0.2293125 2:0.1981666 3:0.20026221 4:-0.56983971 5:-0.88157473 6:-332.83817 7:0.00050276283 8:5.0701008 9:2.0222791e-05 10:0.051651684 11:0.091520642 12:0.11329982 13:0.00049710464 14:0.038044026 15:0.00035127853 16:0.0090019043 17:0.032245685 18:1.3608488e-05 
-0 3.722573982223724 1:0.0855625 2:0.34943518 3:0.27831577 4:-0.57649696 5:-0.86578229 6:-332.87246 7:0.0010691522 8:5.0698101 9:0.00014330377 10:0.0514734 11:0.092240108 12:0.11280936 13:0.0002851908 14:0.038023523 15:0.00065128527 16:0.0089685325 17:0.032248347 18:6.9213117e-06 
-0 4.336016884709098 1:0.0355625 2:0.04913754 3:0.24053735 4:-0.57156234 5:-1.4004693 6:-332.99257 7:0.001458645 8:5.0700338 9:1.8966364e-05 10:0.064457301 11:0.088284444 12:0.11386633 13:0.0059513341 14:0.03418965 15:0.0013939718 16:0.0079023458 17:0.033089607 18:0.0002275314 
-0.01949350289652036 0 1:0.3605625 2:0.71523517 3:0.38430217 4:-0.45300015 5:-1.570238 6:-332.7456 7:4.3159087e-05 8:5.0702011 9:-7.3683579e-07 10:0.054208585 11:0.090665252 12:0.11350519 13:0.00057024179 14:0.03838544 15:6.9979617e-05 16:0.0088199832 17:0.032395881 18:2.6917156e-05 
-0 2.100616443564402 1:0.1386875 2:0.40327655 3:0.25898568 4:-0.56563985 5:-0.86578229 6:-332.85987 7:0.00090517125 8:5.0698481 9:0.00013789785 10:0.050403172 11:0.093146518 12:0.11231383 13:0.00077744793 14:0.036739964 15:0.0020129601 16:0.0091332653 17:0.031841677 18:6.8687702e-05 
-10.32855514061552 0.4262515232111899 1:0.030875 2:0.073483927 3:0.71521155 4:-0.2694421 5:-1.1917834 6:-332.97827 7:0.00055669205 8:5.0701157 9:1.3105441e-05 10:0.05499862 11:0.09032436 12:0.11358469 13:0.0002777676 14:0.038413961 15:0.00011865096 16:0.0089068928 17:0.032360125 18:2.325441e-06 
-0 16 1:0.212125 2:0.3758909 3:0.22368999 4:-0.56468552 5:-0.89172702 6:-332.77657 7:0.00026455828 8:5.0701233 9:2.3241772e-05 10:0.052229239 11:0.091523889 12:0.11321136 13:0.0004393702 14:0.037858912 15:0.0006542209 16:0.0090482611 17:0.032118471 18:4.1337839e-05 
-0 16 1:0.1761875 2:0.25779956 3:0.20857464 4:-0.57274706 5:-0.85619402 6:-332.8688 7:0.0011305602 8:5.0699105 9:7.5035373e-05 10:0.053480956 11:0.09080073 12:0.11348544 13:2.6624419e-07 14:0.038697682 15:3.0371881e-07 16:0.0089293238 17:0.032337954 18:5.7676049e-12 
-5.087418336632926 0 1:0.0293125 2:0.073483927 3:0.71803042 4:-0.35529443 5:-1.1912194 6:-332.98017 7:0.001685975 8:5.069925 9:4.5254329e-05 10:0.058444072 11:0.08919227 12:0.11382857 13:0.001043756 14:0.037580476 15:0.00048845287 16:0.0088300766 17:0.03244063 18:1.2116071e-05 
-0 14.39236303812795 1:0.1761875 2:0.3295934 3:0.21064194 4:-0.57248147 5:-0.85619402 6:-332.86003 7:0.0022695452 8:5.0693931 9:0.00028799803 10:0.058846087 11:0.087083405 12:0.11517716 13:0.00090977613 14:0.036599831 15:0.0019751849 16:0.0087791649 17:0.03267255 18:3.1824289e-05 
-0 3.388306719324239 1:0.0761875 2:0.20991589 3:0.2885956 4:-0.58027785 5:-0.86465426 6:-332.91163 7:0.00097081088 8:5.0699383 9:7.1510503e-05 10:0.051150311 11:0.092036554 12:0.11305532 13:0.00042006126 14:0.037959125 15:0.00053062542 16:0.0089839855 17:0.032245045 18:9.132839e-06 
-0 1.564331602685899 1:0.1418125 2:0.22811383 3:0.21828301 4:-0.57447483 5:-0.84322166 6:-332.90496 7:0.001041552 8:5.0698852 9:9.6159449e-05 10:0.054371042 11:0.090277662 12:0.11368743 13:4.9549314e-05 14:0.038600681 15:7.821727e-05 16:0.0089269313 17:0.0323425 18:1.481843e-07 
-5.752212594405058 0 1:0.0215 2:0.073483927 3:0.74994714 4:-0.44121154 5:-1.1906554 6:-332.9813 7:0.0025350708 8:5.0697719 9:7.2756399e-05 10:0.060071188 11:0.088602589 12:0.11396757 13:0.0012335816 14:0.037336493 15:0.0006134257 16:0.0088219478 17:0.032452464 18:1.1999733e-05 
-0 16 1:0.349625 2:0.37241014 3:0.18800655 4:-0.55586847 5:-0.87931867 6:-332.74691 7:0.00035134572 8:5.070103 9:2.7758522e-05 10:0.053799052 11:0.090628612 12:0.11354662 13:1.4849837e-05 14:0.038671134 15:2.0026589e-05 16:0.0089287078 17:0.032339036 18:3.2686924e-08 
-0 0.822792959146243 1:0.109 2:0.037508819 3:0.20165621 4:-0.57727515 5:-1.1111292 6:-332.98577 7:0.0021456755 8:5.0699571 9:2.7531982e-05 10:0.04009829 11:0.093798751 12:0.1130469 13:0.0061389385 14:0.034111531 15:0.001398609 16:0.0098082681 17:0.031703492 18:0.00016187753 
-0.3164006100252368 0.1438783688477426 1:-0.0050625 2:0.079381738 3:0.77389371 4:-0.45549835 5:-0.81445685 6:-332.99516 7:0.21327917 8:4.9339557 9:0.087034487 10:-0.14100256 11:0.3334488 12:-0.085218261 13:0.013145792 14:-0.015765259 15:0.092093944 16:0.010481956 17:0.026122996 18:0.00023736846 
-0 0.5313843162780498 1:0.062125 2:0.044054418 3:0.17007967 4:-0.58457491 5:-0.77497575 6:-332.9852 7:0.0031606796 8:5.0696818 9:8.5365889e-05 10:0.045790337 11:0.093270961 12:0.11296561 13:0.0013920303 14:0.037208259 15:0.00065081225 16:0.0090421123 17:0.032221324 18:1.179613e-05 
-0.1393722217435111 0 1:0.2386875 2:0.70559267 3:0.23187617 4:-0.55916819 5:-0.86352623 6:-332.67007 7:0.00077794118 8:5.0698261 9:0.00018059735 10:0.053137697 11:0.091140814 12:0.11327052 13:1.39631e-05 14:0.038654821 15:5.4818485e-05 16:0.0089299737 17:0.032336005 18:3.8973592e-08 
-0.2488897758165442 0.0792331441283545 1:0.2715 2:0.60632602 3:0.40704751 4:-0.43779297 5:-1.5719301 6:-332.79636 7:4.8318345e-05 8:5.0702007 9:-7.0703729e-07 10:0.054322336 11:0.090647474 12:0.11350701 13:0.00071476425 14:0.038309184 15:8.6381273e-05 16:0.0087832091 17:0.032414772 18:3.8348878e-05 
-0 3.927698163161672 1:0.0980625 2:0.25559274 3:0.26479586 4:-0.57660541 5:-0.86634631 6:-332.90643 7:0.0011835236 8:5.0698409 9:0.00011002664 10:0.050736404 11:0.092436096 12:0.11284606 13:0.00047653023 14:0.037757516 15:0.00075777229 16:0.0089965414 17:0.032209767 18:1.2173754e-05 
-0.09419989108239907 0.09248292576690974 1:-0.0050625 2:0.096784927 3:0.74129631 4:-0.51252477 5:-0.81332882 6:-332.99483 7:0.18493155 8:4.9394017 9:0.092511004 10:-0.067956503 11:0.25856865 12:-0.03862912 13:0.0059367938 14:0.011465361 15:0.050984727 16:0.0094928645 17:0.029840377 18:6.9472458e-05 
-0 16 1:0.25275 2:0.55405186 3:0.21140183 4:-0.56182484 5:-0.88157473 6:-332.6197 7:0.00066633259 8:5.0699749 9:7.7135738e-05 10:0.052927544 11:0.09117376 12:0.11332119 13:3.8580298e-05 14:0.038613418 15:7.5910668e-05 16:0.0089316072 17:0.032333109 18:1.7376213e-07 
-0 3.680425743779185 1:0.00275 2:0.036186682 3:0.67821773 4:-0.54846275 5:-0.81840496 6:-332.99244 7:0.0090848189 8:5.0682142 9:0.00043479281 10:0.042819879 11:0.095353755 12:0.11220926 13:0.00092553988 14:0.03738443 15:0.00076103444 16:0.0089768368 17:0.032272798 18:3.1317384e-06 
-0.0006349736033632634 0.4757637235473645 1:0.5949375 2:0.88396269 3:0.28068559 4:-0.50056854 5:-1.568546 6:-332.72516 7:0.00010500253 8:5.0701944 9:-2.3379795e-08 10:0.055217137 11:0.090458186 12:0.11353267 13:0.0017245335 14:0.037615177 15:0.00027755869 16:0.0084671884 17:0.032618333 18:0.00015900509 
-0 2.976113326293579 1:0.384 2:0.634538 3:0.20583527 4:-0.55278362 5:-0.88834292 6:-332.51463 7:0.00025327072 8:5.0701143 9:3.0077858e-05 10:0.053832495 11:0.090574537 12:0.11358164 13:2.5509851e-05 14:0.03864186 15:5.0654647e-05 16:0.0089273614 17:0.032342135 18:1.9359757e-07 
-0 2.30667071399931 1:0.334 2:0.634538 3:0.20768628 4:-0.55587748 5:-0.8697304 6:-332.61393 7:0.00091244229 8:5.0698264 9:0.00015403071 10:0.055015758 11:0.089589234 12:0.11411566 13:0.00017546109 14:0.038233094 15:0.00050303314 16:0.0089064009 17:0.032396649 18:3.8449237e-06 
-4.798280044629858 0 1:0.0261875 2:0.073325086 3:0.52492289 4:-0.38772447 5:-1.1872713 6:-332.98236 7:0.0034369196 8:5.0695978 9:0.00010599576 10:0.063986422 11:0.087179876 12:0.11430537 13:0.0023347142 14:0.036031125 15:0.0012434313 16:0.0086795755 17:0.032613581 18:3.4393733e-05 
-0 2.299391969844383 1:0.4074375 2:0.74622545 3:0.19471888 4:-0.55259588 5:-0.89567513 6:-332.42324 7:0.0003304341 8:5.0700694 9:5.2688113e-05 10:0.053223056 11:0.091011104 12:0.11337527 13:1.9459388e-05 14:0.038648429 15:5.180409e-05 16:0.008930657 17:0.032334663 18:1.1747178e-07 
-0 12.88464395338931 1:0.0230625 2:0.02100248 3:0.1799825 4:-0.56803079 5:-1.3852408 6:-332.99467 7:0.00070206733 8:5.0701549 9:2.5005691e-06 10:0.061757839 11:0.089629952 12:0.11359807 13:0.006926602 14:0.035490113 15:0.00060640243 16:0.0077999123 17:0.032843324 18:0.00023643821 
-0 6.151910666047727 1:0.0386875 2:0.046337299 3:0.30796575 4:-0.56150084 5:-1.0823644 6:-332.99136 7:0.0098905075 8:5.0682527 9:0.00038403581 10:0.11584595 11:0.066781297 12:0.11955819 13:0.028839082 14:0.0018196172 15:0.01924748 16:0.0017816693 17:0.041168547 18:0.0022768374 
-0 16 1:0.309 2:0.36181915 3:0.19187181 4:-0.56138897 5:-0.89793119 6:-332.70071 7:0.00057527246 8:5.0700377 9:4.6797209e-05 10:0.052462945 11:0.091368917 12:0.11327736 13:0.0001403629 14:0.03843904 15:0.00019518592 16:0.0089436338 17:0.032312434 18:1.8737368e-06 
-0.10662938337996 0 1:0.39025 2:0.75361479 3:0.35559462 4:-0.50805003 5:-1.5674179 6:-332.74907 7:2.8282301e-05 8:5.0702021 9:-7.9660167e-07 10:0.054090963 11:0.090678167 12:0.11350455 13:0.00051936563 14:0.038393464 15:7.2941751e-05 16:0.0088120826 17:0.032404401 18:3.3979228e-05 
-0.06659626439217588 0 1:0.509 2:0.83804185 3:0.33800513 4:-0.46351389 5:-1.570238 6:-332.76066 7:6.1424678e-05 8:5.0701989 9:-4.8752228e-07 10:0.05450075 11:0.090600759 12:0.11351412 13:0.00089169066 14:0.038159783 15:0.00013265229 16:0.0087232175 17:0.032458175 18:6.1164264e-05 
-0.2664515413727814 0 1:0.599625 2:0.89307344 3:0.29413945 4:-0.46305811 5:-1.570238 6:-332.70606 7:1.5518534e-05 8:5.0702032 9:-8.9105576e-07 10:0.053932228 11:0.090704867 12:0.11350161 13:0.00037429864 14:0.038474465 15:5.4547875e-05 16:0.0088430381 17:0.032387769 18:2.553771e-05 
-0 0.01216070574939688 1:0.32775 2:0.67624409 3:0.36553306 4:-0.47837781 5:-1.569674 6:-332.77561 7:2.3952474e-05 8:5.0702027 9:-8.6114457e-07 10:0.054031855 11:0.090692593 12:0.11350243 13:0.00046051956 14:0.03844004 15:5.9033117e-05 16:0.0088309626 17:0.032391213 18:2.6972693e-05 
-0.2081541779704533 0 1:0.40275 2:0.84942033 3:0.20529936 4:-0.54846744 5:-0.891163 6:-332.38607 7:0.00015672068 8:5.0701272 9:3.4813051e-05 10:0.053312128 11:0.09096833 12:0.11338184 13:1.9421798e-05 14:0.038640778 15:6.9116452e-05 16:0.0089314986 17:0.032331748 18:3.1299588e-07 
-0 0.8149140063861851 1:0.174625 2:0.10518618 3:0.12546174 4:-0.55652935 5:-1.4156977 6:-332.98826 7:0.002756011 8:5.0696528 9:0.00010926019 10:0.10807731 11:0.069519018 12:0.11893111 13:0.078869161 14:-0.063376486 15:0.053918372 16:-0.052815244 17:0.10954364 18:0.062061834 
-0 3.832856973969089 1:0.0074375 2:0.027584298 3:0.73190658 4:-0.51218526 5:-0.80599662 6:-332.99519 7:0.013373429 8:5.0665053 9:0.0010217412 10:0.053526294 11:0.090777907 12:0.11349298 13:0 14:0.038698128 15:0 16:0.0089293227 17:0.032337956 18:0 
-0.03934666668747422 0.2044868000258404 1:0.362125 2:0.73449741 3:0.33122958 4:-0.50685817 5:-1.567982 6:-332.75265 7:2.9556943e-05 8:5.070202 9:-7.8463859e-07 10:0.054148313 11:0.090667815 12:0.11350577 13:0.00061290449 14:0.038337867 15:8.6426833e-05 16:0.0087808036 17:0.032422298 18:4.6206817e-05 
-0 11.2841788385644 1:-0.0113125 2:0.027584298 3:0.806326 4:-0.50053147 5:-0.8054326 6:-332.99581 7:0.0096641843 8:5.0673354 9:0.00085014883 10:0.045999863 11:0.095136423 12:0.11183622 13:0.00043001579 14:0.037871125 15:0.00064913896 16:0.0089490914 17:0.032301224 18:1.1668293e-06 
-0 3.643013874448097 1:0.299625 2:0.46971307 3:0.22285016 4:-0.55568528 5:-0.88777891 6:-332.63813 7:0.00055772069 8:5.0700192 9:5.9667475e-05 10:0.053317857 11:0.090910356 12:0.11343774 13:5.5721788e-06 14:0.038686368 15:1.0128491e-05 16:0.0089294546 17:0.032337687 18:4.0182596e-09 
-0 5.096314665296801 1:0.087125 2:0.17379365 3:0.30933332 4:-0.57308139 5:-0.83645347 6:-332.9682 7:0.014464155 8:5.064474 9:0.0022679038 10:-0.0021058373 11:0.13378272 12:0.091671737 13:0.015709114 14:-0.0016308654 15:0.042256314 16:0.013694656 17:0.020518415 18:0.0018562855 
-0 2.870418912569535 1:0.3793125 2:0.4727934 3:0.20193692 4:-0.55642105 5:-0.88721489 6:-332.65148 7:0.00022282513 8:5.0701351 9:1.9930575e-05 10:0.053271061 11:0.090925786 12:0.11343674 13:1.9975883e-05 14:0.038659691 15:3.0185668e-05 16:0.0089305813 17:0.032335616 18:1.0181635e-07 
-0.03564597033452667 0 1:0.312125 2:0.35980296 3:0.20321664 4:-0.55699288 5:-0.88608686 6:-332.65259 7:0.00013259378 8:5.0701682 9:8.4836149e-06 10:0.053340195 11:0.090870257 12:0.1134629 13:1.7032562e-05 14:0.038670057 15:1.8881109e-05 16:0.0089303976 17:0.032336244 18:8.7092309e-08 
-12.33049484805894 0 1:0.0293125 2:0.055499164 3:0.59491385 4:-0.4081277 5:-1.178247 6:-332.98544 7:0.00090907164 8:5.0700543 9:2.3765021e-05 10:0.057015057 11:0.089659961 12:0.11372813 13:0.00096605762 14:0.037670052 15:0.00044653479 16:0.0088102168 17:0.032460416 18:1.885374e-05 
-0 16 1:0.243375 2:0.32914699 3:0.20871646 4:-0.5705971 5:-0.89229103 6:-332.78376 7:0.00016120684 8:5.0701524 9:1.5087697e-05 10:0.052722611 11:0.091252106 12:0.11330932 13:0.0002666087 14:0.038175703 15:0.00041781243 16:0.0090018314 17:0.032200685 18:2.5318629e-05 
-0.1316528735924545 16 1:0.4230625 2:0.87005724 3:0.19904155 4:-0.53907925 5:-0.89229103 6:-332.26806 7:0.00038447868 8:5.0700461 9:6.2723924e-05 10:0.052973662 11:0.091208507 12:0.11327275 13:5.5926271e-05 14:0.038553408 15:0.00015284342 16:0.0089354502 17:0.032322637 18:8.6195598e-07 
-0 16 1:0.034 2:0.01953159 3:0.24778109 4:-0.58516276 5:-0.88439481 6:-332.99485 7:0.0097102273 8:5.067817 9:0.00058568527 10:0.10705416 11:0.065102453 12:0.121577 13:0.021647388 14:0.0042142203 15:0.022420017 16:0.0030946214 17:0.041317816 18:0.0020191384 
-0 3.019897500398845 1:0.024625 2:0.021088059 3:0.17602759 4:-0.58129982 5:-1.3880609 6:-332.99473 7:0.00068212793 8:5.0701564 9:2.3871658e-06 10:0.065616531 11:0.0890946 12:0.11364682 13:0.015368903 14:0.031591818 15:0.0013410774 16:0.0051498714 17:0.034026335 18:0.0011932981 
-0 16 1:0.074625 2:0.12287099 3:0.31772907 4:-0.58741411 5:-0.8516819 6:-332.95765 7:0.0032018653 8:5.0691605 9:0.00033853929 10:0.064662275 11:0.083713034 12:0.11643504 13:0.0028314164 14:0.032732552 15:0.0051299068 16:0.0082947166 17:0.033629749 18:0.00018261609 
-0 16 1:0.030875 2:0.039728565 3:0.23097188 4:-0.56826121 5:-1.3886249 6:-332.99379 7:0.0021797718 8:5.0699177 9:3.6731356e-05 10:0.069359904 11:0.086716544 12:0.11417679 13:0.0083875453 14:0.031553173 15:0.0024841198 16:0.0073457755 17:0.033641229 18:0.00038384992 
-0.05389297863633442 8.452338365363079 1:0.2074375 2:0.45070688 3:0.22647109 4:-0.5646241 5:-0.84040158 6:-332.76614 7:0.0005975914 8:5.0699671 9:9.1877894e-05 10:0.053672462 11:0.090666829 12:0.11354839 13:2.555432e-06 14:0.038691678 15:6.6430174e-06 16:0.0089292755 17:0.032338071 18:1.118063e-09 
-0 15.61691464998584 1:0.02775 2:0.055499164 3:0.51279998 4:-0.42309414 5:-1.175991 6:-332.98734 7:0.0057170747 8:5.0691803 9:0.00018239922 10:0.045580141 11:0.093554498 12:0.11285613 13:0.00082037303 14:0.037746085 15:0.00045093095 16:0.0089709191 17:0.032291316 18:2.7334486e-06 
-0 8.523485509264352 1:0.06525 2:0.10555963 3:0.33032653 4:-0.57427126 5:-0.84265764 6:-332.96371 7:0.0024960946 8:5.0695384 9:0.00017628623 10:0.044267009 11:0.0955829 12:0.11185624 13:0.0025072743 14:0.034377071 15:0.0030393913 16:0.0094188658 17:0.03152284 18:0.00012271976 
-0 16 1:0.112125 2:0.14787744 3:0.24999422 4:-0.57734368 5:-0.84265764 6:-332.93746 7:0.0027958468 8:5.0695563 9:0.00014899906 10:0.039583782 11:0.097069076 12:0.11162964 13:0.0050799061 14:0.03108575 15:0.0046557913 16:0.010089917 17:0.030657657 18:0.00034049452 
-0.07002545411057337 0 1:0.3324375 2:0.63132745 3:0.21831182 4:-0.55364398 5:-0.86014213 6:-332.60261 7:0.00073026253 8:5.069901 9:0.00012350139 10:0.053710053 11:0.09063132 12:0.11356974 13:3.3332284e-06 14:0.038689297 15:9.5475908e-06 16:0.0089292554 17:0.032338128 18:1.747732e-09 
-0 1.279612138328484 1:0.1949375 2:0.23172447 3:0.16042667 4:-0.56387622 5:-0.91541568 6:-332.9586 7:0.0011272129 8:5.0699637 9:5.0233858e-05 10:0.037809059 11:0.097283691 12:0.11172534 13:0.015869036 14:0.016883509 15:0.012239206 16:0.018144731 17:0.020098772 18:0.0068711544 
-0 0.1649572477396712 1:0.2355625 2:0.34352702 3:0.16077927 4:-0.53895159 5:-1.5104523 6:-332.93603 7:0.0001504399 8:5.0701874 9:9.5650995e-07 10:0.056680628 11:0.090084076 12:0.11359316 13:0.0043713159 14:0.035504894 15:0.00095204521 16:0.0070778739 17:0.033644638 18:0.0010068054 
-0 2.614821878141553 1:0.018375 2:0.037621731 3:0.18004327 4:-0.56383408 5:-0.9233119 6:-332.99685 7:0.016198035 8:5.066914 9:0.00066728863 10:-0.079534974 11:0.1435375 12:0.099761347 13:0.080370004 14:-0.067135095 15:0.056879871 16:0.035715865 17:-0.0017413044 18:0.011480111 
-0.0915125433736427 0 1:-0.00975 2:0.15949073 3:0.63893161 4:-0.49285515 5:-0.90413536 6:-332.99098 7:0.04495216 8:5.0457453 9:0.013304418 10:0.057897353 11:0.086135737 12:0.11672912 13:4.6409275e-05 14:0.038534441 15:0.0002356284 16:0.0089285956 17:0.032340434 18:1.4626584e-08 
-0 9.565997324709471 1:0.018375 2:0.037621731 3:0.15292506 4:-0.56284285 5:-0.92274788 6:-332.99621 7:0.0054728364 8:5.0691892 9:0.00018725023 10:0.010430886 11:0.10636919 12:0.10979041 13:0.024862394 14:0.0088259764 15:0.014648682 16:0.016139651 17:0.023968088 18:0.0026847354 
-0.196785751998803 0.1089587330032389 1:0.0074375 2:0.06197409 3:0.23946794 4:-0.55072973 5:-1.2589013 6:-332.99774 7:0.13271072 8:5.0128287 9:0.024803052 10:0.46395532 11:-0.25569683 12:0.30548193 13:0.093596078 14:-0.22369373 15:0.30022834 16:-0.016190943 17:0.10037473 18:0.0086847302 
-0.255576643515796 0 1:0.0043125 2:0.063110616 3:0.44750959 4:-0.48533199 5:-0.95771686 6:-332.99312 7:0.0054620875 8:5.0691289 9:0.00021067042 10:0.033477307 11:0.098476475 12:0.11155255 13:0.0053915918 14:0.031822579 15:0.0035785427 16:0.0097029085 17:0.031384855 18:0.00014250641 
-1.013500484494153 0.1442344320767959 1:0.0074375 2:0.05338118 3:0.2438769 4:-0.55242076 5:-1.2594653 6:-332.99828 7:0.12800648 8:5.0067458 9:0.031456078 10:0.37878284 11:-0.22407446 12:0.31355236 13:0.060728185 14:-0.15653073 15:0.256157 16:-0.0063212054 17:0.079705251 18:0.0049171538 
-0.4260529100361748 0 1:0.009 2:0.070600299 3:0.23233338 4:-0.54553416 5:-1.2594653 6:-332.9965 7:0.073971728 8:5.0402498 9:0.012127632 10:0.25085148 11:-0.065235039 12:0.19446033 13:0.038806577 14:-0.063194565 15:0.10919163 16:0.00051790055 17:0.053675008 18:0.0023482097 
-0 16 1:0.09025 2:0.14781927 3:0.21289665 4:-0.56813771 5:-0.88777891 6:-332.97812 7:0.0033702015 8:5.0693687 9:0.00020589852 10:0.024890331 11:0.10460469 12:0.10911069 13:0.017794688 14:0.010163387 15:0.018675233 16:0.016349088 17:0.020842789 18:0.0039727109 
-0 0.2815082638501652 1:0.1168125 2:0.1598446 3:0.2054941 4:-0.5685411 5:-0.88777891 6:-332.97621 7:0.0028814497 8:5.0693963 9:0.00022517067 10:0.025221531 11:0.10622449 12:0.10795978 13:0.02031591 14:0.0018781941 15:0.027235683 16:0.019987118 17:0.012975681 18:0.0077280243 
-0 12.44685787094564 1:0.17775 2:0.23477582 3:0.15908745 4:-0.56821992 5:-0.91936379 6:-332.95443 7:0.0011156105 8:5.0699798 9:4.4078049e-05 10:0.0393826 11:0.096298675 12:0.11207847 13:0.01298239 14:0.02186887 15:0.0089039731 16:0.015392607 17:0.024243186 18:0.0041314929 
-9.182121116749078 0 1:-0.0113125 2:0.045894378 3:0.7812788 4:-0.48285669 5:-0.90751946 6:-332.99392 7:0.0051542856 8:5.0690655 9:0.00025046303 10:0.049038697 11:0.092711062 12:0.11294636 13:0.00028620044 14:0.038288682 15:0.00023907281 16:0.0089402479 17:0.032322855 18:5.3545399e-07 
-0.1687490147958132 0 1:0.0824375 2:0.42452607 3:0.16532086 4:-0.5757145 5:-1.1816311 6:-332.97323 7:0.0080986719 8:5.0658029 9:0.002388028 10:0.045341543 11:0.099450289 12:0.10746124 13:0.00060662812 14:0.03656347 15:0.0030657912 16:0.0089955172 17:0.032112912 18:9.2737589e-06 
-0.2550894564541659 0.114469982675042 1:0.1136875 2:0.068628528 3:0.17481066 4:-0.56446495 5:-0.77835984 6:-332.99135 7:0.0026396903 8:5.0698139 9:5.6757903e-05 10:-0.036715183 11:0.11680005 12:0.10856747 13:0.22529498 14:-0.17705747 15:0.084329815 16:0.23430687 17:-0.17618896 18:0.28948871 
-0 1.184008577656146 1:0.3105625 2:0.12211457 3:0.10593639 4:-0.58087578 5:-0.85111788 6:-332.94769 7:0.00030310493 8:5.0701524 9:7.8632355e-06 10:0.053650556 11:0.090737142 12:0.11350176 13:3.5467807e-06 14:0.038694263 15:1.7182551e-06 16:0.0089292765 17:0.032338004 18:7.7083246e-10 
-0 3.410751168478143 1:0.0855625 2:0.02926562 3:0.10497968 4:-0.58292191 5:-1.104361 6:-332.99187 7:0.0016886136 8:5.0700294 9:1.7153358e-05 10:0.0038377959 11:0.10083461 12:0.11215692 13:0.10640874 14:-0.032825933 15:0.019621654 16:0.073025082 17:-0.0092863028 18:0.049578913 
-0 7.439518588111999 1:0.1199375 2:0.057068128 3:0.11828511 4:-0.58874103 5:-0.82855725 6:-332.98337 7:0.00088111546 8:5.0700696 9:1.9603308e-05 10:0.039862945 11:0.094835833 12:0.1127019 13:0.015278801 14:0.023628274 15:0.0060664879 16:0.015979788 17:0.025619375 18:0.0041771551 
-0 2.610197343917714 1:0.2136875 2:0.049814585 3:0.12615512 4:-0.58340152 5:-0.85280993 6:-332.97625 7:0.00086604172 8:5.0700965 9:1.2473673e-05 10:0.045449883 11:0.092738257 12:0.11318065 13:0.0054319462 14:0.034319419 15:0.0014406059 16:0.010162012 17:0.031377921 18:0.00035932097 
-0 7.696365293871265 1:0.1449375 2:0.027401776 3:0.14508358 4:-0.58781212 5:-0.85337394 6:-332.98542 7:0.0011316109 8:5.0700855 9:1.1520658e-05 10:0.036351129 11:0.094303092 12:0.11301805 13:0.018883336 14:0.025826457 15:0.0035809613 16:0.014852469 17:0.028437179 18:0.002386309 
-0.04487995268686108 0 1:0.06525 2:0.066358626 3:0.14364615 4:-0.58303051 5:-0.93290017 6:-332.99582 7:0.0094456564 8:5.0685244 9:0.00029774026 10:-0.10927588 11:0.14728363 12:0.10061951 13:0.20591672 14:-0.19865732 15:0.11166456 16:0.13457835 17:-0.10759156 18:0.098472571 
-0.2417524361240131 0 1:0.35275 2:0.085692306 3:0.099566866 4:-0.57397136 5:-0.85506599 6:-332.96727 7:0.0011562961 8:5.0699997 9:3.5192244e-05 10:0.05063164 11:0.09177307 12:0.11326841 13:0.00052606098 14:0.03809749 15:0.00027989611 16:0.008975093 17:0.032287466 18:5.1240174e-06 
-0.1640372502953792 0 1:0.6480625 2:0.67624409 3:0.22040135 4:-0.48157943 5:-1.4444625 6:-332.69419 7:0.00018169125 8:5.0701826 9:1.6482503e-06 10:0.056283637 11:0.090136838 12:0.11359082 13:0.0028145003 14:0.036524995 15:0.00068482566 16:0.00800125 17:0.033030274 18:0.00039291996 
-0.1728314984472396 0 1:0.0386875 2:0.057068128 3:0.16926469 4:-0.57674893 5:-1.0276548 6:-332.99724 7:0.020004788 8:5.0663493 9:0.00074183655 10:-0.19048095 11:0.18257267 12:0.09082545 13:0.21873565 14:-0.23458464 15:0.13935209 16:0.11151672 17:-0.09149362 18:0.061829055 
-0.2672534235028898 0.1710881313058915 1:0.1011875 2:0.027962694 3:0.14247336 4:-0.5870856 5:-0.85788607 6:-332.99293 7:0.0011606514 8:5.0701178 9:5.4768003e-06 10:-0.012583892 11:0.10047459 12:0.11255941 13:0.27280573 14:-0.094188823 15:0.026419204 16:0.23838066 17:-0.075646381 18:0.24780485 
-0 2.900994057520172 1:0.0386875 2:0.044559268 3:0.18318058 4:-0.57056116 5:-1.0282188 6:-332.99677 7:0.0067080394 8:5.0690086 9:0.00021211566 10:-0.02577062 11:0.11835546 12:0.10719754 13:0.068715654 14:-0.040666679 15:0.037411812 16:0.03770357 17:0.00022973427 18:0.015469867 
-0.1717130968298015 0 1:0.19025 2:0.081706547 3:0.10078712 4:-0.58956687 5:-0.79866441 6:-332.98287 7:0.0022413802 8:5.0698485 9:5.5501099e-05 10:-0.0037649707 11:0.10850086 12:0.10989421 13:0.10682158 14:-0.071045729 15:0.046016116 16:0.094544045 17:-0.052640821 18:0.088103679 
-0 10.33089130559157 1:0.034 2:0.042920715 3:0.18830411 4:-0.58713942 5:-0.93684828 6:-332.99502 7:0.0037058453 8:5.0696108 9:9.4063464e-05 10:0.021536477 11:0.10076948 12:0.11144452 13:0.020202032 14:0.017743009 15:0.0088714312 16:0.014466011 17:0.026789334 18:0.0019482261 
-0 16 1:0.034 2:0.056370868 3:0.22221865 4:-0.57854277 5:-0.9374123 6:-332.99539 7:0.0041669882 8:5.0695108 9:0.00011441619 10:0.020339352 11:0.10154976 12:0.11119797 13:0.019345878 14:0.017844357 15:0.0091746449 16:0.014015394 17:0.027041095 18:0.0017167645 
-0 0.3802302406920821 1:0.6386875 2:0.74407373 3:0.25119149 4:-0.50700279 5:-1.4455905 6:-332.71921 7:4.4034158e-05 8:5.0701984 9:-1.7897688e-07 10:0.054273512 11:0.09059212 12:0.1135233 13:0.00067410263 14:0.038141497 15:0.00018759275 16:0.0087192248 17:0.032505567 18:8.4072078e-05 
-0.07755258904508294 0.02249483377586307 1:0.359 2:0.5378928 3:0.3125194 4:-0.53264071 5:-1.1793751 6:-332.66489 7:0.00016365358 8:5.0701703 9:5.975022e-06 10:0.051812948 11:0.091443421 12:0.1133233 13:0.0011952858 14:0.037156223 15:0.00081180492 16:0.0093793774 17:0.031777048 18:0.00021756962 
