svm_type c_svc
kernel_type rbf
gamma 128
nr_class 3
total_sv 1186
rho 0.466666 -0.0784439 -0.76186
label 1 3 2
nr_sv 227 740 219
SV
0.4238648271433689 0 1:0.0105625 2:0.031510781 3:0.78000979 4:-0.26324072 5:-1.1697868 
0.7465068063245812 0.4689967927661867 1:-0.00975 2:0.031510781 3:0.82003913 4:0.38250559 5:-1.1697868 
0.7531966390908723 0.4732008207987881 1:-0.00975 2:0.031510781 3:0.82739493 4:0.39998787 5:-1.1697868 
0 0.0001537765295845844 1:0.009 2:0.031510781 3:0.79881549 4:-0.39393933 5:-1.1692228 
0.1582583474024616 0.0631428601172549 1:-0.0113125 2:0.031510781 3:0.79862824 4:-0.092585597 5:-1.1692228 
1.955525172725353 0 1:0.0105625 2:0.031510781 3:0.82941435 4:-0.35734627 5:-1.1692228 
1.177570102262034 0.7400878601604699 1:-0.0113125 2:0.031510781 3:0.98007816 4:-0.025330934 5:-1.1692228 
0.06679586473503825 0.0417245829196491 1:0.0105625 2:0.090247906 3:0.88007539 4:-0.048579192 5:-1.1692228 
0.3400550905935011 0.2146992717230413 1:-0.0113125 2:0.041384711 3:0.90896576 4:-0.016103595 5:-1.1697868 
0.4361382142610059 0.1296235778852379 1:-0.0113125 2:0.036111499 3:0.74827211 4:-0.28372735 5:-1.2087039 
0 0.09437860119785385 1:-0.0113125 2:0.036111499 3:0.82385418 4:-0.29258812 5:-1.2098319 
3.206250486351477 2.122838081055999 1:0.0386875 2:0.036111499 3:0.41955853 4:-0.5830024 5:-1.2284444 
0 0.04722157673086277 1:-0.0113125 2:0.036127294 3:0.87639515 4:-0.23383393 5:-1.212088 
0.2166253410603992 0.1369578025847392 1:0.018375 2:0.036145085 3:0.79403301 4:-0.03148443 5:-1.213216 
0.4087105599730012 0.2612809604593756 1:0.018375 2:0.036145085 3:0.81922857 4:-0.0037017185 5:-1.21378 
0.397714166397976 0.4158580698616122 1:0.018375 2:0.036145085 3:0.70237314 4:-0.15890187 5:-1.214344 
0 0.3284721181645503 1:0.018375 2:0.044760548 3:0.62593085 4:-0.26700448 5:-1.2154721 
0.8008637245964235 0.1112053400787697 1:0.018375 2:0.044760548 3:0.65084918 4:-0.26809434 5:-1.2160361 
0.2710129302659367 0.2133571287633165 1:0.018375 2:0.036164878 3:0.79384653 4:-0.22033717 5:-1.2171641 
0 0.3564861638803017 1:0.018375 2:0.036164878 3:0.66150714 4:-0.34682615 5:-1.2177281 
2.919047685759946 0 1:0.018375 2:0.04478551 3:0.62320174 4:-0.36569575 5:-1.2182922 
3.521042275796589 0.07599197678808249 1:0.0168125 2:0.04478551 3:0.60504531 4:-0.45673452 5:-1.2188562 
1.285464052694373 0 1:0.018375 2:0.04478551 3:0.55750038 4:-0.3420832 5:-1.2199842 
0.3475858304935746 0 1:0.018375 2:0.044812891 3:0.7183627 4:-0.21761167 5:-1.2205482 
0.4919462225500004 0.1282060756351841 1:0.0168125 2:0.036210506 3:0.69455874 4:-0.3834582 5:-1.2211122 
0.3017045871777915 0 1:0.018375 2:0.044842702 3:0.63997914 4:-0.3494916 5:-1.2228043 
7.579152040477775 1.312522113402789 1:0.0168125 2:0.044909667 3:0.57508095 4:-0.45620886 5:-1.2250603 
1.713467866988617 0.00258375487405932 1:0.018375 2:0.036294203 3:0.70004471 4:-0.25377615 5:-1.2261884 
0 0.4299433106025783 1:-0.0113125 2:0.062391413 3:0.69700153 4:-0.20569464 5:-1.318123 
0.587363107250948 0 1:-0.0113125 2:0.062454426 3:0.69792658 4:-0.20415514 5:-1.320379 
0.3680210938424028 0.2576322545228624 1:-0.0113125 2:0.062454426 3:0.87447477 4:-0.25445304 5:-1.3215071 
0.03597165466342343 0.2072666422548182 1:-0.0035 2:0.036562499 3:0.8056313 4:-0.32801367 5:-1.3226351 
0.2354655577743135 0.1084740284772909 1:-0.0113125 2:0.036562499 3:0.88379563 4:-0.26060059 5:-1.3237631 
0 0.08783584483980032 1:-0.0113125 2:0.036609406 3:0.77470966 4:-0.31223598 5:-1.3243271 
0 0.150926748560651 1:-0.0113125 2:0.053938088 3:0.72268522 4:-0.27226329 5:-1.3260192 
0.8047221401910643 0.4932776969170382 1:-0.00975 2:0.062664088 3:0.75149297 4:-0.07615844 5:-1.3282752 
0.2356978856190483 0 1:-0.0113125 2:0.062664088 3:0.79116972 4:-0.29060665 5:-1.3294033 
1.107501370944185 0.715399946348134 1:-0.0113125 2:0.062275531 3:0.455469 4:-0.11055613 5:-1.3423756 
0.6741839742790058 0.4484187126270917 1:-0.0113125 2:0.062331789 3:0.55935904 4:-0.096025471 5:-1.3418116 
0.3517970233015542 0.1478330053482034 1:-0.0113125 2:0.062331789 3:0.51548988 4:-0.12973357 5:-1.3412476 
1.248695038626269 0.7814235802693626 1:-0.0113125 2:0.062331789 3:0.60147092 4:0.0036453881 5:-1.3412476 
0 0.1913987522004955 1:-0.0113125 2:0.036562499 3:0.81714921 4:-0.35043594 5:-1.0744681 
0.3322187477885375 0.1890769353649566 1:-0.0113125 2:0.036562499 3:0.76773479 4:-0.33867559 5:-1.0727761 
1.856672737833409 0.8661004049101512 1:0.0074375 2:0.071489738 3:0.55510134 4:-0.53248577 5:-1.0744681 
0.329842004984701 0.1867790282177551 1:0.0074375 2:0.071489738 3:0.57156412 4:-0.53481956 5:-1.0733401 
0 0.05063727259548179 1:-0.0113125 2:0.027857473 3:0.87834991 4:-0.2844851 5:-1.0654439 
0.6545949863312147 0.3812227279758133 1:-0.0113125 2:0.027857473 3:0.9476549 4:-0.2864891 5:-1.0643158 
0 0.1659418818187262 1:-0.0113125 2:0.027857473 3:0.85138331 4:-0.30069779 5:-1.0620598 
0.5189690025720286 0.4106286954841479 1:-0.0113125 2:0.038145697 3:0.982284 4:-0.34198863 5:-0.98591765 
0 0.1060503669052306 1:-0.0113125 2:0.029351115 3:0.74755401 4:-0.3255647 5:-0.97802143 
0.1756547585854573 0 1:-0.0113125 2:0.029439078 3:0.83984263 4:-0.27164408 5:-0.97407332 
0.2198423597839975 0.08787221151130097 1:-0.0113125 2:0.029439078 3:0.76889591 4:-0.30923527 5:-0.97238127 
0.9702625754593134 0.6211810732323608 1:-0.00975 2:0.10236746 3:0.81389437 4:-0.23211895 5:-0.97125324 
0.9440434720464823 0.5759048556080497 1:-0.0113125 2:0.029351115 3:0.98704269 4:-0.22233834 5:-0.9695612 
0.1633736564934249 0.103788476781884 1:-0.0113125 2:0.029351115 3:0.94287664 4:-0.20786969 5:-0.96730513 
0.1097526406153523 0.1152041655035721 1:-0.00975 2:0.029351115 3:0.84531983 4:-0.2293894 5:-0.9661771 
0.9397156529377442 0 1:-0.0113125 2:0.027894118 3:0.68545823 4:-0.31193051 5:-0.92105584 
0.1741628043323563 0.3784094313628926 1:-0.0113125 2:0.027894118 3:0.67595854 4:-0.29243355 5:-0.92049182 
0 0.1184263362639919 1:-0.0113125 2:0.036562499 3:0.67629165 4:-0.28047829 5:-0.91992781 
0.160007455868285 0.1004843270302584 1:-0.00975 2:0.036562499 3:0.82029691 4:-0.10207968 5:-0.91146757 
0.4082342615199734 0.2602663274444809 1:-0.00975 2:0.036517774 3:0.84197437 4:-0.062824717 5:-0.90808347 
0.5237078415346879 0.3034595496511641 1:-0.0113125 2:0.036127294 3:0.92209354 4:-0.18794159 5:-0.86634631 
0.2772297219283451 0.1263134156366792 1:-0.0113125 2:0.027520953 3:0.67090641 4:-0.22623376 5:-0.86409024 
0.1353737712200315 0.08490775838590223 1:-0.00975 2:0.027520953 3:0.8548829 4:0.063500868 5:-0.86409024 
1.136136878155555 0.6624795748048605 1:-0.00975 2:0.027509115 3:0.68556788 4:-0.15718563 5:-0.86183418 
0.9974846772047787 0.6254440424175799 1:-0.0081875 2:0.036097692 3:0.78963502 4:0.043136587 5:-0.86070615 
0.1080129276404485 0.04660302090832379 1:-0.0081875 2:0.027498865 3:0.81298708 4:-0.11489945 5:-0.85957812 
0.2005554057142646 0.1610341494021565 1:-0.00975 2:0.036085869 3:0.77494662 4:-0.1658192 5:-0.85845008 
0.07283839244978701 0.08500432007560177 1:-0.0113125 2:0.027483113 3:0.89892366 4:-0.18327231 5:-0.85563001 
0.8510313189330637 0.4631730492216074 1:-0.0113125 2:0.027483113 3:0.83861756 4:-0.24504746 5:-0.85450197 
0.9792311268070715 0.4072793195481845 1:-0.0113125 2:0.027477605 3:0.724503 4:-0.27978711 5:-0.85224591 
1.15944329766012 0.728953671421168 1:-0.0113125 2:0.027477605 3:0.98044202 4:-0.10193306 5:-0.85224591 
0.7383832971564855 0.4636482372444646 1:-0.0113125 2:0.053245707 3:0.90205526 4:0.0083260993 5:-0.85055386 
1.29302766682924 0.8125222787871949 1:-0.0113125 2:0.053245707 3:0.92923318 4:0.12853999 5:-0.84998985 
0.5058742788128504 0.3235506239404971 1:-0.0113125 2:0.027473673 3:0.79445411 4:-0.050434188 5:-0.84942583 
1.466782465950582 0.9212956093919481 1:-0.00975 2:0.053245707 3:0.81415011 4:0.39414901 5:-0.84942583 
0.1281951678646777 0.08076914331884942 1:-0.0113125 2:0.027473673 3:0.86915281 4:-0.073628376 5:-0.84886182 
1.155369210862416 0.6924667927043663 1:-0.0113125 2:0.01888549 3:0.52428171 4:-0.16994055 5:-1.1274856 
0.4391230457505225 0.278564265593016 1:-0.0113125 2:0.027471314 3:0.57647769 4:-0.12718227 5:-1.1286136 
0.9869002504508918 0.6298227249099598 1:-0.0113125 2:0.027471314 3:0.62649941 4:-0.04431075 5:-1.1291777 
0.2694721573439265 0.1434265251037629 1:-0.0113125 2:0.027471314 3:0.67962481 4:-0.08212121 5:-1.1297417 
0.9829165411418981 0.6212968190098913 1:-0.0113125 2:0.027471314 3:0.74748661 4:0.023929925 5:-1.1314337 
0.8911722472905231 0.503034450305058 1:0.009 2:0.033560956 3:0.80060777 4:-0.37700345 5:-1.4501027 
0.4961888516966475 0.3124103462478984 1:0.009 2:0.033560956 3:0.92643633 4:-0.23246658 5:-1.4506667 
0.4177016101909934 0.2625556439726839 1:-0.0113125 2:0.043546703 3:0.91030586 4:-0.21054357 5:-1.4517947 
0.7766470852905718 0.5065116669984771 1:0.009 2:0.10253562 3:0.74009603 4:-0.22590941 5:-1.4523587 
1.141175120491768 0.7175956539253838 1:0.0105625 2:0.092352422 3:0.71804481 4:-0.078779818 5:-1.4529227 
0.6067306444050992 0.3819488953706674 1:-0.00975 2:0.03336351 3:0.85061131 4:-0.10158829 5:-1.4540508 
0.7653168777026136 0.4808025714022441 1:-0.00975 2:0.043303188 3:0.83582093 4:-0.039236178 5:-1.4546148 
0.4783057735467173 0.3301022820223902 1:-0.0113125 2:0.033171422 3:0.74383075 4:-0.22427174 5:-1.4546148 
0.3096242351441114 0 1:0.0105625 2:0.043066265 3:0.65135469 4:-0.41016049 5:-1.4557428 
0.2047986139664524 0 1:0.0105625 2:0.043066265 3:0.69478144 4:-0.39499371 5:-1.4563068 
0.07829932204446341 0.5992499853981905 1:0.0699375 2:0.056016371 3:0.32011454 4:-0.57687682 5:-1.4822516 
1.224386280977231 1.457196350499173 1:0.0761875 2:0.064925004 3:0.30609577 4:-0.54311295 5:-1.4839436 
0 1.647403269344357 1:0.0761875 2:0.05588116 3:0.32068248 4:-0.54687257 5:-1.4828156 
0.8004254875241652 3.199087557753608 1:0.074625 2:0.046972527 3:0.39464331 4:-0.56848885 5:-1.4811235 
0.5813752092764364 0.1317465140240606 1:0.018375 2:0.046972527 3:0.65121477 4:-0.28407165 5:-1.4596909 
0.01505365907795332 0 1:0.018375 2:0.046972527 3:0.63277524 4:-0.29651936 5:-1.4591269 
1.103181965877186 0.4380761395555001 1:-0.0113125 2:0.029622603 3:0.94322845 4:-0.36412843 5:-0.93008009 
4.718452715881 0.6839700846447271 1:-0.0019375 2:0.038573401 3:0.82719806 4:-0.44377503 5:-0.92782403 
0.4040369213770554 0.2506559147687076 1:-0.00975 2:0.029351115 3:0.83161703 4:-0.15092005 5:-0.92726001 
0 0.0648419049247753 1:-0.0113125 2:0.038353433 3:0.95787085 4:-0.30760883 5:-0.926696 
0 0.1100412786855931 1:-0.0113125 2:0.028947428 3:0.86220912 4:-0.35284413 5:-0.92443993 
0 0.1272697490988556 1:-0.0113125 2:0.03767703 3:0.83445351 4:-0.32298181 5:-0.9233119 
0.1626749450356128 0 1:-0.0113125 2:0.037508819 3:0.88521539 4:-0.32071349 5:-0.92218387 
0 0.04827628947376206 1:-0.0113125 2:0.037428666 3:0.87737879 4:-0.34658762 5:-0.92161985 
2.844544639556743 0.6904578608196938 1:0.0043125 2:0.037351094 3:0.67883637 4:-0.42916046 5:-0.92161985 
0.877982990905972 0.2045462972891345 1:0.00275 2:0.028476087 3:0.74838558 4:-0.4429373 5:-0.92105584 
0 0.006077420742366432 1:-0.0113125 2:0.053759217 3:0.84510438 4:-0.13003497 5:-1.2949983 
0.1402498479035588 0.0781918080261098 1:-0.0113125 2:0.05381583 3:0.85046385 4:-0.14100975 5:-1.2955623 
0.306736588336217 0.1925903668025014 1:-0.00975 2:0.027789379 3:0.80377265 4:0.028085024 5:-1.2972544 
0 0.05707661484540437 1:-0.0113125 2:0.027789379 3:0.7209374 4:-0.177225 5:-1.2972544 
0.186835258389383 0.1334255754281565 1:-0.0113125 2:0.027789379 3:0.79616097 4:-0.15590732 5:-1.2978184 
0.7273546406767096 0.4575337314120396 1:-0.0113125 2:0.053875445 3:0.90308504 4:-0.029548362 5:-1.2983824 
1.255648580880369 0.7895148031242261 1:-0.00975 2:0.053875445 3:0.83795601 4:0.17317563 5:-1.2989464 
0.3854801931465687 0.2411513312469382 1:-0.00975 2:0.03647521 3:0.82348862 4:0.091982752 5:-1.2995104 
0.324705425820087 0.1987971101870873 1:-0.0113125 2:0.03647521 3:0.85442497 4:-0.16691886 5:-1.3006385 
1.162490686424441 0.7195619269883105 1:-0.0113125 2:0.03643479 3:0.83271448 4:-0.27495818 5:-1.5392171 
0 6.018845006581373 1:0.01525 2:0.03643479 3:0.66339581 4:-0.45839964 5:-1.5397812 
0.3347295962015555 0.557488865735646 1:0.01525 2:0.045120621 3:0.69384452 4:-0.3499915 5:-1.5409092 
0.2282281191562671 0.02514597467248052 1:0.0136875 2:0.03647521 3:0.69941134 4:-0.43457401 5:-1.5426012 
0 0.885665698478414 1:0.01525 2:0.045120621 3:0.61084404 4:-0.37093666 5:-1.5454213 
0.552499264308647 0.2057977813408212 1:0.01525 2:0.045120621 3:0.54141972 4:-0.30263205 5:-1.5465494 
0 0.4960065082665325 1:0.0136875 2:0.045120621 3:0.66227976 4:-0.40669221 5:-1.5516255 
0 1.201690509216858 1:0.0136875 2:0.053759217 3:0.62870414 4:-0.4255772 5:-1.5544456 
0 0.04314825343926876 1:0.01525 2:0.053759217 3:0.55667031 4:-0.26644122 5:-1.5555736 
0.4432486726306091 3.977849657706205 1:0.0136875 2:0.053759217 3:0.54865604 4:-0.44900336 5:-1.5561376 
0.7187494215811689 0.4514692656897203 1:0.01525 2:0.045120621 3:0.61361898 4:-0.15068031 5:-1.5583937 
0 0.8425615520820882 1:0.0136875 2:0.05381583 3:0.64362071 4:-0.39599906 5:-1.5600857 
0.6955120033121833 0.4369138283096036 1:0.01525 2:0.05381583 3:0.56482256 4:-0.1583628 5:-1.5612138 
0.2928815310922914 0.1922194389008906 1:0.01525 2:0.05381583 3:0.60521222 4:-0.22706238 5:-1.5629058 
0.3070098980042535 0 1:0.0136875 2:0.0452228 3:0.67576322 4:-0.3589182 5:-1.570802 
0.2068759526690247 0 1:0.0793125 2:0.053938088 3:0.36215292 4:-0.54870583 5:-1.5956187 
0.4571978796348696 0.3338988307416773 1:0.012125 2:0.053938088 3:0.60481802 4:-0.4771389 5:-1.5741861 
0.2329225577647598 0.1886065733961481 1:0.080875 2:0.054003787 3:0.39763285 4:-0.5292249 5:-1.5995668 
0.7235815511723499 0.5154080322703655 1:0.062125 2:0.054072569 3:0.42128935 4:-0.54825059 5:-1.5973108 
0.3143833794896775 0.5517948299442038 1:0.0605625 2:0.054072569 3:0.36989496 4:-0.56086396 5:-1.5978748 
0.5979574061723248 0 1:0.012125 2:0.045395678 3:0.67287388 4:-0.45465749 5:-1.5815183 
0.5453745536176802 0 1:0.0136875 2:0.054144466 3:0.6022185 4:-0.3520129 5:-1.5826464 
0.8126556295002835 0 1:0.155875 2:0.12541024 3:0.24316576 4:-0.50300204 5:-1.6520203 
0.8061753910189497 5.412905807589067 1:0.1543125 2:0.13435466 3:0.25556138 4:-0.5385099 5:-1.6525843 
0 0.3228850918106396 1:-0.0019375 2:0.037011644 3:0.75187932 4:-0.39134796 5:-1.0034021 
0 0.01640908922369032 1:-0.0019375 2:0.037011644 3:0.89500974 4:-0.31985926 5:-1.0034021 
0.711690649779356 0.5953112209515907 1:0.0136875 2:0.086495983 3:0.45118742 4:-0.39911317 5:-1.3976492 
0.548165063244836 0.3064390676878278 1:0.0136875 2:0.0772869 3:0.49879405 4:-0.36539863 5:-1.3982132 
0.3766830405961148 1.52349556158659 1:0.0136875 2:0.086793616 3:0.45991403 4:-0.45443952 5:-1.4004693 
0.02691503876611149 0 1:0.0136875 2:0.077558224 3:0.52964882 4:-0.36750153 5:-1.4021613 
0.2829575057243344 0.1371145662768956 1:-0.0113125 2:0.036426292 3:0.77210967 4:-0.17646942 5:-1.3530919 
0.6574082825445475 0.4116829215308079 1:-0.0113125 2:0.04707813 3:0.91402465 4:-0.096327904 5:-1.354784 
0.6669335554338043 0.420249638902606 1:-0.00975 2:0.046734026 3:0.82048254 4:0.033277751 5:-1.3581681 
0.2113767636400276 0.1419478589295504 1:-0.0113125 2:0.046400187 3:0.91130829 4:-0.17527336 5:-1.3609882 
0.4676507858752205 0.2825381421345308 1:-0.0113125 2:0.11325694 3:0.73497838 4:-0.094169646 5:-1.1370739 
0.2915989850640783 0.1826487221332187 1:-0.0113125 2:0.11325694 3:0.84450847 4:-0.045508546 5:-1.1382019 
0.8708123767349933 0 1:-0.0113125 2:0.11325694 3:0.74090354 4:-0.18855701 5:-1.141022 
0.5017166589373991 0.3217130177679755 1:-0.0113125 2:0.11325694 3:0.87723515 4:-0.10043796 5:-1.14215 
0.5559624381485154 0.3504640002648385 1:-0.00975 2:0.11325694 3:0.7876957 4:-0.011812062 5:-1.1444061 
0 0.3367729055543708 1:-0.0113125 2:0.12232245 3:0.73330605 4:-0.16837172 5:-1.1489182 
4.025290079669519 0.7854946063492941 1:0.0230625 2:0.098608978 3:0.16214822 4:-0.54588546 5:-1.1556864 
2.176419978728766 0.9172643859743317 1:0.130875 2:0.28995184 3:0.11575702 4:-0.58687515 5:-1.2899222 
8 1.105995367937445 1:0.1465 2:0.052917469 3:0.094432176 4:-0.59855373 5:-1.2002437 
8 3.909139643144847 1:0.005875 2:0.050259086 3:0.24006898 4:-0.53250012 5:-1.1590705 
8 0 1:0.02775 2:0.12102179 3:0.20680738 4:-0.55180406 5:-1.1596345 
7.066551775554588 0 1:0.0199375 2:0.085692306 3:0.19840207 4:-0.55588222 5:-1.1607625 
2.70437616004375 0.9925957856138952 1:-0.012875 2:0.051868285 3:0.18652646 4:-0.47032668 5:-1.1477902 
8 0 1:0.0324375 2:0.12102179 3:0.19412135 4:-0.55188175 5:-1.1630186 
0.1877663186851489 0.485505546432686 1:0.230875 2:0.34961224 3:0.15055697 4:-0.57482905 5:-1.3068426 
1.244075741041316 0.673681208536224 1:0.2824375 2:0.36982575 3:0.12284494 4:-0.56404648 5:-1.3090987 
2.111379441858717 0 1:0.249625 2:0.37167035 3:0.1212308 4:-0.58055175 5:-1.3158669 
2.645993554850679 1.321258059354484 1:0.12775 2:0.054723112 3:0.29649704 4:-0.58166416 5:-1.3215071 
1.673446183752386 0 1:0.0324375 2:0.054723112 3:0.51543103 4:-0.55266189 5:-1.2904862 
0.910448537014375 0.9582603941904013 1:0.0386875 2:0.054723112 3:0.49347549 4:-0.5352312 5:-1.2910502 
0.7957239180467809 0.6862007443253137 1:0.005875 2:0.054723112 3:0.81943136 4:-0.46646647 5:-1.28259 
3.125027514380001 0.2646030455422824 1:0.012125 2:0.054723112 3:0.65641355 4:-0.48507889 5:-1.2859741 
0.6344604712168306 0 1:0.0136875 2:0.065186387 3:0.71401369 4:-0.40260575 5:-1.2887941 
0 0.2381834615485257 1:0.012125 2:0.065186387 3:0.6924263 4:-0.45698341 5:-1.2904862 
0.17793563202732 0.05376908038525518 1:-0.0113125 2:0.037351094 3:0.73613472 4:-0.29365182 5:-1.3841128 
1.163625535523036 0.7264191315964773 1:-0.0113125 2:0.037351094 3:1.014044 4:-0.24634672 5:-1.3846768 
0.6146167523195335 0.3824170497575532 1:-0.0113125 2:0.037351094 3:0.86695867 4:-0.31517903 5:-1.3852408 
0.06685601832219014 0.04828325529273425 1:-0.0113125 2:0.037351094 3:0.98904853 4:-0.26955017 5:-1.3852408 
0 0.2959222576877234 1:-0.000375 2:0.037318397 3:0.83431877 4:-0.38278089 5:-1.1900914 
1.871418355622804 0 1:-0.0113125 2:0.037318397 3:0.83332449 4:-0.37226361 5:-1.1906554 
1.144328346652651 0.6166977154450002 1:-0.0113125 2:0.037318397 3:0.92977934 4:-0.32065 5:-1.1906554 
1.011011750439321 0.618354856486203 1:-0.0113125 2:0.16490227 3:0.90277994 4:-0.17479956 5:-1.1917834 
4.492215227862498 0.4479666709868174 1:0.0011875 2:0.037011644 3:0.76577036 4:-0.43514137 5:-1.1917834 
1.79022347505411 0.0522260397739638 1:0.00275 2:0.047798902 3:0.73514847 4:-0.37542199 5:-1.1923474 
1.333226085070493 0.6581809279637544 1:0.00275 2:0.17568953 3:0.79352585 4:-0.25094216 5:-1.1923474 
0 0.1001352492393435 1:0.00275 2:0.16224345 3:0.85056501 4:-0.24186045 5:-1.1929114 
1.427376743288802 8 1:-0.0113125 2:0.027894118 3:0.51390369 4:-0.37311674 5:-1.1601985 
1.282616239776243 0 1:-0.00975 2:0.11558457 3:0.57109698 4:-0.32222265 5:-1.1630186 
0.4974179168414813 8 1:-0.00975 2:0.036609406 3:0.48077949 4:-0.35472279 5:-1.1664027 
0.8657633509306455 0 1:-0.00975 2:0.11558457 3:0.47885308 4:-0.30202459 5:-1.1675307 
0 2.101226030420114 1:-0.00975 2:0.036609406 3:0.48302155 4:-0.34762246 5:-1.1686588 
0.8102565664789119 7.169238742262191 1:0.018375 2:0.046151075 3:0.52049108 4:-0.4713849 5:-1.4878917 
0 0.76634921638244 1:0.018375 2:0.037351094 3:0.56513082 4:-0.42107292 5:-1.4890197 
0 0.7093765140199214 1:0.018375 2:0.037351094 3:0.61945372 4:-0.35771597 5:-1.4901478 
0.6721630363025725 0.3999140614411497 1:0.018375 2:0.037351094 3:0.5478825 4:-0.27193259 5:-1.4924038 
0.3558743740311657 2.508299258789346 1:0.0136875 2:0.037428666 3:0.6406954 4:-0.45902955 5:-1.4940959 
0 0.7910333197660698 1:0.0136875 2:0.037428666 3:0.58996053 4:-0.46206152 5:-1.496916 
0 1.929510635002355 1:0.0136875 2:0.037508819 3:0.6791293 4:-0.40783044 5:-1.5008641 
0 0.03086983776647182 1:-0.0113125 2:0.029182548 3:0.93469238 4:-0.24616829 5:-1.1224095 
0.5027049124703303 0.3046227479654783 1:-0.0113125 2:0.029101853 3:0.75520025 4:-0.28860715 5:-1.1229735 
5.34090701329849 0.1023722974786004 1:-0.0113125 2:0.055749934 3:0.83576097 4:-0.34575674 5:-1.1241015 
0.3267108556987469 0.2461294704309784 1:0.00275 2:0.046747615 3:0.91536014 4:-0.21697781 5:-1.1246655 
0.5144611455913081 0.3886667991493897 1:0.0043125 2:0.037591594 3:0.78634832 4:-0.14286331 5:-1.1263576 
0.117462340913131 0.1132454958880605 1:-0.0113125 2:0.036937886 3:0.76543304 4:-0.24732021 5:-1.1319977 
0.6159780629380541 0.3416906689611697 1:-0.0113125 2:0.047871599 3:0.92156626 4:-0.19827441 5:-1.175991 
8 0 1:0.0136875 2:0.064433937 3:0.55617873 4:-0.49035447 5:-1.2989464 
0.430614619249523 0.07641206634999062 1:0.01525 2:0.064433937 3:0.60312151 4:-0.37732804 5:-1.3028945 
0.2899708042547467 0.1218884048134486 1:0.01525 2:0.079756382 3:0.73578126 4:-0.33002982 5:-1.3655003 
0.6757212475531085 0.4529601543501289 1:0.01525 2:0.079756382 3:0.61838072 4:-0.3623089 5:-1.3660643 
0.2102286214924255 0.3370469963296714 1:0.005875 2:0.079756382 3:0.73589055 4:-0.39305738 5:-1.3660643 
0.1838294114602579 0.01763285034989626 1:0.0043125 2:0.069169264 3:0.7878325 4:-0.37683664 5:-1.3688844 
1.213716454703742 0.7755313370430454 1:-0.0113125 2:0.20800357 3:0.65457747 4:-0.22316544 5:-1.0614958 
0.06281160222913414 0.01441464683990604 1:-0.0113125 2:0.20800357 3:0.61517798 4:-0.25651055 5:-1.0626238 
0.8338826833970031 0.6567435952675457 1:-0.0113125 2:0.13060214 3:0.59793024 4:-0.31600285 5:-1.0637518 
0.1102802548664499 0 1:-0.0113125 2:0.13060214 3:0.50402479 4:-0.34702676 5:-1.0660079 
0.3274460280461756 0 1:-0.0113125 2:0.10484428 3:0.4656168 4:-0.35718699 5:-1.0671359 
0.1666231754446164 0 1:-0.0113125 2:0.027471314 3:0.47738797 4:-0.36929805 5:-1.068264 
0 2.297545235974936 1:-0.0113125 2:0.01888549 3:0.45089355 4:-0.37496073 5:-1.07052 
3.421078087077787 0 1:-0.0113125 2:0.027471314 3:0.3907193 4:-0.40335911 5:-1.0716481 
8 1.601660410943262 1:-0.012875 2:0.027471314 3:0.30419734 4:-0.41659667 5:-1.0722121 
2.245418371143971 0 1:-0.0113125 2:0.027471314 3:0.34880744 4:-0.35235414 5:-1.0733401 
0.6614962465727526 0.9114623098064457 1:-0.0113125 2:0.036058318 3:0.40820025 4:-0.32342542 5:-1.0744681 
1.035342488403112 0.6491274347054331 1:-0.0113125 2:0.20800357 3:0.45080344 4:-0.20744175 5:-1.0755962 
0.4275850833713853 0.2863534482388128 1:-0.0113125 2:0.20800357 3:0.52032518 4:-0.21901281 5:-1.0767242 
0.7073446042783116 0.5107816444857836 1:-0.0113125 2:0.2166242 3:0.47260635 4:-0.32614496 5:-1.0789803 
0.3823507910816376 0.2665543541768659 1:-0.0113125 2:0.22523966 3:0.52345948 4:-0.31751207 5:-1.0801083 
-0 0.642727954155633 1:0.009 2:0.061517995 3:0.34477125 4:-0.59223389 5:-1.0321669 
-0.118543122815082 0 1:0.4918125 2:0.61645778 3:0.25015704 4:-0.49154635 5:-0.95771686 
-0.1852506609442524 0.3768376922284192 1:0.287125 2:0.27705535 3:0.15720938 4:-0.55490592 5:-1.0124264 
-0 4.265868145462811 1:0.1465 2:0.12196184 3:0.18907349 4:-0.56567353 5:-1.0079143 
-0 2.016785868175807 1:0.0699375 2:0.048015165 3:0.24899981 4:-0.56926634 5:-0.74733897 
-0 1.585760392195794 1:0.1465 2:0.13915042 3:0.18974713 4:-0.5665627 5:-1.0079143 
-0 1.499800585354303 1:0.037125 2:0.10449908 3:0.37524985 4:-0.56897211 5:-0.69206543 
-0 0.5945771600718066 1:0.012125 2:0.10449908 3:0.48285134 4:-0.52658524 5:-0.68247716 
-0.01043752910433266 0 1:0.1480625 2:0.19950727 3:0.16245511 4:-0.56249066 5:-1.0073503 
-0 8 1:0.0511875 2:0.023551166 3:0.16765715 4:-0.58467905 5:-1.1139492 
-0 1.783801781927705 1:0.00275 2:0.027509115 3:0.18037055 4:-0.57332471 5:-0.98986576 
-0.3234147178061954 0 1:0.05275 2:0.067329212 3:0.16675458 4:-0.58284965 5:-1.1139492 
-0 0.4516328491261731 1:0.0105625 2:0.10416912 3:0.58481234 4:-0.53359527 5:-0.68078511 
-0 0.6562873044345305 1:0.059 2:0.04478551 3:0.13730659 4:-0.57760632 5:-0.93515623 
-0.0232759629756543 0 1:0.1011875 2:0.19086868 3:0.17305799 4:-0.57420801 5:-0.99437789 
-0 1.320812439566579 1:0.1011875 2:0.16509664 3:0.17854102 4:-0.57565858 5:-0.99381387 
-0 0.8565678056122052 1:0.009 2:0.029718269 3:0.60514082 4:-0.53912024 5:-0.67796503 
-0 1.481492629751083 1:0.0543125 2:0.070415391 3:0.22870876 4:-0.56653333 5:-0.97745742 
-0.1408956469530966 0 1:0.0105625 2:0.10384796 3:0.486992 4:-0.53038993 5:-0.67627298 
-0 0.9940625930201848 1:0.4574375 2:0.66639289 3:0.27217108 4:-0.51357451 5:-0.95602482 
-0.06358851864478952 0 1:0.209 2:0.096195713 3:0.17280926 4:-0.56021927 5:-1.0158105 
-0.1156279323305974 0 1:0.434 2:0.58590675 3:0.28157524 4:-0.48277694 5:-0.9554608 
-0.1660729472175612 0 1:0.2824375 2:0.13925123 3:0.14822027 4:-0.5674236 5:-1.0411912 
-0.1111133998761361 0 1:0.4261875 2:0.66639289 3:0.2894264 4:-0.52812338 5:-0.95264072 
-0.7641557679010685 0 1:0.074625 2:0.11303748 3:0.18892334 4:-0.57583802 5:-1.1133852 
-0.1257513817274264 8 1:0.009 2:0.011797871 3:0.25105356 4:-0.56504864 5:-0.67232487 
-0 0.426225407513586 1:0.0074375 2:0.056754745 3:0.59966649 4:-0.54957384 5:-0.67119684 
-0 8 1:0.034 2:0.055746756 3:0.28116011 4:-0.57624611 5:-0.82066103 
-0.2895023391845643 0 1:0.0074375 2:0.047731964 3:0.65104193 4:-0.54493511 5:-0.67063283 
-0.1813737069646726 0 1:0.009 2:0.011797871 3:0.28758544 4:-0.55845974 5:-0.67119684 
-0.0469664755276089 0.3993446062350766 1:0.493375 2:0.67624409 3:0.27089456 4:-0.4981296 5:-0.95376875 
-0 2.039835374394603 1:0.159 2:0.08618626 3:0.16813278 4:-0.57441693 5:-1.1009769 
-0.1376989279588793 0 1:0.349625 2:0.27749264 3:0.15313645 4:-0.57372139 5:-1.0665719 
-0.1352564513300444 4.237932070669368 1:0.0824375 2:0.010512201 3:0.13385184 4:-0.58169349 5:-0.88890694 
-0.05014626528198857 0 1:0.0480625 2:0.11257924 3:0.32329665 4:-0.57768995 5:-0.6841692 
-0.08247500399125414 0 1:0.1886875 2:0.13958678 3:0.22021014 4:-0.58352479 5:-0.73380259 
-0.1982440168438833 0 1:0.009 2:0.03868812 3:0.5416739 4:-0.54946071 5:-0.66781275 
-0.2584749463264139 0 1:0.009 2:0.11257924 3:0.57547314 4:-0.53822086 5:-0.66668472 
-0.1307178744527151 0 1:0.0355625 2:0.11257924 3:0.39555852 4:-0.56124008 5:-0.67514495 
-0.2243017110251869 0 1:0.4980625 2:0.67624409 3:0.28167916 4:-0.50661579 5:-0.95038466 
-0 0.2400020219057031 1:0.187125 2:0.065580945 3:0.24591366 4:-0.58781722 5:-0.72985448 
-0.2020055591763712 0.9539233650017893 1:-0.012875 2:0.021088059 3:0.18271489 4:-0.50185601 5:-0.66499267 
-0.08286464287108146 0 1:0.168375 2:0.047335878 3:0.26292661 4:-0.56048022 5:-0.72929047 
-0 1.204495055474713 1:0.168375 2:0.047335878 3:0.26323647 4:-0.57751909 5:-0.72816244 
-0.2212473177003851 0 1:0.0605625 2:0.021088059 3:0.13669883 4:-0.5968897 5:-0.68980936 
-0.02506549316631677 0 1:0.20275 2:0.087627235 3:0.16412583 4:-0.57583587 5:-0.99437789 
-0 3.277969480913568 1:-0.0019375 2:0.062520857 3:0.21007407 4:-0.56117404 5:-0.87762662 
-0.1665853893929536 0 1:0.1699375 2:0.047464177 3:0.27007898 4:-0.58738513 5:-0.72421433 
-0.1070666216620592 0 1:-0.0113125 2:0.020395234 3:0.064021685 4:-0.53711605 5:-0.65822448 
-0 2.682335821269719 1:0.062125 2:0.021175954 3:0.14524146 4:-0.5914487 5:-0.68586125 
-0.1717562756031019 0.06676968818776031 1:-0.0081875 2:0.010803119 3:0.058136555 4:-0.52903997 5:-1.5454213 
-0.3614967557292476 0.1738902357966301 1:-0.0081875 2:0.0019746387 3:0.014043999 4:-0.53613555 5:-1.5426012 
-0.08437572783158316 0 1:0.159 2:0.047731964 3:0.30692301 4:-0.58249543 5:-0.72026622 
-0.08286168130815454 0 1:0.32775 2:0.49113353 3:0.27823028 4:-0.55006943 5:-0.92895206 
-0.2742601596849271 0.1643732097808751 1:-0.0035 2:0.21471523 3:0.52074596 4:-0.4919356 5:-1.1607625 
-0 0.9076141559661224 1:-0.0050625 2:0.11732743 3:0.84369932 4:-0.43565701 5:-0.82122504 
-2.326416682579005 0.06838802129889439 1:-0.0113125 2:0.042180395 3:0.76159505 4:-0.46994838 5:-1.1573785 
-0 6.736024473146104 1:0.049625 2:0.011740058 3:0.23264607 4:-0.58090303 5:-0.90808347 
-0.1066113616152847 0.1661260632945666 1:0.0011875 2:0.18391036 3:0.65826513 4:-0.49846309 5:-1.1568144 
-0.175610879334977 2.650917332731876 1:-0.0081875 2:0.0023935827 3:0.11572726 4:-0.55794078 5:-0.88495883 
-0.1208492797959595 0 1:0.0043125 2:0.20463348 3:0.48538173 4:-0.48957241 5:-1.1556864 
-0.3140125631895375 0.2051724208389176 1:0.387125 2:0.31317293 3:0.15522298 4:-0.54851401 5:-1.1573785 
-0 0.131583884641764 1:-0.00975 2:0.082625324 3:0.64964135 4:-0.42838953 5:-1.1506103 
-0.1550335659083818 0 1:0.35275 2:0.19138219 3:0.16833054 4:-0.56766448 5:-1.1297417 
-0.5160251994054585 0.175588800028442 1:-0.0113125 2:0.045458634 3:0.97693313 4:-0.36303548 5:-0.8054326 
-8 0.2113698148252192 1:-0.0113125 2:0.043797035 3:0.83537387 4:-0.36133128 5:-1.1494822 
-0.2736980662345817 0 1:-0.0113125 2:0.054072569 3:0.75668052 4:-0.37189785 5:-0.80430457 
-0.4998021110555645 0.2251401981675372 1:0.4418125 2:0.51661223 3:0.15489345 4:-0.55808868 5:-1.1517383 
-0.01434624219267822 0 1:-0.0113125 2:0.0452228 3:0.89707718 4:-0.35383501 5:-0.80261252 
-0.2901208406760335 0.3568255597683495 1:-0.012875 2:0.028881895 3:0.15046856 4:-0.27516297 5:-1.3513999 
-0.107517429303563 0 1:-0.0113125 2:0.045120621 3:0.85336529 4:-0.35598931 5:-0.80148449 
-0 6.847994995265125 1:-0.0113125 2:0.044591345 3:0.37281994 4:-0.45756079 5:-1.1477902 
-0.2853849212608025 0.7665166987672752 1:-0.012875 2:0.028564381 3:0.18149559 4:-0.29188109 5:-1.3502719 
-0.09110101716689693 0 1:0.2355625 2:0.11975921 3:0.30858165 4:-0.55667485 5:-0.84434969 
-0.09911086713329403 0 1:0.1465 2:0.089857036 3:0.33504155 4:-0.55793134 5:-0.84886182 
-0.5200471297359895 0.2300326771907008 1:0.1886875 2:0.3619872 3:0.4896669 4:-0.48466846 5:-1.0146825 
-0 4.844159763449778 1:0.00275 2:0.031916992 3:0.30909959 4:-0.55578349 5:-0.88157473 
-0.1170285143113485 1.177234400370904 1:0.330875 2:0.22608236 3:0.20112779 4:-0.56543893 5:-0.78738409 
-0 0.2589821142186601 1:-0.0113125 2:0.050185531 3:0.2293796 4:-0.4904766 5:-0.79922843 
-0 0.9510462456195868 1:0.0574375 2:0.042920715 3:0.35167794 4:-0.56215703 5:-0.88495883 
-0.1666716578242921 0 1:-0.00975 2:0.076334113 3:0.26248372 4:-0.46053465 5:-0.79979244 
-0.003812609407240776 0 1:-0.00975 2:0.088284453 3:0.37692619 4:-0.48936224 5:-0.80035646 
-0 0.6700434855661441 1:-0.0081875 2:0.087059203 3:0.39322166 4:-0.48368033 5:-0.80092047 
-0.3901841550325827 0.9045589269813165 1:0.42775 2:0.38410155 3:0.26194942 4:-0.55012309 5:-0.81896898 
-0.2185189859148074 0 1:0.318375 2:0.33150169 3:0.3182493 4:-0.49937055 5:-0.86916638 
-0.03394027198927354 0 1:0.0574375 2:0.048176524 3:0.49336336 4:-0.56770826 5:-0.88890694 
-0.2014709378461366 0 1:0.284 2:0.12309524 3:0.15804832 4:-0.55696643 5:-0.77384772 
-0.39509790140865 0.05854600309332118 1:0.455875 2:0.53976484 3:0.30197575 4:-0.53546298 5:-1.0158105 
-0.0247732540963233 0 1:-0.006625 2:0.12564225 3:0.52901428 4:-0.47306151 5:-0.8054326 
-0.1992810380401261 0 1:0.5449375 2:0.62653953 3:0.2658556 4:-0.53379132 5:-0.8590141 
-0.10583642474051 0 1:-0.0019375 2:0.16925356 3:0.4637719 4:-0.47801429 5:-0.80656063 
-0 8 1:0.11525 2:0.057540673 3:0.19118007 4:-0.57895393 5:-0.891163 
-0.04799406895191613 0.00223860073665528 1:-0.0019375 2:0.1802602 3:0.44850662 4:-0.4912086 5:-0.80712465 
-0 0.4100981979391739 1:0.5199375 2:0.64655837 3:0.24912005 4:-0.53514433 5:-0.8590141 
-0 0.4252627485208052 1:0.012125 2:0.021647027 3:0.27065407 4:-0.58308485 5:-0.8838308 
-0.287057691755272 0 1:0.4511875 2:0.57561627 3:0.26776622 4:-0.53760414 5:-0.84716977 
-0 6.67834090656341 1:0.059 2:0.16775134 3:0.22449066 4:-0.5801907 5:-0.83081331 
-0.1455229024317436 0 1:-0.0050625 2:0.16775134 3:0.39552004 4:-0.4874576 5:-0.80881669 
-0.2265963497407838 0 1:0.5324375 2:0.63657262 3:0.23936025 4:-0.55686862 5:-0.85450197 
-0 8 1:0.080875 2:0.072345629 3:0.14406069 4:-0.57862114 5:-0.70785787 
-0 3.865966475175171 1:0.1293125 2:0.05817304 3:0.13775666 4:-0.57208649 5:-0.91203158 
-0 0.0865540481748245 1:0.034 2:0.063486644 3:0.15590567 4:-0.58602807 5:-0.92387592 
-0.1624476490662533 0 1:0.0418125 2:0.25993089 3:0.31810929 4:-0.55856245 5:-0.91936379 
-0.1340644055270743 0 1:-0.0035 2:0.14700147 3:0.45631501 4:-0.44500438 5:-0.84716977 
-0 1.867207549633962 1:0.099625 2:0.067841338 3:0.10755637 4:-0.57288836 5:-1.0440113 
-0 0.8326531336731924 1:0.01525 2:0.036062251 3:0.26863594 4:-0.52909129 5:-1.0005821 
-0 8 1:0.055875 2:0.042920715 3:0.14979897 4:-0.56304325 5:-1.0406272 
-0.1787502504212619 0.9441672848362529 1:0.0168125 2:0.037318397 3:0.40804323 4:-0.53937198 5:-0.68022109 
-0.3853232798996549 0.1957459074917458 1:0.75275 2:0.71523517 3:0.17655003 4:-0.55045634 5:-1.4111856 
-0.00796126085348017 0.05768407048554985 1:0.1324375 2:0.049814585 3:0.26600526 4:-0.579987 5:-0.76989961 
-0.2859972482483022 0.09899221547088718 1:-0.0113125 2:0.037318397 3:0.61803805 4:-0.33054834 5:-0.66894078 
-0 2.18521807650172 1:0.0715 2:0.061817759 3:0.3003714 4:-0.58275804 5:-1.1658387 
-0.1254134406453326 0 1:0.268375 2:0.094446323 3:0.22086293 4:-0.57012733 5:-0.76877157 
-0 2.03527400313734 1:0.1730625 2:0.067841338 3:0.12287051 4:-0.5699429 5:-1.0378071 
-0.1994864408537442 0 1:-0.012875 2:0.018903195 3:0.21583612 4:-0.41714391 5:-0.998326 
-0.01913079194984893 0.06573098085564566 1:-0.00975 2:0.037011644 3:0.67288579 4:-0.27799123 5:-0.6661207 
-0 1.275410334678118 1:0.1418125 2:0.06692332 3:0.1438299 4:-0.57272992 5:-0.91033954 
-0 0.2840166037532781 1:-0.000375 2:0.018889028 3:0.30548831 4:-0.51022441 5:-1.1370739 
-0.1653289163112441 0.0358666302925634 1:-0.0113125 2:0.037011644 3:0.69487721 4:-0.35691447 5:-0.66499267 
-0 0.841243986900083 1:0.049625 2:0.039052 3:0.18767979 4:-0.58702203 5:-0.90469938 
-0.01574146736448026 0 1:0.084 2:0.024894405 3:0.12140771 4:-0.59445178 5:-0.74564693 
-0.130816946816365 0.03623989958461244 1:-0.0019375 2:0.12710201 3:0.54307585 4:-0.39691237 5:-0.84040158 
-0 4.840728485014743 1:0.0480625 2:0.029908851 3:0.16817754 4:-0.57722554 5:-1.034423 
-0.2462371647718542 0.1142329678410613 1:0.8793125 2:0.73449741 3:0.18138995 4:-0.52873643 5:-1.426414 
-0.02263008039552101 0 1:0.234 2:0.061423966 3:0.27670936 4:-0.56223954 5:-0.7625674 
-0.3185015223838259 0.1576007282070219 1:-0.00975 2:0.037011644 3:0.7757156 4:-0.2629146 5:-0.66217259 
-1.258826730434594 0.5912550177845664 1:-0.0113125 2:0.027477605 3:0.24871627 4:-0.49753912 5:-1.1297417 
-0.04904079463645494 0 1:0.1449375 2:0.050259086 3:0.37765181 4:-0.55964214 5:-0.76087535 
-0.01536026735119599 0 1:0.5761875 2:0.61645778 3:0.18245216 4:-0.51849062 5:-1.42585 
-0.09137599058911967 0 1:0.234 2:0.061423966 3:0.30995843 4:-0.55963968 5:-0.75974732 
-0 1.351941938025316 1:0.0543125 2:0.24574131 3:0.3184963 4:-0.57297945 5:-0.91090355 
-1.961105317904396 0 1:-0.00975 2:0.027477605 3:0.24339955 4:-0.5116523 5:-1.1274856 
-0.02775581019359266 0.002330267907323399 1:0.8668125 2:0.73449741 3:0.16363081 4:-0.54329097 5:-1.426414 
-0.3655898151120234 0.1728544191082216 1:-0.0113125 2:0.037011644 3:0.78781535 4:-0.38964799 5:-0.65822448 
-0 0.705242479226257 1:0.105875 2:0.24574131 3:0.20779886 4:-0.58221876 5:-0.93120812 
-0.907659067028814 0.2462702368423365 1:0.0168125 2:0.070426022 3:0.38054799 4:-0.54960979 5:-1.2538252 
-0.1195682854412402 0.0607180256117019 1:0.0043125 2:0.15346189 3:0.5665229 4:-0.42139961 5:-0.83588945 
-0 8 1:0.1199375 2:0.054937541 3:0.18728933 4:-0.58628329 5:-0.93064411 
-0.3238989854651855 0.1190038328208314 1:0.6011875 2:0.61645778 3:0.21072695 4:-0.47476108 5:-1.426414 
-0.06325964983336275 0 1:0.074625 2:0.045456284 3:0.10839874 4:-0.59940858 5:-0.73267456 
-0.05412403501090643 0.02999870895952469 1:0.9011875 2:0.77259478 3:0.16551833 4:-0.54824556 5:-1.4168257 
-0.2703371236929866 0.1179462538892065 1:0.9293125 2:0.77259478 3:0.1545872 4:-0.5390738 5:-1.42585 
-0 6.366464391193311 1:0.130875 2:0.11710586 3:0.18383717 4:-0.57854722 5:-0.92726001 
-0 8 1:0.04025 2:0.022434347 3:0.16314355 4:-0.57531409 5:-1.1590705 
-0.1340256909037834 0.1312626688770995 1:0.5480625 2:0.61645778 3:0.20154722 4:-0.53648772 5:-1.4185178 
-0.1928986158996635 0 1:0.1261875 2:0.061423966 3:0.39376346 4:-0.57723526 5:-0.75297913 
-0 8 1:0.1043125 2:0.081663981 3:0.19944758 4:-0.58313906 5:-0.91710773 
-0.1257398560025217 0 1:0.424625 2:0.53387827 3:0.2236062 4:-0.54208355 5:-1.4185178 
-0 1.329817287696998 1:0.130875 2:0.067356519 3:0.22442603 4:-0.58245959 5:-0.89229103 
-0 1.485122259415106 1:0.1043125 2:0.09919829 3:0.20924625 4:-0.58026351 5:-0.91654371 
-0.260275781736483 0 1:0.2949375 2:0.28653229 3:0.19148834 4:-0.55487063 5:-1.3525279 
-0.4715046309684154 0.214194886651445 1:0.0949375 2:0.20414823 3:0.39745324 4:-0.54168944 5:-1.4179538 
-0 1.11613675311479 1:0.1043125 2:0.27246775 3:0.25131944 4:-0.56896247 5:-0.91541568 
-0 2.496653495478287 1:0.018375 2:0.070408305 3:0.36618685 4:-0.51507547 5:-1.248185 
-0.1807442424293364 0 1:0.455875 2:0.55486583 3:0.22301927 4:-0.55108893 5:-1.4156977 
-0.3765287185417271 0.4294306421223051 1:0.0965 2:0.51428977 3:0.23512438 4:-0.56928968 5:-0.91541568 
-0 0.3230013719039882 1:0.105875 2:0.29935776 3:0.27195544 4:-0.56553848 5:-0.91485166 
-0.1439010306214045 0 1:0.012125 2:0.036056352 3:0.25692669 4:-0.59715318 5:-0.891163 
-0 0.2199860185279765 1:0.4386875 2:0.56526984 3:0.23331684 4:-0.5458298 5:-1.4185178 
-0 2.636368867049294 1:0.1355625 2:0.29075538 3:0.24322252 4:-0.57549269 5:-0.92838804 
-0 8 1:0.0324375 2:0.022313515 3:0.20309553 4:-0.57913222 5:-1.1714788 
-0.09404771745207381 0 1:0.505875 2:0.59614282 3:0.23768371 4:-0.54880947 5:-1.4190818 
-0.088587178793893 0 1:0.109 2:0.09505838 3:0.24062306 4:-0.53616115 5:-0.87988268 
-0.2364140267514428 0.1194005062747806 1:0.343375 2:0.4802754 3:0.25803295 4:-0.55940827 5:-1.4190818 
-0.06213445343213686 0.04088544837138453 1:0.209 2:0.086469707 3:0.39585574 4:-0.55991479 5:-0.7732837 
-0.1255130692219467 0 1:0.3418125 2:0.46934418 3:0.28092183 4:-0.54954427 5:-1.4190818 
-0 0.2841926703043455 1:0.0918125 2:0.29860666 3:0.28311102 4:-0.57334106 5:-0.90582741 
-0 1.824191736173278 1:0.05275 2:0.032122237 3:0.17277641 4:-0.58065673 5:-1.1788111 
-0.07700349042602325 0.03448425213896073 1:0.134 2:0.23078703 3:0.45924788 4:-0.50234043 5:-1.4207738 
-0.0294349973939792 0 1:0.1980625 2:0.076765494 3:0.22862922 4:-0.57517321 5:-0.90977552 
-0.496691111984618 0.3158463437196358 1:0.0168125 2:0.078993341 3:0.45958757 4:-0.54454015 5:-1.2431089 
-0.05807783650737006 0 1:0.2293125 2:0.086469707 3:0.38288059 4:-0.55185511 5:-0.77159165 
-0 5.664865777517999 1:0.24025 2:0.54236774 3:0.23066975 4:-0.55413308 5:-0.92443993 
-1.210068712016402 0.1967942876442189 1:0.0168125 2:0.078993341 3:0.44454991 4:-0.54662461 5:-1.2425448 
-0 5.278661378942918 1:0.0418125 2:0.10530925 3:0.23857939 4:-0.59229071 5:-0.88721489 
-0 6.366907026727239 1:0.3011875 2:0.62658492 3:0.2130604 4:-0.54978174 5:-0.94587253 
-0.01660041150648006 0 1:0.0715 2:0.010415167 3:0.1999706 4:-0.58473255 5:-0.89567513 
-0.05318049205830579 0 1:0.180875 2:0.23018254 3:0.26508901 4:-0.5648927 5:-0.9018793 
-0.1957698777928078 7.216502852790162 1:0.084 2:0.028103986 3:0.29777834 4:-0.57674194 5:-0.91033954 
-0 0.2713462447525443 1:0.0699375 2:0.027757899 3:0.20425224 4:-0.58600885 5:-0.89567513 
-0.02729282480710648 0 1:0.20275 2:0.23018254 3:0.25084629 4:-0.55604672 5:-0.90921151 
-0.1393101504075707 0 1:0.15275 2:0.18348241 3:0.21897732 4:-0.57082668 5:-1.3333514 
-0.4148406609618699 0.2166991901635529 1:0.1730625 2:0.294724 3:0.34489061 4:-0.48852808 5:-1.4286701 
-0.07612399471500308 2.640099417253163 1:0.3449375 2:0.61055769 3:0.222543 4:-0.54101531 5:-0.95940891 
-0 4.173207339260547 1:0.0730625 2:0.044986517 3:0.21192763 4:-0.58443096 5:-0.8945471 
-0 0.1847397226899117 1:0.3386875 2:0.4802754 3:0.25519476 4:-0.53499681 5:-1.4292341 
-0.1776310967962521 0.3463271625035084 1:0.30275 2:0.23018254 3:0.22812019 4:-0.53996397 5:-0.94361647 
-0 4.217461448055122 1:0.2949375 2:0.54299827 3:0.24302198 4:-0.55180713 5:-0.94079639 
-0 0.6272415292904792 1:0.2215 2:0.23383138 3:0.19371594 4:-0.57432314 5:-1.3372995 
-0 1.314543749801279 1:0.0918125 2:0.031963225 3:0.2305443 4:-0.57513924 5:-0.87255048 
-0 1.075478686680637 1:0.2949375 2:0.44960379 3:0.25213831 4:-0.55131148 5:-0.93966836 
-0 8 1:0.112125 2:0.1996936 3:0.19454822 4:-0.56868005 5:-0.89905922 
-1.635228367549806 0 1:0.04025 2:0.087609889 3:0.23311631 4:-0.53751746 5:-1.1162053 
-0 3.321906543440752 1:0.109 2:0.12479932 3:0.26777716 4:-0.57956948 5:-0.85957812 
-0.1845115735550674 0 1:0.1465 2:0.15179502 3:0.1330222 4:-0.5746092 5:-0.71688212 
-3.316001935693484 0 1:0.04025 2:0.050705387 3:0.19207124 4:-0.5751334 5:-1.1742989 
-0.08032089581242222 0 1:0.5074375 2:0.62653953 3:0.24424045 4:-0.48656895 5:-1.4337462 
-0 8 1:0.074625 2:0.057665248 3:0.16783642 4:-0.59145026 5:-0.71575409 
-0.1812570762742202 6.013788129219924 1:0.4043125 2:0.83196377 3:0.23155765 4:-0.53308323 5:-0.95264072 
-2.931804803989925 0 1:-0.0081875 2:0.087627235 3:0.23170865 4:-0.52845971 5:-1.1156413 
-0.05658048548038568 8 1:0.0386875 2:0.036056352 3:0.24888218 4:-0.58735495 5:-0.94023237 
-0 0.04650911359894777 1:0.1449375 2:0.15432223 3:0.14300939 4:-0.57999797 5:-0.71575409 
-0.1729993549772425 0.164735148279298 1:0.384 2:0.56526984 3:0.31091453 4:-0.51915229 5:-1.4326182 
-0.02768706691087306 0 1:0.2261875 2:0.22776266 3:0.22496234 4:-0.57228369 5:-0.9018793 
-0.1414244400817386 0 1:0.2386875 2:0.22049694 3:0.22394583 4:-0.5470086 5:-1.354784 
-0.2637830615150679 0 1:0.21525 2:0.14130437 3:0.40193258 4:-0.54724763 5:-0.76482346 
-0.08603021594308305 0 1:0.30275 2:0.68557383 3:0.26272235 4:-0.5520198 5:-0.94869261 
-1.976001169716268 0 1:0.0918125 2:0.071905719 3:0.27398142 4:-0.54522119 5:-1.35422 
-0.3904634433368136 0.174965920965849 1:0.109 2:0.28221514 3:0.51761952 4:-0.51691462 5:-1.4309261 
-0.01453043483466075 0.00322774772438952 1:0.1230625 2:0.30710476 3:0.458841 4:-0.52092297 5:-1.4365663 
-0.1020716031148164 0 1:0.2543125 2:0.18151931 3:0.33736326 4:-0.54717566 5:-0.77779583 
-0.6003484190615659 0.2059465127263916 1:0.05275 2:0.096366427 3:0.51113444 4:-0.16926244 5:-1.2380327 
-0.190126208472659 0.07493648058314248 1:0.1715 2:0.294724 3:0.44105652 4:-0.47272345 5:-1.4376943 
-0.03124292690826651 0 1:0.2668125 2:0.18151931 3:0.33531346 4:-0.55871734 5:-0.77779583 
-1.129581792798636 0 1:0.0324375 2:0.079190845 3:0.53975363 4:-0.40890205 5:-1.2380327 
-0.009296188377769457 0.009323043167046578 1:0.3011875 2:0.50192079 3:0.34370919 4:-0.50716833 5:-1.4416424 
-0.2309907457811004 0 1:0.3449375 2:0.29370103 3:0.27081446 4:-0.5647188 5:-0.78907614 
-0.32832096345587 0 1:0.359 2:0.76015813 3:0.26586607 4:-0.53332312 5:-0.9695612 
-0.1702108718966758 0.1813948360284194 1:0.459 2:0.65649805 3:0.27551414 4:-0.52004246 5:-1.4444625 
-0 1.779064358884908 1:0.3465 2:0.29370103 3:0.25902831 4:-0.55403775 5:-0.78907614 
-0.9527910256246886 0 1:0.0511875 2:0.096516501 3:0.52664963 4:-0.28025377 5:-1.2363407 
-0.1654382169729692 1.786772262301492 1:0.259 2:0.17361348 3:0.1740177 4:-0.56788975 5:-1.318123 
-0.4503597595431386 0.2179445903420347 1:0.2730625 2:0.4802754 3:0.36223096 4:-0.52134567 5:-1.4450265 
-0 4.637668503169119 1:0.180875 2:0.098885771 3:0.17146842 4:-0.58203267 5:-0.72872645 
-0 1.07049863433806 1:0.3043125 2:0.18794642 3:0.317214 4:-0.55405229 5:-0.78907614 
-0.1469600225409559 0.2121654846824262 1:0.0511875 2:0.096576236 3:0.50267017 4:-0.28883652 5:-1.2363407 
-0 8 1:0.0855625 2:0.038300248 3:0.16610842 4:-0.59297299 5:-0.7163181 
-0.3888979890047709 0.1422072703425244 1:0.324625 2:0.30278833 3:0.16808017 4:-0.54860153 5:-1.3621162 
-0.009498645502543113 0.009875234928559407 1:0.1355625 2:0.33150169 3:0.48345797 4:-0.50043772 5:-1.4444625 
-0.3473593959401003 1.351286829360394 1:0.3465 2:0.16176938 3:0.31673609 4:-0.54916013 5:-0.78851213 
-0.1941327678873209 0 1:-0.0113125 2:0.015712851 3:0.043327672 4:-0.53176153 5:-0.68134913 
-0.1134091614418204 0 1:0.605875 2:0.75361479 3:0.26168735 4:-0.50452112 5:-1.4495386 
-0 7.307853173834081 1:0.134 2:0.11513881 3:0.17724872 4:-0.58247575 5:-0.71067795 
-3.036082882840299 0 1:0.0324375 2:0.079501695 3:0.62461848 4:-0.37621551 5:-1.2363407 
-0.9791162992754917 0 1:-0.0113125 2:0.02756605 3:0.14206793 4:-0.52206607 5:-1.1083091 
-0 8 1:0.1074375 2:0.11737457 3:0.17664774 4:-0.58272143 5:-0.71011393 
-0.2621742570227357 0.2401442149193676 1:0.5324375 2:0.75361479 3:0.27628734 4:-0.53878813 5:-1.4478466 
-0 8 1:0.105875 2:0.10077465 3:0.1792213 4:-0.58472322 5:-0.70954992 
-0 3.968267353726616 1:0.1199375 2:0.025707768 3:0.17585639 4:-0.58730175 5:-0.89285505 
-0.5446885303768266 0 1:0.0261875 2:0.088333462 3:0.57556886 4:-0.43322483 5:-1.2335206 
-0 1.243036555277118 1:0.005875 2:0.032285551 3:0.2340344 4:-0.56241297 5:-1.2780778 
-0.2104240674149243 0 1:0.380875 2:0.61645778 3:0.3726913 4:-0.51148029 5:-1.4523587 
-0.0788321694267349 4.258493394087506 1:0.087125 2:0.10278618 3:0.15091448 4:-0.5838653 5:-0.70165369 
-0.1285229087066133 0 1:0.3043125 2:0.099840554 3:0.29642606 4:-0.55356315 5:-0.78343598 
-0.6192017320099105 0.8219753748786638 1:-0.0113125 2:0.019047363 3:0.50562696 4:-0.47032248 5:-1.1088731 
-3.32228050646932 0.8448679686422476 1:-0.012875 2:0.024705843 3:0.28381417 4:-0.39014783 5:-1.1083091 
-0.1163796677914415 0 1:-0.0050625 2:0.039772513 3:0.33034687 4:-0.45914363 5:-0.68022109 
-0.03561762627950599 0.1594504024349137 1:-0.0113125 2:0.019047363 3:0.69207558 4:-0.45825982 5:-1.1088731 
-0.3055263854248876 0 1:-0.000375 2:0.052199091 3:0.27290677 4:-0.40781999 5:-0.68022109 
-0 0.4612494027253132 1:-0.0050625 2:0.027700008 3:0.51575378 4:-0.4648765 5:-1.1088731 
-3.148558812612634 0 1:-0.012875 2:0.024705843 3:0.35328991 4:-0.36566292 5:-1.1088731 
-0 8 1:0.0449375 2:0.031808389 3:0.20485058 4:-0.57088846 5:-1.2893582 
-0.187920509725968 0.208258136096457 1:0.3543125 2:0.62653953 3:0.36137692 4:-0.51114268 5:-1.4563068 
-0 1.980057532100631 1:0.349625 2:0.70857505 3:0.25389574 4:-0.52596217 5:-0.9588449 
-0.5002741929006742 0 1:0.009 2:0.07987474 3:0.69180966 4:-0.52028453 5:-1.2318285 
-0.5300487326248766 0.1050142023500254 1:-0.012875 2:0.019089518 3:0.53739144 4:-0.4733912 5:-1.1094371 
-0.1918225463639678 0 1:0.4715 2:0.72488488 3:0.3399592 4:-0.51339861 5:-1.4563068 
-0.05869199538744663 0.1338240273394308 1:-0.000375 2:0.075135945 3:0.34347489 4:-0.49075783 5:-0.67909306 
-0 0.1249006549901731 1:0.009 2:0.088600739 3:0.68868364 4:-0.52485104 5:-1.2318285 
-0.2161716672808481 1.580769137480749 1:0.0465 2:0.027728113 3:0.3848577 4:-0.58204701 5:-0.84378567 
-2.064786481061598 0 1:0.02775 2:0.079962144 3:0.65707139 4:-0.4315565 5:-1.2352126 
-0.2997939887999802 0.05718288009496113 1:0.505875 2:0.72488488 3:0.3120539 4:-0.44001339 5:-1.460819 
-0 8 1:0.037125 2:0.072883998 3:0.19779167 4:-0.57151965 5:-0.68134913 
-0 3.748946929919357 1:0.0949375 2:0.044986517 3:0.32375748 4:-0.57694514 5:-0.86183418 
-0.1294415641466834 0 1:0.2949375 2:0.30535809 3:0.17195484 4:-0.57290482 5:-0.78456402 
-0 8 1:0.084 2:0.036360309 3:0.28869 4:-0.58352041 5:-0.85788607 
-5.925172050342354 0 1:0.14025 2:0.066512979 3:0.11421828 4:-0.58745789 5:-1.2205482 
-0 0.2125893172925002 1:0.51525 2:0.74407373 3:0.26156513 4:-0.50594853 5:-1.4602549 
-0 1.113907018838593 1:0.2730625 2:0.26647055 3:0.17578043 4:-0.54797482 5:-1.3739605 
-0.4801994327322889 0.2139842304999527 1:0.16525 2:0.40208396 3:0.49830872 4:-0.44715319 5:-1.463075 
-0 3.980644716456351 1:0.2293125 2:0.1981666 3:0.20026221 4:-0.56983971 5:-0.88157473 
-3.158777041780512 0 1:0.0215 2:0.073483927 3:0.74322136 4:-0.43333713 5:-1.1923474 
-0.1552560478049292 0 1:0.0355625 2:0.04913754 3:0.24053735 4:-0.57156234 5:-1.4004693 
-0.122795563231704 0.05400424845764749 1:0.3605625 2:0.71523517 3:0.38430217 4:-0.45300015 5:-1.570238 
-0 6.869335284261607 1:0.1386875 2:0.40327655 3:0.25898568 4:-0.56563985 5:-0.86578229 
-0.1148537803938667 0.04614296783518146 1:0.343375 2:0.70554728 3:0.35569528 4:-0.51144052 5:-1.568546 
-3.427861334162108 0.2044939779960923 1:0.030875 2:0.073483927 3:0.71521155 4:-0.2694421 5:-1.1917834 
-0 8 1:0.212125 2:0.3758909 3:0.22368999 4:-0.56468552 5:-0.89172702 
-0.1781698511943411 0.08257026871093878 1:0.509 2:0.83804185 3:0.28617372 4:-0.4879448 5:-1.569674 
-0 8 1:0.1761875 2:0.25779956 3:0.20857464 4:-0.57274706 5:-0.85619402 
-1.314603446838846 0.04238832616572834 1:0.0293125 2:0.073483927 3:0.71803042 4:-0.35529443 5:-1.1912194 
-0.1134381111910074 0.9829219201128533 1:0.1761875 2:0.3295934 3:0.21064194 4:-0.57248147 5:-0.85619402 
-0 0.05099326845016344 1:0.0215 2:0.073483927 3:0.74994714 4:-0.44121154 5:-1.1906554 
-0 1.097635639349611 1:0.0761875 2:0.21871587 3:0.29524649 4:-0.58041327 5:-0.86409024 
-0.153898910153171 0.0664910581172215 1:0.324625 2:0.67624409 3:0.40391608 4:-0.46389307 5:-1.570802 
-0.04629073872363253 0 1:0.349625 2:0.37241014 3:0.18800655 4:-0.55586847 5:-0.87931867 
-0 1.866676048331116 1:-0.0050625 2:0.079381738 3:0.77389371 4:-0.45549835 5:-0.81445685 
-0.3655637643806587 0.3410076967965395 1:0.2386875 2:0.70559267 3:0.23187617 4:-0.55916819 5:-0.86352623 
-0 0.007600198541896839 1:0.030875 2:0.073483927 3:0.67312479 4:-0.33484927 5:-1.1900914 
-0.1028488955116534 0 1:0.043375 2:0.013657711 3:0.20946351 4:-0.58294254 5:-0.77441173 
-0 5.446561336859025 1:0.193375 2:0.29860666 3:0.21055674 4:-0.57672182 5:-0.90075127 
-0.4522815164095921 0.200997972446847 1:0.2715 2:0.60632602 3:0.40704751 4:-0.43779297 5:-1.5719301 
-0 2.788533264010719 1:0.0980625 2:0.25559274 3:0.26479586 4:-0.57660541 5:-0.86634631 
-0 4.931332890689831 1:-0.0050625 2:0.096784927 3:0.74129631 4:-0.51252477 5:-0.81332882 
-0.03948954127733948 0 1:0.0636875 2:0.013550432 3:0.18145164 4:-0.5845492 5:-0.77441173 
-0.186856257359845 1.599228055525181 1:0.25275 2:0.55405186 3:0.21140183 4:-0.56182484 5:-0.88157473 
-0.1383535234485797 0 1:-0.0113125 2:0.01888549 3:0.23781277 4:-0.5587992 5:-0.82742922 
-0.04773473598740235 0 1:0.00275 2:0.036186682 3:0.67821773 4:-0.54846275 5:-0.81840496 
-0.201814430593847 1.963948053851011 1:0.4043125 2:0.6259273 3:0.19170891 4:-0.55565544 5:-0.89736717 
-0.2021840502554154 0.1459922812093599 1:0.5949375 2:0.88396269 3:0.28068559 4:-0.50056854 5:-1.568546 
-0.1677191846462603 2.107520732645741 1:0.00275 2:0.036186682 3:0.60361092 4:-0.54940715 5:-0.81784095 
-0.2126599866756884 0.09890060819186683 1:0.4886875 2:0.81017053 3:0.34178522 4:-0.45418894 5:-1.570238 
-0 0.9578021934005254 1:0.384 2:0.634538 3:0.20583527 4:-0.55278362 5:-0.88834292 
-0 0.6932998213465724 1:0.334 2:0.634538 3:0.20768628 4:-0.55587748 5:-0.8697304 
-1.12321939147638 0.3015254209468817 1:0.0261875 2:0.073325086 3:0.52492289 4:-0.38772447 5:-1.1872713 
-0 2.008357147916584 1:0.0730625 2:0.027470528 3:0.2900839 4:-0.56111817 5:-0.83701748 
-0 0.4103407498667733 1:-0.0113125 2:0.027584298 3:0.71493576 4:-0.45005824 5:-0.81107276 
-0 4.189547721408574 1:0.0230625 2:0.02100248 3:0.1799825 4:-0.56803079 5:-1.3852408 
-0.01180641956887533 6.719965180881306 1:0.3136875 2:0.5639467 3:0.2071961 4:-0.55825907 5:-0.88495883 
-0.01339957986656364 0 1:0.037125 2:0.14983964 3:0.35831159 4:-0.58107533 5:-0.84604174 
-0 0.8318585208350892 1:0.0199375 2:0.027470528 3:0.32311532 4:-0.57103752 5:-0.83588945 
-0 0.00388308338918177 1:0.0043125 2:0.064481608 3:0.62861509 4:-0.54000688 5:-1.1855792 
-0.2962711612372223 2.599572899369853 1:0.412125 2:0.74622545 3:0.19328316 4:-0.54856931 5:-0.89623914 
-0.1073421625886342 0 1:0.1715 2:0.043797035 3:0.17698059 4:-0.58477702 5:-0.81671292 
-0.0289945869367722 8 1:0.2699375 2:0.31767424 3:0.19857411 4:-0.57032392 5:-0.8838308 
-0.1596197402583181 0.07133514038035785 1:0.42775 2:0.75361479 3:0.33471521 4:-0.45380381 5:-1.570238 
-0.1241997319405018 8 1:0.309 2:0.36181915 3:0.19187181 4:-0.56138897 5:-0.89793119 
-0.09378013779252932 0.04043541662496123 1:0.39025 2:0.75361479 3:0.35559462 4:-0.50805003 5:-1.5674179 
-0.03088154476850322 0.02641462685826309 1:0.509 2:0.83804185 3:0.33800513 4:-0.46351389 5:-1.570238 
-0 0.65440242374205 1:0.36525 2:0.37241014 3:0.19261135 4:-0.55639512 5:-0.88552284 
-0 2.468664288037218 1:0.0261875 2:0.090967549 3:0.21662458 4:-0.57836041 5:-0.89793119 
-0 1.316859825375031 1:0.2215 2:0.39919498 3:0.22183719 4:-0.57617758 5:-0.89229103 
-0.2945768728811252 0.09436436628929729 1:0.599625 2:0.89307344 3:0.29413945 4:-0.46305811 5:-1.570238 
-0 3.686492063313363 1:0.2965 2:0.52947369 3:0.21203293 4:-0.56200617 5:-0.89172702 
-0 3.351784277734774 1:0.0824375 2:0.087609889 3:0.22111915 4:-0.57861848 5:-0.85111788 
-0.06369941715303795 0 1:0.1918125 2:0.24767603 3:0.24097394 4:-0.57673936 5:-0.89680316 
-0 2.718733601660302 1:0.40275 2:0.84942033 3:0.20529936 4:-0.54846744 5:-0.891163 
-0.03195956646268608 0 1:0.149625 2:0.32914699 3:0.28675823 4:-0.56826749 5:-0.86127016 
-0.3144655197573153 0 1:0.174625 2:0.10518618 3:0.12546174 4:-0.55652935 5:-1.4156977 
-0.333689070500357 1.849727410999519 1:0.4168125 2:0.46399342 3:0.194597 4:-0.54783348 5:-0.89567513 
-0.2939836356656205 0 1:0.018375 2:0.055499164 3:0.59263875 4:-0.4936752 5:-1.1821951 
-0 2.946398582593914 1:0.0074375 2:0.027584298 3:0.73190658 4:-0.51218526 5:-0.80599662 
-0 3.623317502560922 1:0.1965 2:0.090785085 3:0.19556492 4:-0.57499398 5:-0.88890694 
-0.03052553470249831 0 1:0.1011875 2:0.18431265 3:0.31844252 4:-0.58035984 5:-0.86352623 
-0 2.189044519798935 1:0.068375 2:0.13925123 3:0.30646301 4:-0.57163503 5:-0.83081331 
-0.1427544236674241 0.07765355628089708 1:0.362125 2:0.73449741 3:0.33122958 4:-0.50685817 5:-1.567982 
-0 4.626975955409072 1:-0.0113125 2:0.027584298 3:0.806326 4:-0.50053147 5:-0.8054326 
-0.1324690652333072 0 1:0.0074375 2:0.021175954 3:0.16611311 4:-0.5606512 5:-1.3948291 
-0 0.4907270102716446 1:0.299625 2:0.46971307 3:0.22285016 4:-0.55568528 5:-0.88777891 
-0 2.318926720778149 1:0.0980625 2:0.21033535 3:0.29761085 4:-0.5777258 5:-0.85845008 
-0.05469760436739907 0 1:0.1855625 2:0.18065732 3:0.23365697 4:-0.56826796 5:-0.84604174 
-0 0.05516770779672116 1:0.012125 2:0.055499164 3:0.69694494 4:-0.5354227 5:-1.1793751 
-1.66779370047532 0 1:0.0293125 2:0.055499164 3:0.59337957 4:-0.41551216 5:-1.1788111 
-2.141353996521779 0.8523398264951669 1:0.030875 2:0.055499164 3:0.57911698 4:-0.4067584 5:-1.1788111 
-0.01275593084724874 0 1:0.030875 2:0.07971283 3:0.47428051 4:-0.57738334 5:-0.83701748 
-0 5.217926254155698 1:0.2980625 2:0.32196483 3:0.20250675 4:-0.55843169 5:-0.88495883 
-0.05295249611440354 1.879166370524019 1:0.243375 2:0.32914699 3:0.20871646 4:-0.5705971 5:-0.89229103 
-0.003000411104986806 0.01286223983386836 1:0.40275 2:0.73449741 3:0.34147622 4:-0.4496048 5:-1.56911 
-0.4029681486097361 8 1:0.4230625 2:0.87005724 3:0.19904155 4:-0.53907925 5:-0.89229103 
-0.03602265300139659 0.002238304694453322 1:0.3715 2:0.73449741 3:0.32657686 4:-0.46406623 5:-1.56911 
-0.1019479657439313 0 1:0.1855625 2:0.097038488 3:0.25746835 4:-0.58752046 5:-0.89172702 
-0 8 1:0.024625 2:0.021088059 3:0.17602759 4:-0.58129982 5:-1.3880609 
-0.1411668745320055 0 1:0.3261875 2:0.48157986 3:0.20232167 4:-0.56201831 5:-0.8838308 
-2.085570256989707 0 1:0.0136875 2:0.055499164 3:0.59245431 4:-0.4725925 5:-1.1709148 
-0.04560075982080788 0 1:0.0199375 2:0.01953159 3:0.28839339 4:-0.57703318 5:-0.82630118 
-0 5.482541484736849 1:0.074625 2:0.12287099 3:0.31772907 4:-0.58741411 5:-0.8516819 
-0 2.040706870431567 1:0.030875 2:0.039728565 3:0.23097188 4:-0.56826121 5:-1.3886249 
-0.2540981338832288 3.038141534802688 1:0.2074375 2:0.45070688 3:0.22647109 4:-0.5646241 5:-0.84040158 
-0 1.794821027384984 1:0.02775 2:0.055499164 3:0.51279998 4:-0.42309414 5:-1.175991 
-0.07574956738674955 0.005874613438133068 1:0.5215 2:0.82877943 3:0.33001461 4:-0.49965499 5:-1.5662899 
-0.05585232087269163 0 1:0.259 2:0.45070688 3:0.22102638 4:-0.5599668 5:-0.84716977 
-0 8 1:0.06525 2:0.10555963 3:0.33032653 4:-0.57427126 5:-0.84265764 
-0.2138462652252427 0 1:0.3324375 2:0.63132745 3:0.21831182 4:-0.55364398 5:-0.86014213 
-0 8 1:0.1011875 2:0.12208037 3:0.24683072 4:-0.57673002 5:-0.83870953 
-0 8 1:0.1949375 2:0.23172447 3:0.16042667 4:-0.56387622 5:-0.91541568 
-0.06596229006746282 0 1:0.2949375 2:0.37896024 3:0.14842838 4:-0.54022472 5:-1.5104523 
-0.2679470972203695 0.1665281385747468 1:-0.0035 2:0.19486981 3:0.61101805 4:-0.48837291 5:-0.90357135 
-0.05845995750598094 0.2983023348521818 1:0.2355625 2:0.34352702 3:0.16077927 4:-0.53895159 5:-1.5104523 
-0.1639545486039421 0 1:0.034 2:0.039011157 3:0.10411523 4:-0.5789415 5:-1.390881 
-0.130399508372475 0 1:0.2074375 2:0.26115105 3:0.19714654 4:-0.54205286 5:-1.5048122 
-0.463226523097479 0 1:-0.0035 2:0.12562866 3:0.69607344 4:-0.46416324 5:-0.90413536 
-0 2.128958022553786 1:0.0980625 2:0.060899077 3:0.12305148 4:-0.56818114 5:-1.3829848 
-0 8 1:0.018375 2:0.037621731 3:0.15292506 4:-0.56284285 5:-0.92274788 
-0.1238858462434843 0.9108562966877169 1:0.1074375 2:0.071905719 3:0.10050913 4:-0.57443958 5:-1.3824208 
-0 1.917992537377117 1:0.018375 2:0.037621731 3:0.16560267 4:-0.56333306 5:-0.92274788 
-0.0816742211226867 0 1:0.31525 2:0.3619872 3:0.14539157 4:-0.53981475 5:-1.5093243 
-0.09984587384678793 0.06460952423979199 1:0.0043125 2:0.063110616 3:0.44750959 4:-0.48533199 5:-0.95771686 
-0.03983308809123377 0 1:0.26525 2:0.31936242 3:0.16780192 4:-0.50643666 5:-1.5127084 
-0.001519016696807013 0.02807999656465483 1:0.39025 2:0.4078672 3:0.13697722 4:-0.53199534 5:-1.5081963 
-0 0.07902169035205295 1:0.334 2:0.40251521 3:0.13609736 4:-0.55849111 5:-1.499736 
-0.2041778876487548 0 1:0.0324375 2:0.19546444 3:0.42216597 4:-0.55958798 5:-0.91710773 
-0 1.642237425666472 1:0.1261875 2:0.13327945 3:0.25467407 4:-0.561805 5:-0.96674112 
-0.6841621673701959 0 1:0.112125 2:0.29480675 3:0.14433928 4:-0.58017975 5:-1.1900914 
-0.0151706719381184 0 1:0.0324375 2:0.20444688 3:0.33274535 4:-0.56289529 5:-0.91767174 
-0.2665875958404332 0.06308138280962899 1:0.3949375 2:0.4078672 3:0.1403638 4:-0.5458842 5:-1.5070682 
-0 0.9981596746599531 1:0.1168125 2:0.17176019 3:0.19855506 4:-0.5767669 5:-0.88777891 
-0 0.7525456691636491 1:0.1293125 2:0.14566021 3:0.18210385 4:-0.58323469 5:-0.99212183 
-0 0.007194972433329629 1:0.3980625 2:0.4078672 3:0.15223692 4:-0.53318032 5:-1.5076323 
-0 2.611990710300511 1:0.17775 2:0.23477582 3:0.15908745 4:-0.56821992 5:-0.91936379 
-0.2038739335621167 0.06986251569236206 1:0.018375 2:0.13348515 3:0.48323576 4:-0.57302947 5:-0.91767174 
-0 0.003054651708567722 1:0.0574375 2:0.29480675 3:0.18502972 4:-0.57830388 5:-1.1805031 
-1.154470190962449 0 1:-0.0113125 2:0.072471849 3:0.62993198 4:-0.46989018 5:-0.90695544 
-0.02866020290990323 0 1:-0.0113125 2:0.072471849 3:0.73065895 4:-0.49199926 5:-0.90751946 
-0.03538022862551606 0.04983606199323581 1:0.16525 2:0.26957287 3:0.16814966 4:-0.5644019 5:-1.5087603 
-0 2.572305344790587 1:0.0761875 2:0.10708229 3:0.19695899 4:-0.57398164 5:-0.88947095 
-2.369011084766884 0 1:-0.0113125 2:0.045894378 3:0.7812788 4:-0.48285669 5:-0.90751946 
-0.04528922114301653 0 1:0.1293125 2:0.20760365 3:0.18723744 4:-0.58470449 5:-0.99268584 
-0.02560809259696022 0 1:0.0168125 2:0.10748151 3:0.37922651 4:-0.5778096 5:-0.89567513 
-0.1794779153593486 0 1:0.1949375 2:0.24732047 3:0.16332577 4:-0.58477873 5:-1.0079143 
-0.06901965171859803 1.520223825250831 1:0.218375 2:0.12048463 3:0.12185069 4:-0.58796742 5:-0.94079639 
-0.2549285877982414 0 1:0.2668125 2:0.294724 3:0.1508065 4:-0.50731655 5:-1.5127084 
-0.06636086423412575 0 1:0.0324375 2:0.063710974 3:0.48285084 4:-0.57940016 5:-0.92387592 
-0.04887547179186683 0 1:0.0386875 2:0.13348515 3:0.33771914 4:-0.57285618 5:-0.92387592 
-0.09125028839026122 0.02355282658662753 1:0.1918125 2:0.24386505 3:0.19440367 4:-0.540786 5:-1.5059402 
-0.1636795099326104 1.92828300401136 1:-0.0113125 2:0.031916992 3:0.13931486 4:-0.5330937 5:-0.94136041 
-0.03543955500080463 0.07912036703161496 1:0.1543125 2:0.16775134 3:0.225622 4:-0.58520177 5:-0.99324986 
-0.4673247319415512 0.2269383916665553 1:0.0824375 2:0.42452607 3:0.16532086 4:-0.5757145 5:-1.1816311 
-0.01485352145045621 0 1:0.030875 2:0.072737729 3:0.40988723 4:-0.58389164 5:-0.92387592 
-0.2418452883494844 0.09333055835720945 1:0.143375 2:0.2102921 3:0.17960546 4:-0.56129314 5:-1.4952239 
-1.903797349511787 0 1:0.1949375 2:0.067356519 3:0.092879029 4:-0.58023318 5:-1.1528663 
-0 0.04563499433215648 1:0.659 2:0.71523517 3:0.21419587 4:-0.49753442 5:-1.4433345 
-0.03975192649955573 0 1:-0.0019375 2:0.068628528 3:0.23175923 4:-0.55967507 5:-0.77779583 
-0.02939709051736295 0 1:0.3105625 2:0.12211457 3:0.10593639 4:-0.58087578 5:-0.85111788 
-0 1.123408665910136 1:0.1886875 2:0.094760149 3:0.086901404 4:-0.57398133 5:-1.1195894 
-0 0.3187729432471055 1:0.3105625 2:0.12211457 3:0.10612917 4:-0.58027419 5:-0.8516819 
-0 0.2437350341859801 1:0.309 2:0.098608978 3:0.11099791 4:-0.57724149 5:-0.85224591 
-0.2302298656994891 0 1:0.687125 2:0.70554728 3:0.21994484 4:-0.48562465 5:-1.4422064 
-0 0.03438769220673413 1:0.259 2:0.0849416 3:0.12150153 4:-0.57085142 5:-0.85280993 
-0 5.485855794221209 1:0.0574375 2:0.020200104 3:0.12583024 4:-0.59026293 5:-1.106053 
-0.06396937305342469 0 1:0.2136875 2:0.049814585 3:0.12615512 4:-0.58340152 5:-0.85280993 
-1.085896430767613 0 1:0.124625 2:0.047464177 3:0.10263 4:-0.58710167 5:-1.1308697 
-0.0454314101993858 2.121689073632846 1:0.1449375 2:0.027677396 3:0.13673443 4:-0.58808605 5:-0.85450197 
-0 0.06462256020159707 1:-0.012875 2:0.030278439 3:0.16997636 4:-0.5070196 5:-1.0056582 
-0.03072556466988897 0 1:0.1605625 2:0.066358626 3:0.11975573 4:-0.58499495 5:-0.93290017 
-0.4467286256062857 0 1:0.35275 2:0.085692306 3:0.099566866 4:-0.57397136 5:-0.85506599 
-0 8 1:0.04025 2:0.043444407 3:0.15199815 4:-0.57491485 5:-1.0259628 
-0 0.02761210251674452 1:0.593375 2:0.70554728 3:0.22789399 4:-0.52017602 5:-1.4422064 
-0.124238691806794 0.1045860063207685 1:0.19025 2:0.081706547 3:0.10078712 4:-0.58956687 5:-0.79866441 
-0 5.795344676365721 1:0.034 2:0.042920715 3:0.18830411 4:-0.58713942 5:-0.93684828 
-0.1963959819085003 0.2892506570682926 1:0.6386875 2:0.74407373 3:0.25119149 4:-0.50700279 5:-1.4455905 
-0.006271425489469068 0 1:0.143375 2:0.028564381 3:0.17823785 4:-0.57728477 5:-0.86070615 
-0.3417556371431601 0.1632080426496881 1:0.359 2:0.5378928 3:0.3125194 4:-0.53264071 5:-1.1793751 
-0.1909614876695863 0.3181629531205935 1:0.2168125 2:0.69517282 3:0.19045985 4:-0.56181899 5:-0.97858545 
-0 4.802330673995559 1:0.0824375 2:0.11513881 3:0.21841974 4:-0.57711213 5:-0.70221771 
-0 0.4036530126423997 1:0.1418125 2:0.048567625 3:0.17332755 4:-0.58090639 5:-0.78005189 
-0.02645280393247686 0.3674191638623559 1:0.2324375 2:0.28554257 3:0.1871268 4:-0.56454742 5:-0.97463734 
-0.1484010180028888 0 1:0.1199375 2:0.048566326 3:0.18015493 4:-0.58917297 5:-0.95264072 
-0.1032924498869373 3.117309294937697 1:0.012125 2:0.034991487 3:0.36479108 4:-0.56963516 5:-0.73323858 
-0.002773615921310817 0 1:0.3949375 2:0.51690523 3:0.31043831 4:-0.5132352 5:-1.1810671 
-0.07023044269852369 0.02921233573733584 1:0.462125 2:0.26371074 3:0.1780803 4:-0.55142085 5:-1.0186306 
-0.1185476447533431 2.824020665998373 1:0.262125 2:0.64741623 3:0.18286183 4:-0.55264138 5:-0.98535364 
-0.04764843296324803 2.48009766384445 1:0.2293125 2:0.53573013 3:0.1914358 4:-0.56427128 5:-0.98478962 
-0 0.1224626935952592 1:0.074625 2:0.034991487 3:0.2058444 4:-0.57847497 5:-0.76425945 
-0.08001742118210695 0 1:0.018375 2:0.11513881 3:0.33720496 4:-0.53965023 5:-0.67909306 
-0.3330426591252806 0 1:0.059 2:0.39693403 3:0.29703748 4:-0.5765296 5:-0.93346418 
-0 0.7347512958887116 1:-0.0113125 2:0.038046275 3:0.4950763 4:-0.44363696 5:-0.7411348 
-0.3015243272789088 0 1:0.1730625 2:0.3709527 3:0.2037462 4:-0.57571878 5:-0.97632939 
-0.001513766249682789 0 1:0.1886875 2:0.28192787 3:0.18512545 4:-0.57945607 5:-0.9695612 
-0 0.2607231915758329 1:-0.006625 2:0.020919164 3:0.21830574 4:-0.54250279 5:-0.85675804 
-0.05692676744370787 0 1:-0.0113125 2:0.038046275 3:0.58525755 4:-0.43256056 5:-0.7411348 
-0.09284785244762377 1.161516663403141 1:0.2574375 2:0.6120697 3:0.18423769 4:-0.55362072 5:-0.98084151 
-0 0.07646519619418231 1:0.030875 2:0.060391382 3:0.26210656 4:-0.55545318 5:-0.91485166 
-0.3019935357825554 0.1339081883894804 1:0.3793125 2:0.47416049 3:0.31134432 4:-0.45839791 5:-1.1855792 
-0.2132864953646052 0 1:0.387125 2:0.22970978 3:0.20731976 4:-0.54769057 5:-1.0231427 
-0.483824680203546 0.2162408779162032 1:0.987125 2:0.85785533 3:0.1918936 4:-0.46441838 5:-1.1855792 
-0.2989418204977782 0 1:0.3543125 2:0.28578947 3:0.15336558 4:-0.5838059 5:-0.80035646 
-0.1415485384168293 0 1:0.21525 2:0.20414823 3:0.17580241 4:-0.58079634 5:-0.75015905 
-0 0.7743060921216651 1:0.012125 2:0.041913663 3:0.19178888 4:-0.57564694 5:-0.72872645 
-0.2287818744490153 0.6020412903874152 1:0.262125 2:0.45517943 3:0.19447856 4:-0.54961806 5:-0.9802775 
-0.2081265007824605 1.618548276496254 1:0.212125 2:0.048968865 3:0.13812172 4:-0.56506594 5:-0.91428765 
-0.3088508531483432 0.1373793678889573 1:0.3136875 2:0.4413645 3:0.3303937 4:-0.51111187 5:-1.1816311 
-0.2376253989070199 0 1:0.51525 2:0.34163519 3:0.17272028 4:-0.55593021 5:-1.0378071 
-0 8 1:0.01525 2:0.06293178 3:0.41431825 4:-0.56178542 5:-0.73380259 
-0.1829404100054789 0 1:0.05275 2:0.11303748 3:0.25324179 4:-0.57415328 5:-0.69206543 
-0.128968309531648 0.3587153294313594 1:0.480875 2:0.34163519 3:0.16293636 4:-0.56432317 5:-1.0310389 
-0 3.213010888563495 1:0.037125 2:0.076334113 3:0.35188177 4:-0.54688809 5:-0.73380259 
-0.6418687431987006 0 1:-0.0113125 2:0.093845818 3:0.27496071 4:-0.44395917 5:-1.0372431 
-0.2620074271433767 0.05797259601683424 1:0.5168125 2:0.27630718 3:0.16383052 4:-0.55665691 5:-1.0242707 
-0.2155013252979551 0 1:0.20275 2:0.50244715 3:0.19209803 4:-0.57585231 5:-0.98366159 
-0 2.227243317352303 1:0.168375 2:0.1839776 3:0.21386152 4:-0.58061499 5:-0.73380259 
-0.2335632399370241 0 1:-0.012875 2:0.029182548 3:0.51504247 4:-0.43214149 5:-0.73831472 
-0.06518883518815798 0.02904776253358798 1:0.362125 2:0.45237114 3:0.3140744 4:-0.53852636 5:-1.1720429 
-0.184090002901056 0 1:0.1855625 2:0.68464853 3:0.20895181 4:-0.55865184 5:-0.95207671 
-0 6.972037900714311 1:0.1011875 2:0.067356519 3:0.20388113 4:-0.58634648 5:-0.95376875 
-0.06680363062631321 0 1:0.2699375 2:0.19103598 3:0.16521195 4:-0.5778 5:-0.77102764 
-0.3033086380415572 0.135106892891707 1:0.8918125 2:0.80251621 3:0.20775977 4:-0.50832071 5:-1.1720429 
-0.01866479370084545 0 1:-0.0113125 2:0.029182548 3:0.55702103 4:-0.41165428 5:-0.73775071 
-0.03279310423566986 0 1:0.1074375 2:0.15765183 3:0.16349099 4:-0.57720371 5:-0.94192442 
-0.1094886145674368 0 1:0.1293125 2:0.21079826 3:0.24957036 4:-0.57750206 5:-0.96335702 
-0.4191957497503406 0.1873583086460769 1:0.8105625 2:0.77447141 3:0.21952154 4:-0.52422475 5:-1.1714788 
-0.08629436417177376 0 1:0.049625 2:0.15765183 3:0.21775033 4:-0.57586856 5:-0.92105584 
-0 1.170676079477199 1:0.1543125 2:0.074837948 3:0.2050005 4:-0.58549006 5:-0.94756458 
-0 1.380247818310912 1:0.0168125 2:0.11105804 3:0.34017215 4:-0.55601951 5:-0.67965708 
-0 0.2911504371681722 1:0.174625 2:0.25259983 3:0.15998644 4:-0.5371313 5:-1.1923474 
-0 0.1670542950806058 1:0.130875 2:0.20057752 3:0.17079217 4:-0.54395622 5:-1.1923474 
-0.1610226729651862 0 1:-0.012875 2:0.027757899 3:0.28023698 4:-0.42458782 5:-0.86296221 
-0.003919923774517645 0 1:0.1418125 2:0.55080001 3:0.078178616 4:-0.57592742 5:-1.6136672 
-0.2448774785892617 0.0868944095883543 1:0.1136875 2:0.19651915 3:0.065084974 4:-0.58273811 5:-1.5375251 
-0.08549904078555894 0 1:-0.0113125 2:0.059227963 3:0.17965093 4:-0.47845744 5:-0.73775071 
-0 0.004394192552070147 1:0.1230625 2:0.35301917 3:0.10057475 4:-0.5792653 5:-1.5978748 
-0.359749604437936 0 1:0.234 2:0.30238938 3:0.10731836 4:-0.50930112 5:-1.1979876 
-0.09747368727963471 0.04330924706788823 1:0.11525 2:0.3858951 3:0.079501354 4:-0.57915617 5:-1.6142312 
-0.03049267690273998 1.248082504997854 1:0.17775 2:0.22689202 3:0.13754938 4:-0.51633438 5:-1.1979876 
-0.246942001652464 0.1186537081516551 1:0.0918125 2:0.45364699 3:0.1082509 4:-0.5804181 5:-1.5990028 
-0.3062726170542026 0 1:-0.0113125 2:0.027757899 3:0.41150742 4:-0.43334665 5:-0.86465426 
-0.3700669600291586 0.1658276200955856 1:0.0980625 2:0.57578662 3:0.1121997 4:-0.5773555 5:-1.5995668 
-0 1.419550524239426 1:0.01525 2:0.030278439 3:0.110827 4:-0.57435331 5:-1.1195894 
-0.2031990985591255 0 1:-0.012875 2:0.019910468 3:0.14536025 4:-0.42737455 5:-0.81558488 
-0.2380231699406704 0.1070814144794929 1:0.184 2:0.59478569 3:0.088315975 4:-0.56523899 5:-1.6215635 
-0.3187467303733308 0.09505100646466225 1:0.0855625 2:0.057068128 3:0.081693681 4:-0.58553825 5:-1.5403452 
-0.3860281178944195 0 1:0.2011875 2:0.27775096 3:0.10621011 4:-0.55543225 5:-1.1974236 
-0.1147734808226611 0 1:-0.0113125 2:0.019309612 3:0.27567522 4:-0.452193 5:-0.88721489 
-0.2081085376089899 0.07969472851870747 1:0.180875 2:0.3858951 3:0.078016238 4:-0.56877305 5:-1.6035149 
-0.05405602469993095 4.5630520974616 1:0.0215 2:0.019089518 3:0.11176176 4:-0.5886072 5:-0.87762662 
-0.1405554918802314 0 1:0.0793125 2:0.25354179 3:0.27968577 4:-0.50806186 5:-0.90357135 
-0.05175125714610614 0 1:-0.012875 2:0.030350481 3:0.090580776 4:-0.45844596 5:-0.85337394 
-2.51817325992903 0 1:0.055875 2:0.12929052 3:0.17881121 4:-0.56407609 5:-1.1883993 
-0 0.08577946675021317 1:0.2199375 2:0.27775096 3:0.094885654 4:-0.53872694 5:-1.2008077 
-0.3031186706578267 0.1463621834804538 1:0.1574375 2:0.17655237 3:0.085173402 4:-0.5819528 5:-1.5956187 
-0.06300046806141901 0 1:0.0730625 2:0.027673571 3:0.44195067 4:-0.5104637 5:-0.90413536 
-0.2983564064296981 0.1267688588778558 1:0.1574375 2:0.30251117 3:0.088663785 4:-0.57849677 5:-1.5961827 
-0.07456928897310813 0 1:0.0793125 2:0.3651831 3:0.22754343 4:-0.53218309 5:-0.90469938 
-0.2378278033108224 0.1129094261410888 1:0.1668125 2:0.46535008 3:0.095966263 4:-0.56720288 5:-1.6232555 
-0.8490816964893717 0 1:0.059 2:0.073109093 3:0.11954618 4:-0.57150973 5:-1.1590705 
-0.4966587753055799 0.2239765418627289 1:0.009 2:0.35203874 3:0.16612172 4:-0.5639979 5:-1.6006949 
-0.2930568556851629 0 1:-0.012875 2:0.040031045 3:0.16778869 4:-0.40577665 5:-0.891163 
-0.4516255597801929 0.2981638808673621 1:0.00275 2:0.046747615 3:0.19833249 4:-0.57521604 5:-1.6006949 
-0.03762956335907058 0 1:-0.0081875 2:0.019089518 3:0.30306617 4:-0.49724251 5:-0.86803835 
-0.02971251153636279 0 1:0.0761875 2:0.11382945 3:0.37899095 4:-0.48603822 5:-0.9052634 
-0.1301974278703607 0 1:0.0605625 2:0.108554 3:0.16647126 4:-0.57390437 5:-1.6012589 
-0.08286064374762678 0.03610764412016911 1:0.1918125 2:0.68278764 3:0.078454686 4:-0.56661695 5:-1.6097191 
-0.1657725021250613 0 1:-0.012875 2:0.078122993 3:0.088043431 4:-0.49561911 5:-0.74057078 
-0.36298952156719 0.163502151841983 1:0.1965 2:0.68930915 3:0.094601256 4:-0.56115739 5:-1.6209994 
-0.04328587149285528 0 1:0.0636875 2:0.07213194 3:0.088653981 4:-0.58542667 5:-1.5206046 
-0 1.135726470217852 1:0.06525 2:0.24495124 3:0.31493495 4:-0.53200867 5:-0.90582741 
-0.2693402204567586 0.2400858320922994 1:0.0543125 2:0.16101554 3:0.15857762 4:-0.57296712 5:-1.6012589 
-0.1825357916132095 0 1:0.0761875 2:0.17470207 3:0.38587371 4:-0.49118141 5:-0.90582741 
-0.1026966443240832 0 1:0.0168125 2:0.14629099 3:0.15682527 4:-0.57186546 5:-1.6012589 
-2.178414347006991 0.05435698540935502 1:-0.0113125 2:0.027728113 3:0.66512816 4:-0.38463999 5:-0.86747434 
-0.1263558453965049 0 1:0.0761875 2:0.036326217 3:0.42798825 4:-0.49875118 5:-0.90582741 
-0.2830532945718929 0 1:0.1293125 2:0.213814 3:0.3346882 4:-0.54468933 5:-0.77666779 
-0 7.481588039808515 1:-0.0035 2:0.01802078 3:0.18486442 4:-0.55760998 5:-0.70672984 
-0 5.34239025251365 1:0.018375 2:0.039446956 3:0.22749102 4:-0.58256125 5:-1.3113548 
-0 7.985119107793256 1:0.0543125 2:0.092967989 3:0.29787038 4:-0.57522806 5:-0.85563001 
-0.2793532416207337 0 1:0.2605625 2:0.37359659 3:0.25142623 4:-0.51762197 5:-0.78005189 
-0.1718664454177185 0 1:0.0168125 2:0.19171544 3:0.2462697 4:-0.55330648 5:-0.88721489 
-0 3.385122912018665 1:0.0543125 2:0.094446323 3:0.2781087 4:-0.5746947 5:-0.85675804 
-0.1776163378209389 0 1:0.184 2:0.32655398 3:0.29306314 4:-0.54663074 5:-0.78061591 
-0.1370652264356943 0 1:0.20275 2:0.19188012 3:0.10580198 4:-0.58597499 5:-1.0919526 
-0.004737656993493251 0 1:-0.006625 2:0.067582016 3:0.30548471 4:-0.54095277 5:-0.88552284 
-0.1619960500815419 0 1:0.1324375 2:0.27229003 3:0.17459379 4:-0.56417756 5:-1.07052 
-0.07329874708513529 0 1:0.1511875 2:0.26671413 3:0.28556436 4:-0.56912109 5:-1.1517383 
-0.2052706106587965 0 1:0.037125 2:0.26590317 3:0.20299153 4:-0.55869321 5:-0.89229103 
-0.05662121270628179 0 1:0.018375 2:0.10794168 3:0.2894966 4:-0.57590517 5:-0.84491371 
-0 1.988119116949412 1:0.1324375 2:0.12971314 3:0.13594949 4:-0.58668851 5:-1.0930807 
-0.08496761945232986 0 1:-0.0081875 2:0.097717635 3:0.34919085 4:-0.48270061 5:-0.83645347 
-0.2011881294281796 0 1:-0.012875 2:0.0588867 3:0.43516868 4:-0.37239069 5:-0.74677496 
-0 0.6973036410182447 1:0.2215 2:0.39653344 3:0.24474057 4:-0.54867514 5:-0.78343598 
-1.027234992741808 1.870431892040815 1:0.055875 2:0.056370868 3:0.39203777 4:-0.56176771 5:-1.1630186 
-0.3615185159550775 0 1:0.349625 2:0.12681023 3:0.134959 4:-0.58693715 5:-1.1528663 
-0.2166347955976269 0 1:0.0855625 2:0.33561615 3:0.18623884 4:-0.55042852 5:-0.90018725 
-0.3017118417147352 0.05824663295549039 1:-0.012875 2:0.089857036 3:0.49964365 4:-0.32802881 5:-0.74677496 
-0.1400814510445021 0 1:0.168375 2:0.39653344 3:0.2882478 4:-0.56324292 5:-0.77215567 
-0.05189992249238184 0 1:0.2949375 2:0.26635585 3:0.18044519 4:-0.58071925 5:-1.1635826 
-0 1.226029624076423 1:0.055875 2:0.035875899 3:0.20806323 4:-0.58261684 5:-1.1190254 
-0.06558497839361546 0.04934300981182431 1:0.2449375 2:0.33697818 3:0.11935709 4:-0.58155059 5:-1.1195894 
-0 2.487805682872688 1:0.0949375 2:0.13173872 3:0.31808462 4:-0.57249566 5:-0.78287197 
-0.3174976474980483 0 1:0.2543125 2:0.14442554 3:0.23903462 4:-0.58363083 5:-1.1641466 
-0 0.9929851488934065 1:0.0074375 2:0.028258175 3:0.25732416 4:-0.57093435 5:-0.7270344 
-0 0.1349674381835236 1:-0.012875 2:0.042957152 3:0.35592106 4:-0.37248852 5:-0.74677496 
-0 0.9868508143213377 1:0.17775 2:0.35027939 3:0.27322705 4:-0.53541401 5:-0.80092047 
-0 1.859487729246704 1:0.0886875 2:0.30810882 3:0.20758767 4:-0.54674566 5:-0.90639143 
-0.4210318412498538 0.2054298297076193 1:0.2886875 2:0.49684154 3:0.14087839 4:-0.58171517 5:-1.1630186 
-0.1928807935126109 0.09956833188564168 1:0.2465 2:0.40576415 3:0.15659234 4:-0.57731347 5:-1.1652747 
-0 4.627508007830221 1:-0.00975 2:0.012248541 3:0.15284967 4:-0.51893524 5:-1.0975928 
-0.1455793982372431 0.02262335152244803 1:0.32775 2:0.38289801 3:0.17933329 4:-0.57198215 5:-1.1641466 
-0.118551294353683 0.05677890851906865 1:0.355875 2:0.36013091 3:0.17185504 4:-0.57420365 5:-1.1658387 
-0 4.871180026428668 1:0.1605625 2:0.21422616 3:0.21308315 4:-0.5672077 5:-0.90808347 
-0.1430886058919479 0 1:-0.00975 2:0.023840904 3:0.4887114 4:-0.52852662 5:-0.89736717 
-0 4.985881819602206 1:0.205875 2:0.4114886 3:0.21269381 4:-0.54918309 5:-0.92556796 
-0.3883117605196155 0 1:0.0824375 2:0.38511092 3:0.28951588 4:-0.5687937 5:-0.76989961 
-3.54553465085143 0 1:-0.0113125 2:0.029439078 3:0.36412635 4:-0.46429276 5:-1.0541636 
-0 1.438862409287496 1:0.2074375 2:0.48918087 3:0.23118159 4:-0.54182886 5:-0.926696 
-0.008631501028327365 0 1:0.059 2:0.1931287 3:0.28589386 4:-0.57354682 5:-0.77046362 
-0.002403294640889915 0.5187680510038556 1:0.184 2:0.16355026 3:0.26548646 4:-0.55501231 5:-1.1652747 
-0.09012475718622391 1.132497829434214 1:0.043375 2:0.15291375 3:0.32066113 4:-0.58780274 5:-0.76707953 
-0 0.1992058039313971 1:0.293375 2:0.18492062 3:0.17438321 4:-0.57371218 5:-1.1658387 
-0 2.474758546275075 1:0.0011875 2:0.053782781 3:0.16509417 4:-0.54118245 5:-1.034987 
-0 3.323384845366823 1:0.1105625 2:0.072223808 3:0.14961968 4:-0.57503444 5:-1.3384275 
-0.01937573352127495 0 1:0.1136875 2:0.35027939 3:0.24846345 4:-0.5630807 5:-0.77666779 
-0 8 1:0.0199375 2:0.050718972 3:0.16530155 4:-0.57576642 5:-1.0834924 
-0.02111897473874371 0 1:0.02775 2:0.12959655 3:0.44326869 4:-0.58167636 5:-0.76087535 
-0 4.490644385583285 1:0.074625 2:0.045894378 3:0.18297427 4:-0.57982331 5:-1.3316593 
-0.116341090166692 1.782293521827233 1:0.2074375 2:0.59948475 3:0.26357406 4:-0.54429935 5:-0.93064411 
-0.1879815062390898 0 1:0.0605625 2:0.19403906 3:0.23316448 4:-0.58620668 5:-0.76764354 
-0.209516222882963 0 1:0.0230625 2:0.053849767 3:0.49414279 4:-0.56016857 5:-0.76369543 
-0 0.9251376662630175 1:-0.00975 2:0.024522735 3:0.178535 4:-0.53537176 5:-1.0569836 
-0 3.24124993316113 1:0.12775 2:0.045737867 3:0.17109522 4:-0.57543499 5:-1.3322234 
-2.061129682258007 0 1:-0.00975 2:0.028476087 3:0.25911651 4:-0.44711235 5:-1.0581117 
-0 1.317590432342213 1:0.2136875 2:0.55486583 3:0.2741672 4:-0.54062913 5:-0.93515623 
-0.3071550601088977 0.1924038591484736 1:-0.0113125 2:0.040173762 3:0.92967664 4:-0.46138969 5:-0.75128708 
-0 7.450337070032511 1:0.21525 2:0.51263931 3:0.28507616 4:-0.54079788 5:-0.93628426 
-0.1535743278244155 0.4638593420882993 1:0.09025 2:0.20057752 3:0.18852731 4:-0.53911827 5:-0.74677496 
-0.3127596481059878 1.733817049080731 1:0.00275 2:0.051195029 3:0.69963732 4:-0.55448465 5:-0.75636323 
-0.1866873832628567 0 1:0.243375 2:0.37846146 3:0.14553752 4:-0.58223928 5:-1.1652747 
-0.1119957026865407 0 1:0.137125 2:0.22709934 3:0.15031253 4:-0.58041384 5:-1.3412476 
-0 1.182297134269652 1:0.0543125 2:0.037621731 3:0.20286394 4:-0.56391791 5:-0.74677496 
-0.2844816247936865 0.01492698963004766 1:0.030875 2:0.18359269 3:0.41639585 4:-0.57431303 5:-0.76087535 
-0 0.4740543907829394 1:0.2761875 2:0.15220413 3:0.16089234 4:-0.5875521 5:-1.1652747 
-0.216051545143293 0 1:0.14025 2:0.25011914 3:0.18153966 4:-0.55904446 5:-0.7625674 
-0 0.7340487396415076 1:0.243375 2:0.14024476 3:0.21736225 4:-0.58929542 5:-1.1658387 
-0.07243439921969073 0.4069845066751789 1:-0.0113125 2:0.070211711 3:0.63682323 4:-0.46642268 5:-0.75128708 
-0.01282859049445697 0.1116723301708563 1:-0.012875 2:0.058084772 3:0.68717625 4:-0.43904869 5:-0.75128708 
-0.3827223129794026 0.3210405354794656 1:0.124625 2:0.32655398 3:0.3731251 4:-0.55827835 5:-0.94305245 
-0.07346573903742275 0 1:0.062125 2:0.093758979 3:0.45314805 4:-0.5499015 5:-1.1680948 
-0.3940559039999829 0.07933296543012687 1:0.1324375 2:0.53387827 3:0.34764069 4:-0.54829829 5:-0.94643655 
-0.03409464508897058 0.4009887469157155 1:-0.0113125 2:0.09528697 3:0.49185714 4:-0.45945026 5:-0.7518511 
-0.8515988150840159 0 1:-0.012875 2:0.020021175 3:0.16074549 4:-0.45940222 5:-1.1032329 
-0.1456846949809077 0 1:0.2199375 2:0.49113353 3:0.32379253 4:-0.54376232 5:-0.97971348 
-0.2072964217168563 5.69256537087263 1:0.2761875 2:0.19091436 3:0.11785379 4:-0.56741274 5:-1.3694484 
-0.2902957269711376 0 1:0.2918125 2:0.58590675 3:0.29427651 4:-0.5061353 5:-0.98084151 
-0.2787109446177102 0.1526174765141903 1:0.1230625 2:0.30488734 3:0.28487943 4:-0.5686197 5:-1.1601985 
-0.07471829848447145 0 1:-0.0113125 2:0.063049236 3:0.81990291 4:-0.31712767 5:-0.75241512 
-0.3898804874367331 0.1668378240633261 1:0.04025 2:0.24382518 3:0.38064081 4:-0.54378906 5:-1.1607625 
-0.008438577422058729 0 1:0.2918125 2:0.53387827 3:0.31777321 4:-0.49366843 5:-0.98253356 
-0.04663701989459616 0 1:0.1543125 2:0.34224306 3:0.22546006 4:-0.56279095 5:-1.1652747 
-1.63085341708235 0 1:0.018375 2:0.10493372 3:0.55314941 4:-0.46540705 5:-1.2662335 
-0.4234169459467743 0.1375450810232046 1:-0.0113125 2:0.032285551 3:0.85451846 4:-0.30945174 5:-0.75241512 
-0.3367547108411967 0 1:0.1449375 2:0.12517324 3:0.40175215 4:-0.55445479 5:-1.1664027 
-8 0 1:0.030875 2:0.073647723 3:0.23293194 4:-0.55516602 5:-1.1618906 
-3.342467476324748 0 1:0.009 2:0.07451371 3:0.57369976 4:-0.50117221 5:-1.2667975 
-1.219278437001429 0 1:0.009 2:0.07451371 3:0.50623043 4:-0.47323303 5:-1.2679255 
-0.03168918529207345 0 1:0.1449375 2:0.29398951 3:0.27692075 4:-0.54873149 5:-1.1680948 
-0.22390136633632 0 1:0.259 2:0.4802754 3:0.35338146 4:-0.50739301 5:-0.96335702 
-8 0 1:0.0011875 2:0.042957152 3:0.58420431 4:-0.50192297 5:-1.2684896 
-0.0680993108669508 0.005791718433540788 1:-0.0113125 2:0.040841057 3:0.68294856 4:-0.32124909 5:-0.75297913 
-0 0.3656545544859188 1:0.0324375 2:0.081511162 3:0.2706843 4:-0.54460314 5:-1.1630186 
-0.2900166316042644 0.1509612794398006 1:0.35275 2:0.45833754 3:0.3501139 4:-0.46833417 5:-0.96448505 
-1.928890806032677 0.6656613417613343 1:0.0011875 2:0.026704114 3:0.49589052 4:-0.48614666 5:-1.2696176 
-0.8155766327582864 0.189236716753851 1:-0.00975 2:0.040338903 3:0.68772633 4:-0.20779807 5:-0.75297913 
-0.2577509365824915 0 1:0.2449375 2:0.24722779 3:0.23633975 4:-0.55954209 5:-1.1686588 
-0 2.492689881391562 1:-0.012875 2:0.020021175 3:0.071985688 4:-0.51424972 5:-1.0614958 
-0.3160049270375585 0 1:-0.012875 2:0.020079072 3:0.088148501 4:-0.52788931 5:-1.354784 
-0.3301577131618301 4.091646645733273 1:-0.0035 2:0.010104198 3:0.36919555 4:-0.51568037 5:-1.2701816 
-0.2221541768327674 0.1342403900289416 1:-0.0113125 2:0.039875118 3:0.58853875 4:-0.29114952 5:-0.75297913 
-0 0.9353645518705104 1:0.249625 2:0.24602717 3:0.220885 4:-0.54888029 5:-1.1686588 
-0.05996452645166871 0 1:0.055875 2:0.14866788 3:0.14927688 4:-0.57496464 5:-1.3474518 
-0.3341639732168302 0.08266527391494541 1:-0.012875 2:0.020919164 3:0.32870156 4:-0.36702804 5:-0.75297913 
-1.217504367684255 0.07601303371924607 1:0.155875 2:0.24546513 3:0.12524657 4:-0.57837481 5:-1.3530919 
-0.008363413297618832 0 1:0.368375 2:0.51263931 3:0.31067884 4:-0.48810501 5:-0.96674112 
-0.08540866789606023 0 1:-0.00975 2:0.019217227 3:0.071052122 4:-0.47826913 5:-1.068828 
-0.1073041570951143 0 1:0.39025 2:0.4802754 3:0.2862401 4:-0.5096801 5:-0.96279301 
-2.626045650763071 0.2672359531502225 1:0.255875 2:0.37379219 3:0.11060379 4:-0.57167425 5:-1.3688844 
-0.2278547184052772 0.003370641141767774 1:0.337125 2:0.36725243 3:0.32047434 4:-0.47333524 5:-0.96335702 
-0 8 1:0.0355625 2:0.022083709 3:0.16647602 4:-0.57243001 5:-1.3451957 
-0 1.877730584001509 1:0.2043125 2:0.20295113 3:0.11681568 4:-0.57577927 5:-1.3694484 
-0 4.860191299127838 1:-0.0113125 2:0.019047363 3:0.35083972 4:-0.49296776 5:-1.1652747 
-0 2.21850678178633 1:0.074625 2:0.03647521 3:0.14554122 4:-0.58188583 5:-1.320943 
-0.297213176098663 0 1:0.2761875 2:0.33150169 3:0.33733841 4:-0.54076976 5:-0.94305245 
-0 4.488815844381289 1:0.037125 2:0.020839775 3:0.16316324 4:-0.55049187 5:-1.3446317 
-0 5.691019405487007 1:0.0574375 2:0.027857473 3:0.14328091 4:-0.58318197 5:-1.3153029 
-0 0.4435712649023194 1:0.287125 2:0.36725243 3:0.30334239 4:-0.55085977 5:-0.94136041 
-0 8 1:0.037125 2:0.020109631 3:0.15960806 4:-0.55583104 5:-1.3435037 
-0 0.3849309423283799 1:0.1043125 2:0.14283055 3:0.13011645 4:-0.58146645 5:-1.3468878 
-0.05046044876010698 1.74620160352326 1:0.0386875 2:0.019769969 3:0.17802848 4:-0.48674658 5:-1.3435037 
-2.178748587276007 1.795007012082418 1:-0.0113125 2:0.037133503 3:0.36954299 4:-0.38191655 5:-1.1128212 
-6.085491911466825 0 1:0.0215 2:0.15002143 3:0.19501367 4:-0.54754744 5:-1.1703508 
-0 8 1:0.0324375 2:0.035109854 3:0.15910363 4:-0.58279827 5:-0.67852905 
-0.199453590470089 2.106599179128992 1:0.1574375 2:0.069933222 3:0.10963826 4:-0.57833999 5:-0.73436661 
-0.8808159441081664 3.231709002209667 1:-0.012875 2:0.028251916 3:0.33432567 4:-0.41794788 5:-1.1128212 
-0 0.0872532718758378 1:0.0918125 2:0.072737729 3:0.12065736 4:-0.57717595 5:-1.355348 
-0 8 1:0.0324375 2:0.035875899 3:0.20965705 4:-0.56386274 5:-0.67909306 
-0.06726829722213112 0 1:0.0136875 2:0.015222295 3:0.13499853 4:-0.5834917 5:-0.73662267 
-0 8 1:0.037125 2:0.031916992 3:0.24138344 4:-0.55542138 5:-1.3423756 
-1.904753841973823 0 1:0.0215 2:0.1318324 3:0.25059445 4:-0.53178764 5:-1.1703508 
-0.6520943778015122 0.717951771648613 1:0.0449375 2:0.12160202 3:0.1437833 4:-0.5574516 5:-1.0727761 
-0 8 1:0.0324375 2:0.036426292 3:0.22431759 4:-0.57312653 5:-0.67965708 
-0.1913171829163019 0 1:0.387125 2:0.33150169 3:0.23990812 4:-0.53188705 5:-0.93064411 
-0 8 1:0.037125 2:0.031481249 3:0.27478137 4:-0.5581955 5:-1.3418116 
-0 8 1:0.0324375 2:0.037011644 3:0.22771168 4:-0.58305084 5:-0.68022109 
-0.04702354324840059 0 1:0.3824375 2:0.31936242 3:0.22471648 4:-0.53325423 5:-0.92951607 
-0 0.2968348020304569 1:0.2465 2:0.11778673 3:0.22519367 4:-0.54797967 5:-0.95376875 
-0.3067970129235842 0.1420042615230383 1:-0.0081875 2:0.018554788 3:0.05220546 4:-0.49368918 5:-0.81727693 
-0 0.8372796807539404 1:-0.006625 2:0.061872906 3:0.13299788 4:-0.51842828 5:-1.2216763 
-0 0.5606193930743359 1:0.093375 2:0.15558709 3:0.17200589 4:-0.5650154 5:-0.85393796 
-0.07185580614377898 1.716520591154324 1:0.2465 2:0.11778673 3:0.22501508 4:-0.54490513 5:-0.95376875 
-1.798835475984259 0 1:0.0668125 2:0.13939273 3:0.21127335 4:-0.5737049 5:-1.141586 
-1.583335223897174 0 1:-0.0050625 2:0.061872906 3:0.17173407 4:-0.53005543 5:-1.2222403 
-0 0.1046097179248971 1:0.480875 2:0.58590675 3:0.17496766 4:-0.53438671 5:-1.534141 
-0 0.1069687624708683 1:0.3699375 2:0.22881456 3:0.14385659 4:-0.55747922 5:-0.95376875 
-0 3.791172233400726 1:0.07775 2:0.15550007 3:0.17968441 4:-0.57465397 5:-0.88157473 
-0.1441101935178736 0.1216242905792663 1:0.5136875 2:0.60632602 3:0.15234874 4:-0.54454397 5:-1.5358331 
-0.004744564019528188 0.2512738903760128 1:0.3699375 2:0.22881456 3:0.14231917 4:-0.56029254 5:-0.95376875 
-0.02506254319241694 0 1:0.4480625 2:0.55486583 3:0.17851864 4:-0.54990918 5:-1.5363971 
-0.2858570608204302 0 1:0.3699375 2:0.21422616 3:0.14522908 4:-0.56242133 5:-0.95376875 
-0 8 1:-0.0035 2:0.010325658 3:0.17069405 4:-0.53739173 5:-1.2216763 
-0.07507766762442507 0.002760984894230142 1:0.574625 2:0.61645778 3:0.17054104 4:-0.51980373 5:-1.5375251 
-0 2.251059166229787 1:0.1105625 2:0.17814598 3:0.14116506 4:-0.56948098 5:-0.86014213 
-0.02741237235345502 0.0178917198225602 1:0.693375 2:0.66639289 3:0.15069008 4:-0.52747756 5:-1.5375251 
-0.01769502330506907 0 1:0.549625 2:0.59614282 3:0.18063407 4:-0.55190226 5:-1.5318849 
-0.1123241774344125 0.1138660646855234 1:0.4011875 2:0.52329115 3:0.18058458 4:-0.56284257 5:-1.532449 
-0 0.5235097836786654 1:0.2230625 2:0.20755987 3:0.12622814 4:-0.57078818 5:-0.87819064 
-0.01938009463233238 0.02285541011341139 1:0.7261875 2:0.68605282 3:0.14439858 4:-0.55537642 5:-1.5318849 
-0 2.984539435352437 1:0.0761875 2:0.137432 3:0.1970094 4:-0.5764736 5:-0.88495883 
-8 0 1:-0.000375 2:0.11397235 3:0.17484731 4:-0.55130965 5:-1.1675307 
-0.2355885672616333 0 1:0.224625 2:0.19273437 3:0.11071561 4:-0.57635416 5:-0.87931867 
-0.1497967147873745 1.679583664499129 1:0.2761875 2:0.12822635 3:0.18832118 4:-0.57590962 5:-0.98591765 
-0.04823622692206393 0.03057959859589155 1:-0.00975 2:0.014118724 3:0.042578484 4:-0.49954413 5:-0.66330062 
-0.04395379998566022 0 1:0.0949375 2:0.14963011 3:0.12755471 4:-0.57002131 5:-0.85619402 
-0 0.09466242513097127 1:0.1480625 2:0.1996936 3:0.14495423 4:-0.57885752 5:-1.175427 
-0 0.6555776677778116 1:0.19025 2:0.12822635 3:0.21372812 4:-0.55921099 5:-0.94700056 
-0.3043467369059516 0.01673808552317971 1:-0.0081875 2:0.024522735 3:0.087681091 4:-0.43839361 5:-0.66442865 
-0.1400254540992174 0 1:0.137125 2:0.13737245 3:0.091041174 4:-0.57748388 5:-0.87480654 
-0 1.371198397616829 1:0.1636875 2:0.10251854 3:0.2219373 4:-0.56458346 5:-0.94700056 
-0.02645034553209322 0 1:-0.006625 2:0.035109854 3:0.13310641 4:-0.44878774 5:-0.66499267 
-0.1290639008437649 0.07915240420203844 1:0.62775 2:0.62653953 3:0.13494482 4:-0.53471076 5:-1.534705 
-0 3.330493748903762 1:0.0418125 2:0.022313515 3:0.113555 4:-0.58905179 5:-1.247621 
-0.01464949298085487 0.02207079595834973 1:0.6199375 2:0.62653953 3:0.13984644 4:-0.54369546 5:-1.533013 
-0 3.155170563348097 1:0.074625 2:0.063944035 3:0.10641657 4:-0.58012619 5:-0.88157473 
-0.7251682732014453 2.028457190788119 1:-0.0035 2:0.018910287 3:0.22712948 4:-0.54815278 5:-1.2301365 
-0.4790308928151115 0.2141314856333194 1:0.9605625 2:0.74407373 3:0.11437757 4:-0.56055944 5:-1.535269 
-0.006242338464601219 0 1:0.0965 2:0.13016346 3:0.11043709 4:-0.56738724 5:-0.88213875 
-0 1.21485010799841 1:-0.00975 2:0.018910287 3:0.085242577 4:-0.54174362 5:-1.2301365 
-0.3869566588195691 0.1667033134236474 1:0.774625 2:0.67624409 3:0.13418633 4:-0.532961 5:-1.5358331 
-0.06637611623895673 0 1:0.0761875 2:0.089570589 3:0.10194813 4:-0.5815754 5:-0.88213875 
-0.2409937760887065 0.08415588034103051 1:0.6793125 2:0.64655837 3:0.12106407 4:-0.54488203 5:-1.5313209 
-0.07582871726834448 0 1:0.059 2:0.10359207 3:0.45338559 4:-0.54906756 5:-0.94925663 
-0 2.532498127190341 1:-0.00975 2:0.018903195 3:0.15228953 4:-0.53954341 5:-1.2318285 
-0.1092018989843336 0 1:0.005875 2:0.062275531 3:0.56707334 4:-0.56561339 5:-0.89059898 
-0.1823274684733108 0.002486595518739398 1:0.4761875 2:0.54440256 3:0.19701606 4:-0.51684529 5:-1.5318849 
-0 1.080395994871246 1:0.1386875 2:0.1996936 3:0.15955555 4:-0.57931115 5:-1.1816311 
-0.2570182732598114 0.1044163249367422 1:0.3543125 2:0.46934418 3:0.20855542 4:-0.52603237 5:-1.532449 
-0.1622578435319536 0 1:0.0293125 2:0.10121091 3:0.13761298 4:-0.5776837 5:-0.85957812 
-0.3161303614749322 0 1:0.224625 2:0.12959655 3:0.30892217 4:-0.53839948 5:-0.96053694 
-0.04494896846360547 0 1:0.087125 2:0.14283303 3:0.37918107 4:-0.55788974 5:-0.96053694 
-0.1993637324735215 0 1:0.137125 2:0.14283303 3:0.3483527 4:-0.55575432 5:-0.96053694 
-2.531691443661127 0 1:-0.0113125 2:0.044986517 3:0.83175664 4:-0.4545012 5:-0.88777891 
-0 6.050166358968668 1:0.080875 2:0.066137598 3:0.19008717 4:-0.56459506 5:-0.88552284 
-0.07761609560271958 0 1:0.030875 2:0.036360309 3:0.49762519 4:-0.57157803 5:-0.90413536 
-0.05656923233359099 0 1:0.359 2:0.45833754 3:0.13819661 4:-0.54706846 5:-1.5369611 
-0 0.1566678053595578 1:-0.0113125 2:0.034991487 3:0.24224273 4:-0.45015735 5:-0.85337394 
-0 2.67263351173246 1:0.0074375 2:0.053229181 3:0.26992812 4:-0.55174911 5:-1.2448009 
-0.1920469542123914 0.04591347818416514 1:0.5574375 2:0.58590675 3:0.12553731 4:-0.53697576 5:-1.534705 
-0.1495398188405954 0 1:0.1480625 2:0.20487364 3:0.12297345 4:-0.57096057 5:-0.88495883 
-0.04138529272619654 0.01170295657037236 1:0.51525 2:0.54440256 3:0.16003937 4:-0.52019741 5:-1.5296289 
-1.113590848882817 0 1:-0.0113125 2:0.036517774 3:0.89821945 4:-0.45199097 5:-0.89285505 
-0 1.547833378975351 1:0.02775 2:0.067085315 3:0.19816413 4:-0.57771906 5:-0.84265764 
-0.191645902438475 0.07315238355164871 1:0.4324375 2:0.50192079 3:0.12324434 4:-0.53766224 5:-1.5217327 
-0 0.8687824595395528 1:0.1449375 2:0.20231058 3:0.13039424 4:-0.57247701 5:-0.88495883 
-0.05280000343220251 0.03570080655966697 1:0.4136875 2:0.46330237 3:0.13343512 4:-0.50873132 5:-1.5211686 
-8 -0 1:-0.0113125 2:0.018938714 3:0.47901497 4:-0.36197616 5:-1.1579425 
-0 -1.012270567594932 1:-0.012875 2:0.027549415 3:0.43879896 4:-0.43752608 5:-1.1556864 
-5.599839538772799 -0.8400880811053848 1:-0.0113125 2:0.027549415 3:0.45125642 4:-0.34957164 5:-1.1551224 
-4.941764179968985 -3.540728204304432 1:-0.0113125 2:0.02756605 3:0.541689 4:-0.40226686 5:-1.1539944 
-3.043980672763643 -0 1:-0.0113125 2:0.018950587 3:0.50935811 4:-0.39351292 5:-1.1534303 
-0.2327574841434176 -5.322841609440647 1:-0.0113125 2:0.02756605 3:0.33453809 4:-0.42630961 5:-1.1511743 
-0 -8 1:-0.0113125 2:0.018963666 3:0.37960671 4:-0.4437259 5:-1.1506103 
-2.026799474524863 -1.60728703167396 1:-0.0113125 2:0.018963666 3:0.27098451 4:-0.43010464 5:-1.1500462 
-0.2617674810066939 -0.653719188783679 1:0.35275 2:0.74877568 3:0.20873393 4:-0.52698842 5:-1.0299109 
-0 -0.4789942529187318 1:-0.0113125 2:0.018886669 3:0.10142604 4:-0.34924836 5:-1.3395556 
-0.9045216320191392 -1.328640041556715 1:-0.0113125 2:0.018886669 3:0.077203511 4:-0.33299003 5:-1.3395556 
-0.596806690167471 -1.946580917556688 1:0.3418125 2:0.81304173 3:0.20552235 4:-0.5337798 5:-1.0242707 
-0.1923267413994179 -8 1:0.012125 2:0.036056352 3:0.18074257 4:-0.5730679 5:-0.91992781 
-0.8672405789942333 -1.521947415324963 1:-0.012875 2:0.018886669 3:0.047436838 4:-0.45748546 5:-1.3401196 
-0 -8 1:0.05275 2:0.036058318 3:0.16690643 4:-0.57773199 5:-0.93459222 
-0.4504179379695196 -0.4426306761643812 1:0.2715 2:0.57621124 3:0.21851911 4:-0.54931823 5:-1.0276548 
-0 -0.009728928611485466 1:0.2699375 2:0.68043134 3:0.2251715 4:-0.54955416 5:-1.0129904 
-0.9802862353711959 -1.424051272335482 1:-0.0113125 2:0.019857601 3:0.40747577 4:-0.36157784 5:-1.2978184 
-0.0632502094450719 -0.3627170701011674 1:-0.0113125 2:0.019964983 3:0.28279978 4:-0.3586608 5:-1.2989464 
-0 -8 1:0.018375 2:0.044671693 3:0.17284657 4:-0.57209566 5:-0.90639143 
-0 -0.3358802278862492 1:0.2715 2:0.71273241 3:0.21083562 4:-0.54823606 5:-1.0084783 
-0.2938535649703141 -0.6129582246088535 1:0.2761875 2:0.75569894 3:0.21724038 4:-0.5574046 5:-1.0005821 
-0 -8 1:0.1230625 2:0.096195713 3:0.19096708 4:-0.56588721 5:-0.94587253 
-0.3815722973587758 -0 1:-0.012875 2:0.029101853 3:0.27829825 4:-0.39275247 5:-1.3017665 
-0.09854587007312905 -0.0818749684470494 1:-0.012875 2:0.020138704 3:0.24864831 4:-0.37141449 5:-1.3023305 
-0.9644239584995604 -1.639752735428831 1:-0.0113125 2:0.029182548 3:0.30422435 4:-0.25068646 5:-1.3028945 
-0.2429331743316543 -1.06467289461464 1:-0.012875 2:0.020200104 3:0.21115191 4:-0.38470371 5:-1.3034585 
-0.5268429008262296 -8 1:0.14025 2:0.14803814 3:0.21484012 4:-0.57312254 5:-0.98309757 
-0 -2.610116277678321 1:0.2636875 2:0.6289097 3:0.22353336 4:-0.55240213 5:-1.0124264 
-0 -2.602676791994207 1:0.2761875 2:0.64607938 3:0.21913898 4:-0.54729405 5:-1.0175025 
-0.312172568155844 -0 1:-0.012875 2:0.020328334 3:0.17544032 4:-0.40063571 5:-1.3074067 
-0.5780518343782078 -4.678139009024274 1:0.209 2:0.56644916 3:0.23513599 4:-0.56952228 5:-1.0118624 
-0.06091525091973062 -8 1:0.0965 2:0.079042589 3:0.20492566 4:-0.58194829 5:-0.96110096 
-0 -8 1:0.043375 2:0.027473673 3:0.25445679 4:-0.58155418 5:-0.96053694 
-0.3417036008276633 -0 1:0.2668125 2:0.69645138 3:0.21755528 4:-0.55025569 5:-1.0237067 
-0.7016166475020057 -2.578596426265285 1:0.0386875 2:0.018886669 3:0.2795188 4:-0.58925173 5:-0.95997293 
-0.6716049090931451 -1.118323211532301 1:0.459 2:0.29370103 3:0.14903789 4:-0.54133638 5:-1.3006385 
-0.6821430443041951 -1.106168670381158 1:0.468375 2:0.35027939 3:0.17351993 4:-0.55277253 5:-1.3012025 
-0.1522980429914446 -0 1:0.2886875 2:0.78381668 3:0.20414039 4:-0.54682126 5:-1.0270908 
-0.204813970780018 -0 1:0.2886875 2:0.67066397 3:0.20575032 4:-0.53852475 5:-1.0270908 
-0 -4.793877442402178 1:0.037125 2:0.036062251 3:0.25209901 4:-0.54710397 5:-1.2882301 
-0 -1.381160638255751 1:0.0386875 2:0.027471314 3:0.35250833 4:-0.50311307 5:-1.2916142 
-0.1216133556374673 -1.005676650015673 1:0.037125 2:0.027470528 3:0.35999695 4:-0.54466858 5:-1.2916142 
-0 -8 1:0.0386875 2:0.027789379 3:0.23150576 4:-0.56467436 5:-1.3153029 
-0.7059238604346305 -0 1:0.037125 2:0.019277474 3:0.31611956 4:-0.56107913 5:-1.3282752 
-0 -3.24976819609841 1:0.0386875 2:0.027972683 3:0.28555589 4:-0.54794198 5:-1.3294033 
-0.4552221780632971 -7.23176041995571 1:0.037125 2:0.028014638 3:0.26883299 4:-0.57346468 5:-1.3299673 
-0 -4.080980621109205 1:0.037125 2:0.019217227 3:0.19592284 4:-0.58498824 5:-1.3361715 
-0 -8 1:0.0386875 2:0.019189092 3:0.19367627 4:-0.57193968 5:-1.3378635 
-0.8524629315431063 -6.409533046351337 1:-0.0113125 2:0.053654899 3:0.4270452 4:-0.52406765 5:-0.72083023 
-0.6576443691507956 -4.984028859236762 1:0.0074375 2:0.079567885 3:0.35079745 4:-0.5717965 5:-0.7270344 
-0 -8 1:0.0105625 2:0.079638253 3:0.37789448 4:-0.57005281 5:-0.72759842 
-0 -0.01684124446175875 1:0.009 2:0.079791648 3:0.36856233 4:-0.57342341 5:-0.7270344 
-0.1581342973528416 -8 1:0.037125 2:0.057068128 3:0.14934823 4:-0.56284392 5:-1.069956 
-0.7443944546509442 -8 1:0.1465 2:0.082685364 3:0.13785845 4:-0.56062626 5:-1.0755962 
-0 -4.148340042044053 1:-0.0113125 2:0.011240521 3:0.13055919 4:-0.50857799 5:-1.248185 
-0 -5.322357836717742 1:0.237125 2:0.53169689 3:0.27389953 4:-0.54609394 5:-0.90244332 
-0.4620574701526015 -8 1:0.018375 2:0.043546703 3:0.24490439 4:-0.55398883 5:-0.83081331 
-0.2339099733490962 -4.747204556193367 1:0.2511875 2:0.51690523 3:0.27108301 4:-0.52949476 5:-0.90751946 
-0.07969638138794415 -2.033438048458741 1:0.2011875 2:0.47969797 3:0.27538764 4:-0.55478993 5:-0.90808347 
-0.6527658906229226 -4.731474827581811 1:0.1949375 2:0.56256987 3:0.27248147 4:-0.55513692 5:-0.89849521 
-0.05889772064864517 -0 1:-0.0113125 2:0.019910468 3:0.11404166 4:-0.48834855 5:-1.2526971 
-0.272160399854531 -2.588073038795043 1:0.2324375 2:0.43659371 3:0.24620101 4:-0.53396336 5:-0.90808347 
-0.4834977936056854 -8 1:0.1668125 2:0.41884217 3:0.25688381 4:-0.55046106 5:-0.89341906 
-0.7495888555882076 -8 1:0.09025 2:0.24309581 3:0.30080099 4:-0.56968196 5:-0.87988268 
-0.2538086731337449 -8 1:0.062125 2:0.12737584 3:0.1928124 4:-0.57054143 5:-0.86127016 
-0 -8 1:0.0855625 2:0.027700008 3:0.19349482 4:-0.58816819 5:-0.90300733 
-0.4462700823919571 -8 1:0.0855625 2:0.18843471 3:0.19537305 4:-0.57554675 5:-0.8731145 
-0 -8 1:0.1215 2:0.10620897 3:0.18195422 4:-0.57382123 5:-0.90582741 
-0 -8 1:0.1386875 2:0.22448288 3:0.18637572 4:-0.57224514 5:-0.88947095 
-0.3493580499562675 -8 1:0.268375 2:0.52122878 3:0.19334739 4:-0.54878607 5:-0.92613198 
-0.453327012611419 -8 1:0.137125 2:0.29578594 3:0.22876969 4:-0.57171022 5:-0.90921151 
-0 -8 1:0.084 2:0.027822565 3:0.27386034 4:-0.57981384 5:-0.89680316 
-0.01522039879244911 -8 1:0.143375 2:0.20789769 3:0.18379676 4:-0.57290772 5:-0.88608686 
-0.2876600370359859 -8 1:0.0324375 2:0.027857473 3:0.31344251 4:-0.57218765 5:-0.89511111 
-0 -8 1:0.0480625 2:0.11996589 3:0.22433912 4:-0.5808461 5:-0.8516819 
-0 -8 1:0.0886875 2:0.07971283 3:0.20180683 4:-0.58951902 5:-0.91372363 
-0 -8 1:0.1105625 2:0.063596842 3:0.1815813 4:-0.57893851 5:-0.8945471 
-0 -8 1:0.1105625 2:0.054835966 3:0.18509848 4:-0.57951461 5:-0.89398308 
-0 -5.542237219962216 1:0.243375 2:0.31154941 3:0.18376997 4:-0.55539032 5:-0.89285505 
-0.2003801157378334 -8 1:0.20275 2:0.26481423 3:0.18299286 4:-0.56437076 5:-0.89229103 
-0.352568725716617 -8 1:0.20275 2:0.23667917 3:0.18763785 4:-0.55816694 5:-0.891163 
-0.01392551997560321 -8 1:0.0293125 2:0.088600739 3:0.2563632 4:-0.5821163 5:-0.90300733 
-0.7882228285658673 -8 1:0.2465 2:0.13562294 3:0.1766421 4:-0.56356012 5:-0.92556796 
-0.4607912898841601 -5.624470205369286 1:0.324625 2:0.68063502 3:0.19226907 4:-0.53207928 5:-0.93346418 
-0.3415182674983087 -6.336786009534046 1:0.2918125 2:0.38270489 3:0.1767877 4:-0.55834502 5:-0.89849521 
-0.9678664682518834 -3.372189422851287 1:0.424625 2:0.41280548 3:0.17017129 4:-0.55118033 5:-0.91315962 
-0.3216719083110016 -5.728629968426573 1:0.2949375 2:0.34321044 3:0.17815116 4:-0.56921773 5:-0.91710773 
-0.3535445263112394 -8 1:0.1699375 2:0.064077535 3:0.18263042 4:-0.58114659 5:-0.92105584 
-0 -8 1:0.0636875 2:0.038248065 3:0.29788915 4:-0.58224837 5:-0.85957812 
-0.22694597091539 -8 1:0.105875 2:0.037351094 3:0.22103065 4:-0.57918197 5:-0.88213875 
-0.6152394792558757 -8 1:0.3293125 2:0.58479982 3:0.2071046 4:-0.5618016 5:-0.91372363 
-0 -7.150609089165579 1:0.4168125 2:0.86665517 3:0.19627742 4:-0.54631771 5:-0.92049182 
-0.09259037645723858 -0 1:0.4215 2:0.87535038 3:0.19492872 4:-0.54018182 5:-0.92105584 
-0 -8 1:0.299625 2:0.57351472 3:0.20853012 4:-0.54827238 5:-0.91992781 
-0.4292887637095534 -8 1:0.2965 2:0.31279984 3:0.19727067 4:-0.56140915 5:-0.87424253 
-0.7653686872305621 -8 1:0.4215 2:0.84682065 3:0.20854579 4:-0.54150539 5:-0.91767174 
-0.9000699528604319 -4.648171454353757 1:0.437125 2:0.68902425 3:0.20819079 4:-0.52811248 5:-0.92274788 
-0.2197008373035075 -0 1:0.4168125 2:0.93225142 3:0.2055675 4:-0.54162463 5:-0.91428765 
-0.914241728105943 -1.237027982110953 1:0.412125 2:1.0018464 3:0.20405164 4:-0.54549938 5:-0.91146757 
-0 -0.1193614239219314 1:0.049625 2:0.037318397 3:0.18149552 4:-0.5792915 5:-0.68134913 
-0 -8 1:0.049625 2:0.037318397 3:0.17215051 4:-0.58123755 5:-0.68078511 
-0 -0.7472195572524707 1:0.418375 2:0.95090362 3:0.21022226 4:-0.54329339 5:-0.91090355 
-0 -8 1:0.2355625 2:0.37457199 3:0.22834999 4:-0.56614103 5:-0.91033954 
-0.3464351031098573 -7.776601739330376 1:0.087125 2:0.03647521 3:0.21408163 4:-0.58929415 5:-0.7197022 
